0.055119,0.078983,-0.089786,0.098721,-0.056039,-0.202322,-0.004391,0.078696,0.099910,-0.053444,0.064601,-0.034401,0.064778,-0.029377,-0.091651,-0.056215,0.126133,-0.023021,-0.077469,-0.077903,-0.091161,0.003428,-0.003681,0.002475,0.039225,-0.003936,-0.082403,0.100003,0.015239,0.071968,0.131410,0.000978,-0.036639,0.044386,-0.044269,0.017409,-0.131839,-0.111875,-0.108724,-0.086488,-0.193437,0.029707,-0.132247,0.131250,0.039046,0.033013,0.029733,0.000952,-0.210507,-0.051826,-0.044406,-0.056734,0.049460,-0.083237,-0.063019,-0.120100,-0.016438,-0.008424,0.157326,-0.033784,-0.062228,-0.174449,0.051136,0.075241,-0.037358,0.134424,0.076862,-0.124627,0.042904,-0.152862,-0.172646,-0.061962,-0.094619,-0.053910,0.042617,0.002741,0.023717,0.044020,-0.037840,0.062194,-0.122502,0.072623,-0.122882,-0.018951,-0.169703,-0.036484,0.044586,0.169253,-0.061839,-0.052308,0.054212,-0.030959,0.063458,-0.118856,-0.018127,0.009967,-0.100708,0.046706,-0.147779,-0.151879,-0.048878,0.018367,0.110723,-0.034188,-0.034807,-0.127406,-0.027492,0.083171,0.028834,0.033120,0.031180,-0.065907,0.000499,0.002770,-0.128490,0.056975,0.103705,-0.122565,-0.058721,-0.027112,-0.007891,-0.052029,0.035468,-0.038006,-0.117247,0.043296,0.055780,-0.006983,-0.057086,-0.095316,-0.052079,0.122114,-0.141578,-0.063090,-0.046542,-0.059467,0.058021,0.231689,-0.060395,-0.142418,-0.134842,-0.048321,-0.112313,0.040662,0.080296,-0.028302,0.082563,0.058977,0.095647,0.017599,-0.072251,0.096615,-0.000463,-0.199225,-0.061595,-0.016323,0.066798,-0.130704,-0.021921,-0.081606,-0.078734,0.064688,0.065767,-0.030319,0.148585,0.182753,0.099990,0.019674,-0.110996,-0.157445,0.050090,-0.020931,0.169247,-0.023163,0.018767,-0.049900,-0.045361,-0.132722,-0.038746,0.029934,0.081592,-0.040431,-0.166382,0.010724,0.032842,-0.129712,0.030580,0.085268,-0.029657,-0.110743,-0.014585,0.033328,-0.033786,0.188016,-0.005739,-0.011985,-0.022072,0.089217,-0.064971,0.013318,-0.054002,0.033597,0.075529,-0.035963,0.050093,-0.010629,-0.000700,-0.130159,0.114428,0.078262,-0.036654,-0.122034,-0.036947,-0.041700,-0.001253,0.023006,0.029844,0.071166,0.086099,0.108477,-0.066208,0.034333,0.026684,0.075640,0.124461,-0.116889,-0.038680,0.039406,0.126949,0.011750,-0.138386,-0.024900,0.025759,0.071127,-0.088141,0.178879,-0.001805,0.043190,-0.122689,-0.070497,0.248426,-0.026354,0.065960,0.037526,0.007607,0.008278,0.050175,-0.208568,-0.167322,-0.064795,0.036061,-0.062567,-0.169195,0.058187,0.037648,0.082167
0.062192,0.026962,-0.023181,-0.064959,0.001813,-0.099951,0.066977,-0.070446,-0.033918,-0.126317,-0.007891,-0.087893,0.050463,-0.044678,-0.109282,0.001547,0.001149,0.023938,-0.066841,0.105802,-0.042012,0.029696,-0.061750,-0.004512,0.081575,-0.194666,0.039085,0.047073,0.018879,-0.113618,-0.119920,-0.053688,-0.124561,-0.000779,-0.143091,0.013843,-0.023614,0.075990,-0.047078,-0.096064,0.008629,0.080484,0.029095,-0.005303,-0.050649,-0.087491,0.063656,-0.069755,0.020846,-0.072636,-0.075830,0.061035,-0.048264,0.064851,-0.034778,0.129007,0.023317,-0.071934,0.022278,0.058308,-0.227256,-0.135641,-0.040276,-0.072686,0.071573,-0.047735,-0.077753,0.059013,0.018214,-0.078501,-0.076169,-0.065648,-0.070368,0.150583,-0.030711,-0.101749,0.102193,-0.145552,0.076852,-0.063582,0.093156,-0.151438,-0.130953,-0.058762,0.024832,-0.063904,0.047851,-0.108217,-0.010581,-0.026749,0.060939,-0.119742,-0.047572,0.082570,0.213827,0.122070,0.053287,-0.003376,-0.073110,0.194592,0.009900,-0.014391,0.116799,-0.050169,0.055000,-0.011229,0.137828,-0.078336,-0.029135,0.020844,0.095660,-0.062355,0.055724,0.100312,0.020468,-0.075520,0.011392,-0.129446,-0.031188,0.155187,0.002846,0.208849,-0.103644,0.019530,0.108314,-0.178000,-0.121822,-0.071836,-0.016518,-0.023439,-0.044252,0.079955,0.078229,-0.061090,0.106982,-0.149013,0.056569,-0.102032,-0.152302,0.018256,-0.114088,0.138322,-0.013046,0.062095,-0.068101,0.124428,0.167026,0.053487,-0.124531,-0.094700,-0.059846,-0.027853,-0.113416,-0.169645,0.131166,-0.143294,-0.064447,-0.076984,-0.021941,0.001164,-0.019510,0.015820,-0.131632,-0.024750,0.041872,0.039011,-0.009622,-0.074614,0.096778,0.117423,-0.086386,-0.015606,-0.073630,-0.032154,-0.067704,0.065842,-0.094367,-0.128845,-0.066520,-0.010031,-0.072682,-0.027635,-0.009972,-0.049709,0.058609,-0.076925,-0.116768,-0.185981,0.048025,-0.002916,0.052614,0.197575,-0.064527,-0.119453,-0.055720,-0.152387,0.019387,-0.097186,-0.226756,-0.044275,0.026590,-0.026780,0.023579,-0.131407,-0.053099,-0.180572,0.131758,0.079529,-0.082627,0.100706,-0.145630,-0.022492,0.059404,-0.090604,0.105898,-0.086334,-0.006338,0.060451,-0.036592,-0.013031,0.035157,-0.100452,0.132977,-0.080028,0.053909,-0.013844,-0.005058,-0.018918,-0.036449,-0.003088,-0.107880,-0.000510,-0.022350,0.006374,-0.117732,-0.067107,-0.017795,-0.027346,0.092879,-0.056365,0.166106,-0.016245,0.051365,0.041118,-0.078741,0.046849,-0.019323,-0.135750,0.022778,-0.016349,0.163676,-0.053550,0.122865,-0.026403,-0.042788,-0.096552
-0.079118,0.151290,0.057398,-0.058983,-0.040728,-0.034558,-0.055338,0.168518,0.015542,-0.162913,-0.092419,-0.039890,-0.062671,-0.016016,-0.101222,0.020537,0.113459,0.017148,0.020801,0.079284,-0.109140,0.168189,-0.066346,-0.064750,-0.076001,0.010598,-0.011670,-0.108014,0.221348,0.020897,0.099098,0.033892,0.263351,0.021967,-0.082644,-0.039181,-0.190052,0.068872,0.032821,-0.137072,-0.066777,0.042127,0.117803,0.004320,-0.109549,-0.030074,-0.080174,0.110414,-0.030330,-0.098069,0.106561,-0.042534,-0.006426,-0.094310,-0.020678,-0.015412,0.023349,0.117187,-0.117671,0.150447,0.065041,-0.201301,0.009571,-0.027720,0.054456,-0.059283,-0.117680,-0.088938,0.027563,-0.053133,0.113748,0.076810,-0.039169,0.107500,-0.193957,-0.165024,-0.263585,-0.086567,0.043599,-0.025698,0.115278,0.037035,-0.034048,-0.070757,0.069370,0.137545,0.075525,-0.098367,-0.223059,0.086326,0.042367,0.136787,-0.115019,-0.163369,-0.161154,0.041010,-0.012675,0.075891,0.122385,0.032122,-0.032766,-0.075577,0.020994,-0.037728,-0.007175,0.228606,-0.110397,-0.072848,0.067567,-0.139949,0.009858,-0.165022,-0.053294,-0.104253,-0.110904,0.032989,-0.037222,0.056886,-0.100454,0.135330,-0.198127,0.055069,-0.009589,0.009631,0.026056,0.020746,-0.095809,-0.017808,0.124576,0.047830,-0.138729,-0.109814,-0.143968,0.064531,0.135574,-0.140251,0.096718,0.000197,-0.120979,0.021748,-0.126378,-0.066098,-0.096208,0.063478,0.056525,0.144709,-0.030940,0.047538,0.013037,-0.144620,0.078249,0.053324,-0.082629,-0.092665,-0.061348,-0.042146,0.034829,-0.058518,-0.149370,-0.086126,-0.054206,-0.127957,0.085079,-0.107665,-0.036869,-0.079754,0.170295,0.137632,-0.098035,-0.054232,-0.060421,-0.126224,0.127314,0.027327,-0.018596,0.080230,-0.178588,0.026729,-0.041038,-0.067088,-0.030393,-0.120678,-0.018666,0.089244,-0.040208,-0.116278,-0.029319,-0.032167,-0.179583,0.028102,0.001757,0.042971,0.108700,-0.089366,-0.008341,-0.139383,0.169254,0.104850,0.089945,-0.151233,-0.208853,-0.072527,-0.058823,-0.127683,0.175071,-0.014643,-0.120789,-0.036794,-0.054764,-0.096764,0.070300,-0.235676,-0.073145,0.080970,-0.104866,0.230520,0.140592,-0.053532,0.243471,0.050104,-0.032642,-0.031770,0.029243,0.019850,0.001995,-0.064660,-0.072855,-0.118603,-0.119313,-0.037129,0.124614,-0.050590,-0.051587,-0.165340,0.134725,-0.063048,-0.095386,-0.097565,0.080486,-0.040163,0.042779,-0.025069,-0.074542,-0.026257,-0.021817,0.095360,-0.110786,0.021555,-0.017676,0.037469,0.027864,-0.037994,0.002206,-0.078649,0.137016,0.106273
0.031595,-0.031298,0.115779,-0.111644,0.152429,0.139884,-0.017507,0.293268,-0.060524,0.039069,-0.055653,0.056146,0.068758,-0.095174,-0.028680,-0.020463,0.030598,0.099462,-0.104612,0.109983,-0.091509,-0.130295,0.018177,-0.151862,0.042205,-0.032606,0.086588,-0.082497,-0.008485,-0.023903,-0.058096,-0.033871,0.076519,0.195818,-0.076417,-0.164081,0.177632,0.069785,0.215934,0.108060,0.031246,-0.110418,0.063547,-0.150752,-0.120104,-0.001868,-0.018393,-0.130773,0.025335,-0.119418,0.053463,-0.085593,0.083362,-0.059101,0.129024,-0.081078,0.112781,-0.167359,0.000884,0.015387,-0.039108,-0.006656,-0.071736,-0.005239,-0.152024,-0.064177,-0.007115,-0.045124,0.059550,0.115670,0.049378,-0.107284,0.000420,-0.003082,-0.042008,-0.045151,0.030936,-0.212772,-0.141661,-0.098657,-0.031463,0.000263,-0.005595,0.034241,-0.093387,-0.037697,-0.065253,-0.037775,-0.072018,-0.101174,0.225681,0.190145,-0.043268,0.015250,-0.151144,0.108911,0.155312,-0.049992,0.003036,0.002825,-0.049498,-0.192063,0.111016,0.037321,-0.112055,0.079483,0.122596,0.201670,-0.016127,-0.083492,-0.085887,0.046514,-0.020772,-0.204158,-0.069044,-0.131853,-0.194654,0.025516,0.023047,0.160644,0.008285,-0.001265,-0.004709,0.081875,-0.031158,-0.005981,-0.101410,0.190702,0.139165,-0.195264,0.157103,0.122871,0.117569,0.157040,0.084344,0.051765,0.024862,0.228896,-0.042213,-0.029505,0.073776,0.036678,0.043696,-0.016378,0.037650,0.061313,-0.071661,0.053772,0.018487,0.131089,0.060643,-0.024156,0.106973,-0.042317,-0.078450,-0.038010,0.079497,-0.031181,-0.100197,-0.069559,-0.022840,0.010483,-0.192548,-0.112470,-0.055296,-0.027717,-0.094165,-0.132299,-0.132538,-0.107432,-0.044367,0.011239,0.118748,0.189158,-0.044180,0.188613,-0.079248,0.074276,0.087438,-0.073914,0.078968,0.032295,0.052918,0.113839,0.041720,-0.058646,0.000862,-0.015999,-0.165443,-0.044714,0.002763,-0.039547,0.100372,0.132735,0.159067,0.055649,0.019857,-0.092430,-0.053750,-0.119786,-0.025703,-0.117096,0.206067,0.099516,0.025803,-0.027056,0.108422,-0.000408,0.091030,0.053560,-0.049638,0.004085,-0.128792,0.059325,0.082916,-0.051066,-0.029903,0.057101,-0.101579,0.240512,-0.174676,-0.034060,0.083837,-0.190710,-0.037346,0.081286,0.038830,0.078160,-0.005058,-0.019958,-0.150759,-0.088965,0.165766,0.067475,0.048666,-0.078277,0.002611,0.064267,-0.193904,0.032449,-0.198105,0.004982,-0.033446,-0.044335,0.025866,0.013287,-0.165459,-0.113800,-0.005349,-0.084624,0.073850,0.038184,-0.083274,0.093359,0.149396,0.004652
0.102079,0.030272,-0.003771,-0.045655,-0.041346,-0.099809,0.061542,0.135205,-0.030854,-0.074907,-0.090093,0.215253,0.006406,0.065380,-0.079288,-0.044913,0.132050,-0.041609,0.030695,-0.017952,-0.177556,0.003754,0.066126,-0.096098,-0.025186,0.062364,-0.058270,-0.011504,0.009636,-0.097572,0.047859,0.147504,0.040086,-0.062877,-0.086397,-0.010225,0.088549,-0.031467,-0.032147,-0.026425,-0.012040,0.007199,-0.062279,-0.124037,0.029252,0.115897,0.121139,-0.067678,0.000770,0.168187,-0.042659,0.023531,-0.194334,-0.213502,0.024005,0.030086,0.007722,-0.000656,-0.086166,-0.198506,-0.149809,-0.020294,-0.095315,0.028119,0.051414,0.145606,0.041573,-0.063976,-0.053955,-0.016517,-0.105196,0.037389,-0.016434,-0.016132,-0.090162,0.099985,-0.002029,0.063571,-0.060582,-0.051309,-0.228160,0.027802,-0.089697,0.153383,-0.027056,-0.169771,0.049281,-0.046414,-0.105100,0.007343,0.031555,0.104638,0.026441,-0.035565,-0.008017,-0.041976,0.019321,0.075163,-0.109464,-0.118208,-0.079005,0.055220,0.170256,-0.092229,0.029136,0.100537,0.030598,-0.045747,0.155672,-0.094380,-0.110732,0.008441,-0.088019,-0.046501,-0.004553,-0.095873,-0.082943,0.054773,0.026564,0.006862,0.014161,-0.069006,-0.110955,-0.016728,-0.052889,0.023902,-0.171578,0.057249,0.147891,-0.165997,-0.031619,-0.115912,-0.111397,-0.148828,-0.018004,-0.089433,-0.102949,0.058611,-0.096670,-0.095320,0.012583,-0.106241,0.120872,-0.107776,0.099006,0.102435,-0.053514,0.247101,-0.052214,0.079298,-0.000724,0.044653,0.185107,-0.064126,0.071697,-0.226578,-0.058011,0.020564,-0.128187,0.008634,-0.036317,-0.048278,-0.047435,-0.302432,-0.057486,-0.050731,-0.187827,-0.090256,0.030348,0.106126,-0.027677,-0.058563,-0.007956,-0.101326,-0.039710,-0.123895,0.006106,-0.155714,0.081308,0.053858,0.099646,0.171397,-0.092089,-0.049531,-0.034917,0.052820,-0.147224,-0.120393,-0.135798,0.109849,-0.154136,-0.074342,0.062010,-0.031987,0.088050,-0.105341,-0.054481,0.120341,-0.007326,-0.048540,0.059069,-0.035845,-0.035945,-0.160576,-0.028172,0.050286,0.063285,-0.038704,0.024647,-0.100684,-0.054184,0.116058,0.010953,-0.020152,0.070156,-0.082707,-0.196427,-0.053073,-0.223479,-0.131354,0.026029,-0.017119,-0.080594,-0.065806,-0.088323,-0.030222,0.030801,0.017076,-0.046999,0.140192,0.022432,-0.014367,0.104558,-0.010512,0.251661,0.098475,-0.035969,0.110418,-0.101387,0.111413,-0.029220,0.273962,0.041365,0.010828,-0.104928,-0.098076,0.284267,0.090610,-0.249475,-0.050769,-0.046509,-0.039899,-0.119443,0.111939,0.024855,-0.098037
0.080028,0.115118,-0.213316,-0.061098,-0.088248,-0.025740,0.046861,-0.218070,-0.024111,-0.062024,0.013733,0.201906,-0.121027,-0.104555,-0.088170,-0.023756,-0.131585,0.045777,-0.121685,-0.202109,-0.014002,0.042857,0.129704,-0.087047,-0.028876,0.010582,0.163839,-0.102852,0.041611,0.129393,-0.147932,0.017147,0.024566,-0.118283,-0.157149,-0.300288,-0.030582,-0.180642,0.008219,-0.142395,-0.156723,-0.071843,-0.089460,0.069667,0.042117,-0.182944,0.011220,-0.018360,-0.089324,-0.275330,0.043006,0.068506,-0.148412,-0.200234,0.182630,0.132633,-0.088922,-0.049408,-0.022044,-0.010526,-0.053361,0.007528,0.160665,-0.000716,0.067936,-0.187330,-0.077992,-0.062407,0.076156,-0.017141,0.052608,0.224628,-0.024669,0.306415,-0.063065,-0.130400,0.011044,-0.088979,-0.084828,0.095711,-0.110340,0.167886,-0.036459,0.055687,-0.203526,0.140611,-0.178405,0.019935,-0.024077,0.017602,-0.239789,0.241093,-0.311416,-0.086430,-0.218548,-0.270524,0.009560,-0.033255,0.077854,0.095235,-0.052956,-0.118479,0.085800,-0.021742,-0.118876,-0.110709,-0.006284,0.003699,0.133698,0.034937,0.142874,0.099389,-0.046926,-0.190211,-0.165493,0.020151,-0.080591,0.167468,0.011003,-0.006727,-0.062503,-0.211488,0.174338,0.052810,-0.172133,-0.043335,0.060079,-0.022875,0.006450,-0.165206,0.393565,0.150098,-0.118631,-0.112992,-0.061104,0.008474,0.008814,-0.004075,0.241062,0.024328,-0.020307,-0.011703,0.256265,-0.042499,-0.265630,0.054040,0.054883,0.150391,-0.010890,0.096753,-0.061425,0.067700,-0.104190,-0.040726,0.064969,-0.009056,0.152600,-0.053132,-0.129553,0.090451,-0.022120,0.091142,-0.074559,0.011850,0.158649,-0.064626,0.029635,0.034737,0.021861,-0.037244,0.152452,0.016900,-0.031080,0.205181,0.078120,0.077853,0.184754,-0.193644,-0.134048,0.007732,0.026559,-0.095000,0.044719,0.058196,-0.222235,0.018421,0.130788,0.131229,-0.034972,-0.051549,-0.246681,0.004067,0.239237,-0.032598,0.188163,-0.063698,-0.174111,0.004870,-0.042081,0.056824,-0.232658,0.017032,-0.132263,0.171334,-0.049510,-0.094096,0.123715,-0.130592,-0.041533,0.254435,-0.104193,0.014828,-0.160160,0.001720,0.093495,-0.129711,0.138755,0.037133,-0.131026,0.032609,0.063858,-0.027362,-0.023383,-0.127882,-0.016928,-0.006420,0.167439,-0.049748,0.142070,0.065038,-0.107993,-0.029895,0.049006,0.173785,-0.066731,0.112784,0.127609,0.189915,0.213638,0.153012,-0.094746,-0.219083,0.102659,-0.156900,0.086549,-0.031536,0.151825,0.072448,0.122541,-0.050480,0.094518,0.008072,-0.042956,-0.081031,-0.182604,-0.117763
0.199071,0.018538,-0.030295,0.026635,0.025389,0.025570,0.080474,-0.114996,-0.062483,-0.067819,-0.000353,0.310100,-0.009077,-0.034169,-0.168032,0.121939,-0.127389,-0.019796,0.084239,-0.069218,0.036511,0.102346,-0.017722,0.046158,0.108940,0.057792,0.027581,0.036885,-0.091689,0.116800,-0.036599,0.000363,0.111079,-0.067827,-0.054007,0.100181,0.021646,0.026595,-0.139548,0.051438,0.104625,-0.054090,-0.008551,-0.130774,0.037728,-0.240111,-0.083331,-0.290641,0.030282,0.022783,-0.044173,0.054748,0.124725,0.155107,0.122026,0.021478,-0.063738,0.018171,0.100364,0.012252,0.043753,0.094381,-0.021970,0.053908,0.023949,-0.101758,0.035331,-0.135059,-0.017012,-0.151826,-0.067296,0.195826,0.005528,0.202311,-0.223377,0.063695,0.100596,0.078400,0.011058,0.264081,-0.128080,0.022518,0.074878,0.040811,-0.078838,0.061219,-0.003789,-0.092819,-0.119290,-0.014696,-0.211577,-0.044859,0.113245,0.100629,-0.062388,0.031555,-0.036702,-0.121797,-0.014092,-0.010693,-0.051228,-0.120220,0.058985,0.135822,0.068075,0.023880,-0.021810,-0.072601,0.025891,-0.068662,0.089077,-0.054776,-0.192520,0.137349,-0.027498,-0.058684,0.021984,-0.023173,-0.131411,-0.069030,-0.106280,0.248649,-0.008978,0.093387,-0.005634,0.046579,0.057803,0.004602,0.132820,-0.143372,-0.043321,-0.206221,-0.031416,0.033067,0.122244,0.007562,-0.143402,0.055314,-0.035988,-0.009116,-0.061982,0.027677,-0.105690,-0.070823,-0.227985,-0.041282,-0.079100,-0.135581,-0.123899,-0.053665,0.020530,0.114877,-0.056960,0.114970,0.058591,0.049081,0.021375,0.042152,0.045454,0.086404,-0.227500,-0.036478,-0.108782,-0.053370,0.008503,0.020142,-0.111732,0.080921,-0.088353,-0.084698,-0.109797,-0.042794,0.055921,-0.039641,0.056898,-0.035926,-0.006926,-0.180533,0.173102,0.053626,0.033734,-0.011845,0.144319,0.090317,0.072902,0.022102,-0.101300,-0.056946,-0.050698,0.008719,-0.006790,-0.012307,0.065768,-0.058110,-0.003891,0.161970,0.015709,0.066050,0.052068,-0.147047,-0.004632,0.022865,-0.192405,0.065281,-0.127030,0.135722,0.026868,-0.040837,0.017390,-0.133209,0.016928,0.014487,-0.158917,0.001052,-0.024292,0.084329,0.053880,0.078216,-0.008637,-0.083284,0.062567,0.044833,0.110962,0.035869,-0.142825,-0.068362,-0.022082,-0.031638,0.014581,0.059511,-0.095583,0.042043,-0.120786,-0.107822,-0.110970,0.048154,0.032035,-0.045547,-0.069102,-0.092018,0.258445,-0.040583,-0.098975,-0.080650,-0.046084,0.160260,-0.091108,-0.023543,0.082245,-0.179166,0.025910,0.121793,0.031878,0.223714,-0.051615,-0.063433
-0.039388,0.050270,-0.128358,-0.047269,0.013643,0.055984,0.117247,0.286548,-0.102418,0.140919,-0.057259,0.127573,0.154878,-0.018010,-0.045161,-0.013692,-0.014949,0.190764,0.109130,0.126625,0.252305,0.013405,0.010768,-0.034650,-0.042659,0.058426,0.097154,0.032165,0.087426,-0.052545,0.016349,-0.237321,0.014697,0.036832,-0.152344,-0.275783,-0.152988,-0.135782,0.057305,-0.120627,-0.211205,-0.080750,0.271397,-0.117870,0.105531,-0.260143,-0.160651,0.006838,-0.103652,-0.013334,-0.029202,0.195954,-0.099438,-0.021456,0.012036,-0.057640,-0.109201,-0.282813,-0.207370,-0.180821,-0.090977,0.027968,0.025182,0.014442,-0.254973,0.025250,-0.152372,-0.080912,-0.068665,-0.100486,0.088850,-0.062373,-0.051631,0.314379,0.102936,-0.092502,0.057619,-0.061170,0.030421,0.012207,0.066228,0.064541,0.170180,-0.060401,-0.355863,0.159304,0.006436,0.130985,-0.025118,-0.092643,-0.127676,0.125244,-0.034987,0.038582,-0.056680,-0.114688,0.080077,0.115473,0.106016,-0.048696,0.063373,-0.204743,0.105627,0.091385,0.017266,-0.152471,0.166031,0.160861,0.113808,-0.034769,0.194200,0.036545,0.182727,-0.133776,-0.029530,-0.132951,-0.021999,0.176502,-0.090464,0.037635,-0.192447,-0.042340,-0.036823,-0.051248,0.315461,0.043772,0.054617,-0.041896,0.026467,-0.091929,0.304445,0.147193,0.127093,0.189876,0.014570,-0.131065,-0.034234,0.062930,0.077418,-0.103594,-0.081959,0.094699,0.285039,-0.032053,-0.120341,-0.026819,0.017613,0.035456,-0.238137,-0.188049,-0.121355,0.077223,-0.010125,-0.152299,0.032344,-0.083664,0.073694,-0.101845,-0.084784,0.119445,-0.001042,-0.024716,-0.068726,-0.006795,0.098015,-0.050264,-0.216997,0.070121,0.018704,0.169441,0.039306,0.102186,0.220644,-0.121555,0.184646,0.062399,0.183035,-0.225016,-0.188275,0.089120,-0.093465,-0.000342,0.183764,-0.088607,-0.115806,0.150052,0.109676,-0.091097,-0.199927,0.036926,-0.144768,0.094326,0.038976,0.000286,0.140130,0.049359,0.033005,-0.028156,-0.112550,0.042015,-0.145322,-0.058806,0.024907,0.216809,-0.181565,0.058020,0.247715,0.033670,-0.064609,0.165138,-0.003741,0.035874,-0.099772,-0.033971,-0.221989,-0.185879,0.044126,0.068248,-0.178487,-0.049251,0.035815,0.069401,0.139885,0.045163,-0.168502,-0.090037,0.108836,-0.051442,-0.037889,0.180096,-0.222625,-0.127170,0.125995,-0.104220,0.202413,0.231381,0.012742,0.211858,0.163907,-0.041689,-0.119571,-0.150057,0.085144,0.055866,-0.059666,-0.050590,-0.031136,0.040230,-0.022417,-0.050289,0.084067,0.039352,-0.163676,-0.011568,0.143927,0.016701
0.011977,0.017835,-0.027859,-0.015964,-0.074478,0.042880,-0.160874,-0.012837,0.039386,-0.109520,-0.064983,0.104062,-0.004367,-0.054054,-0.113571,-0.181093,0.012493,-0.036201,0.012792,0.075131,-0.085241,-0.093864,0.021691,-0.124096,-0.106912,0.111157,-0.114911,0.022995,-0.013195,-0.083693,-0.024817,0.090369,0.024623,0.042316,0.225430,0.175485,-0.181298,-0.015003,0.010898,-0.105243,0.157590,0.108216,-0.063490,0.064854,0.007886,-0.005560,-0.142182,-0.008163,0.070121,-0.094420,0.008073,-0.029778,-0.025485,-0.145414,-0.033419,-0.107455,-0.031701,0.057797,-0.043031,-0.112225,0.053198,0.069782,0.045634,0.075605,-0.007763,0.003386,0.060489,0.025282,-0.061844,-0.023668,-0.006278,-0.176102,-0.015653,-0.258219,0.112147,0.084516,-0.049178,-0.018485,-0.049954,-0.058807,-0.065040,0.115633,-0.017600,-0.059441,0.210020,-0.005987,-0.122364,-0.115838,-0.043622,-0.181360,0.018440,-0.049694,-0.157696,-0.052988,0.089347,0.086465,0.046611,-0.034728,0.082239,0.040953,0.004506,-0.024203,-0.048921,0.020523,-0.159104,-0.073867,-0.215565,0.100077,-0.123736,-0.103000,-0.102842,0.031679,-0.112363,0.005884,-0.013501,-0.021402,0.046511,-0.072069,-0.009686,-0.011808,0.024747,-0.148102,0.057953,-0.178016,-0.073997,-0.077391,-0.001608,0.033846,0.105700,0.062651,0.071354,-0.108821,0.069666,-0.041213,0.052537,0.000732,-0.033690,0.021395,0.017049,0.105547,0.042901,0.158945,0.063420,0.071258,-0.066084,-0.026012,0.067678,-0.018782,0.050200,-0.069605,-0.116875,0.012629,0.062263,-0.136004,0.062923,0.084860,0.149495,-0.009077,0.113166,-0.001050,-0.186280,0.178084,0.051373,-0.143649,0.021485,0.081009,0.068070,0.004577,-0.105121,0.032647,0.058268,-0.032479,-0.009991,0.032204,0.098392,0.079945,-0.075018,-0.044176,-0.012575,-0.042599,0.068504,0.169053,-0.084704,-0.145961,0.127237,0.065811,-0.025898,-0.017562,0.032982,-0.082152,0.196013,-0.059746,-0.177379,-0.066787,-0.070956,0.053307,-0.099784,-0.070296,-0.018507,0.001135,-0.026093,0.036389,-0.088837,-0.076319,0.087134,0.185243,-0.226619,0.150420,-0.055864,-0.137277,-0.126319,-0.014607,0.122508,-0.017322,-0.034234,-0.002233,0.074929,-0.039272,-0.048300,-0.084049,-0.248229,-0.066469,-0.118388,-0.004329,0.056996,-0.162416,-0.015396,0.010105,-0.000387,-0.016249,0.075314,-0.006790,0.068345,0.086487,0.097421,-0.055950,-0.053033,0.007465,-0.079034,0.036693,0.120855,-0.124670,-0.074349,-0.044844,-0.211314,-0.027481,-0.069728,-0.087192,-0.025562,-0.004386,-0.015352,0.009935,-0.074853,-0.088969,0.103975,-0.005795
-0.012963,0.145282,-0.011281,-0.016718,0.030888,-0.104301,0.011491,-0.092536,-0.036907,-0.179440,-0.213865,-0.250626,0.198774,0.044212,0.132881,0.125719,0.056275,-0.097770,-0.188904,-0.003397,0.294756,0.214346,0.107817,-0.032271,0.112811,0.033138,-0.030993,0.021994,-0.161960,-0.219224,-0.106751,0.089182,-0.099431,-0.250457,-0.088059,0.018796,0.133082,0.027479,0.056748,0.135004,-0.098291,-0.084042,-0.120834,-0.079090,0.137545,-0.212168,0.115484,0.344668,-0.009262,-0.033823,0.129923,0.011639,0.335336,-0.008172,-0.176612,-0.042732,0.091726,0.158483,0.080722,-0.036702,0.130266,0.048439,0.187632,-0.162084,-0.062469,-0.213966,-0.006109,-0.107107,-0.080635,0.150519,0.044433,-0.017958,0.090411,0.032622,0.008934,0.150653,0.065281,-0.020805,0.139173,-0.114163,0.113150,-0.040284,0.049039,0.180136,-0.274722,-0.199549,-0.007492,0.215306,-0.116528,-0.016391,0.091681,-0.110484,0.025575,0.118916,0.207085,-0.095570,0.078723,-0.039345,-0.009818,-0.070836,-0.044524,0.037091,-0.106690,-0.054699,-0.169315,-0.021980,0.130102,-0.141028,-0.004541,-0.027487,-0.086776,-0.093642,-0.138901,0.021068,0.153895,0.208792,0.130855,0.180772,-0.013860,-0.176167,0.042569,0.215887,-0.156198,-0.065906,-0.096036,-0.214369,-0.168445,-0.200619,-0.106516,-0.014771,0.097489,-0.144533,-0.185235,-0.076989,-0.038034,0.338056,0.289639,-0.128072,0.106229,0.138868,0.040686,-0.055549,-0.126771,0.164577,0.223398,-0.029705,-0.173538,0.083133,-0.024562,0.095897,0.032578,-0.065339,0.066603,-0.046114,0.107137,-0.229527,-0.348846,0.168287,-0.160012,-0.085582,-0.035388,-0.377392,-0.055569,-0.028942,-0.002147,-0.128724,-0.135417,-0.159921,-0.075021,-0.236372,0.151203,0.063583,-0.076693,-0.066842,-0.192925,0.038446,-0.016410,0.004788,0.041052,-0.038861,-0.064422,0.088928,-0.237634,-0.129377,0.078276,-0.038075,0.048848,0.117940,0.324126,-0.032996,-0.034701,0.116982,0.020820,0.037893,-0.040728,0.107257,-0.121016,0.052581,-0.040068,0.218803,0.113706,-0.141688,0.085245,-0.099422,0.414525,-0.158837,0.022618,0.297683,-0.172560,-0.090845,0.155098,0.134343,0.030835,0.064800,-0.164430,-0.039530,-0.081257,-0.065320,-0.028509,-0.081380,0.115217,-0.043311,-0.021622,0.078582,0.231452,-0.068532,-0.113037,0.341758,0.054984,0.049142,0.101296,-0.088889,0.075956,-0.032790,-0.143832,-0.068620,-0.031770,0.049421,0.198376,-0.182460,-0.085298,0.131837,0.221457,-0.100037,-0.189481,-0.057876,0.119026,0.087319,0.113361,0.212186,-0.146186,-0.104415,0.172940,-0.318414,-0.121372,0.019323
0.091830,0.096201,0.172560,-0.039086,0.140853,0.014253,0.075403,-0.038237,0.029753,0.026864,-0.065189,-0.129953,0.023481,0.008838,0.003266,-0.181329,0.017619,-0.079425,0.175393,0.182923,-0.221885,-0.002360,-0.017346,-0.016669,-0.019835,-0.056613,-0.095720,-0.138980,-0.116438,0.040655,0.048930,0.019850,-0.059235,0.003609,-0.010498,-0.048481,-0.007593,-0.009315,-0.013797,-0.112721,0.019648,0.045048,0.052865,-0.133707,-0.098045,0.108223,0.119108,-0.169203,-0.087982,-0.049127,0.007266,0.139284,0.074754,-0.089124,0.022081,-0.002638,0.042621,0.107694,-0.215265,0.117296,-0.028685,0.042200,-0.155302,0.000660,-0.005851,0.105048,0.097483,-0.118149,-0.010582,-0.021014,0.117323,-0.014356,0.031478,-0.168293,0.045323,0.100605,0.091742,0.025205,-0.107176,0.002187,0.003018,-0.010899,0.203958,0.141610,-0.034745,-0.199623,0.146692,0.118584,0.048509,0.105070,-0.052338,-0.069029,0.039683,-0.085428,0.056944,0.128820,-0.205542,-0.160998,-0.002258,0.152697,0.038548,-0.021170,0.123246,0.151699,0.058987,0.205419,-0.080567,0.063896,0.009549,-0.094765,0.034688,-0.112200,-0.050982,-0.030218,-0.047629,-0.006972,0.236370,0.021932,0.048064,0.008308,0.013916,-0.005681,0.064696,-0.106644,0.003356,-0.180015,-0.080803,-0.031805,0.097518,0.007727,0.018151,-0.169196,0.091309,0.028548,0.024426,0.010881,-0.015583,0.056458,-0.015891,-0.076982,0.070880,0.053762,-0.038383,-0.040692,0.009520,0.050325,0.059403,-0.136399,0.133251,0.080093,-0.032924,-0.067454,-0.020138,0.183629,0.013238,0.137561,0.093721,-0.028037,-0.064926,-0.064250,0.079467,-0.347170,0.001777,0.129763,0.092160,0.075639,-0.059744,0.137103,-0.000238,-0.041272,-0.068950,-0.115494,-0.000550,-0.001433,-0.010019,-0.101933,-0.107093,0.021135,0.022462,-0.119222,-0.216737,-0.050821,0.033543,0.029024,-0.073147,0.038362,0.012476,-0.086822,0.076707,0.130388,0.056365,0.091129,-0.010901,0.080439,0.031897,-0.065257,-0.197756,0.153668,-0.011511,-0.140932,0.086847,0.106325,0.090901,-0.036771,-0.104200,-0.166811,-0.112802,-0.045064,0.096902,0.057269,-0.062787,0.088507,0.056677,-0.119314,-0.137805,-0.099451,-0.072824,-0.028848,-0.174614,-0.071024,-0.152079,-0.023548,-0.051255,-0.025535,-0.130329,-0.116091,0.075497,-0.045353,-0.070722,0.011285,0.105023,-0.052995,-0.030764,0.036562,-0.123359,-0.069533,0.041969,0.011697,-0.076581,-0.214294,0.030673,-0.049539,-0.112929,0.027442,-0.220451,0.074949,0.050737,-0.079627,-0.076757,-0.023938,-0.058881,0.106833,-0.043390,0.076994,0.014396,0.012947
-0.021330,0.025908,0.108802,-0.132154,0.046943,-0.101411,0.085195,0.144741,0.104774,-0.063664,0.031416,-0.116084,0.054081,-0.079301,0.201394,0.042045,0.072578,-0.053635,-0.071164,-0.029239,0.064112,-0.108058,0.082605,-0.054848,0.099019,-0.029074,0.036986,0.076781,-0.024285,0.104245,-0.004818,0.139089,-0.002118,-0.145131,-0.011695,0.040085,0.169533,0.188764,0.036985,0.038168,0.016101,0.075135,-0.031989,-0.121114,0.080549,-0.384357,0.092519,0.133833,0.017646,0.048163,0.028998,0.008712,0.335429,0.054460,0.057475,-0.254196,-0.032637,0.098017,0.024780,0.069973,0.046942,0.227401,0.047447,0.109654,0.141172,-0.030702,0.026050,0.014524,-0.036207,0.054038,0.054988,0.288840,0.143599,0.093303,0.010805,-0.094377,0.163212,0.145305,0.092030,0.080535,0.143572,-0.011804,-0.003836,0.230737,-0.215338,-0.002186,0.020429,-0.021185,-0.134471,-0.047029,-0.301416,-0.045351,0.112175,0.020551,0.099463,0.047986,-0.092678,-0.097787,0.182626,0.112247,0.099970,0.250289,-0.133217,0.101032,-0.010767,-0.096597,-0.072379,-0.126568,0.072082,0.018581,-0.049564,0.117617,-0.062541,-0.001404,-0.026106,0.089283,0.211991,-0.101471,0.034021,0.010305,0.212832,0.135470,0.109828,0.067568,-0.089272,-0.145168,0.029843,-0.006592,0.206362,-0.108049,-0.303526,-0.003577,0.017093,0.045837,-0.123653,0.250167,0.095041,0.082207,0.056344,0.173102,-0.119852,0.127893,0.022746,0.203267,0.227860,-0.028721,-0.042830,-0.030618,0.107410,-0.092454,0.023198,-0.083220,-0.224820,0.102914,0.049767,0.061278,-0.057035,0.060668,-0.059941,-0.077063,-0.085749,-0.162397,-0.072484,0.089374,-0.047072,0.124367,-0.076951,-0.013913,0.016532,-0.169943,-0.008089,-0.189873,-0.047751,0.063821,0.020052,0.065776,-0.141703,0.195838,0.055581,-0.012303,-0.155614,0.186687,0.067726,0.108086,0.044671,-0.059272,-0.014524,0.136135,0.085979,0.178771,0.105851,-0.014512,-0.011733,-0.058597,-0.055115,0.014588,-0.023489,-0.077156,0.010631,0.047517,0.018372,-0.036001,0.052944,0.038642,0.167399,-0.089275,0.120135,-0.052315,0.024560,-0.176570,0.019953,0.017540,0.036278,-0.047305,0.070787,-0.040223,0.061496,-0.088742,-0.105959,-0.018549,0.116851,-0.052042,0.029672,0.018144,-0.122702,0.163480,0.018558,-0.044914,0.040427,0.036230,-0.192534,-0.018941,-0.033643,0.074054,0.125489,-0.015778,-0.007261,-0.121318,-0.074633,0.125127,0.057545,0.215533,0.078321,-0.042010,-0.125019,0.068864,0.205000,0.142861,-0.041977,0.064045,-0.134722,-0.105712,-0.007890,0.152816,0.007095,0.123807
-0.088664,-0.089333,-0.124344,-0.096097,0.012943,0.026995,-0.205098,0.009109,0.088987,-0.010575,-0.058421,-0.101683,0.027817,-0.128988,0.068315,0.028165,0.136648,0.097240,0.064603,0.005284,0.172311,0.182257,-0.048890,-0.241487,-0.167735,0.117882,0.132110,-0.040607,-0.115918,0.170509,0.077620,-0.155883,0.183961,-0.006066,0.040121,-0.049958,0.014986,-0.022531,0.054287,-0.124524,-0.168457,-0.310832,-0.027510,-0.060434,-0.059740,0.124697,-0.077105,0.153463,-0.070781,-0.067303,-0.036285,-0.120623,-0.082240,-0.001686,0.014608,-0.033609,0.011617,-0.231026,-0.051337,0.074326,0.014037,0.098678,-0.035882,0.089565,-0.031702,-0.114608,-0.316701,-0.005986,-0.123170,-0.087643,-0.051266,-0.180418,-0.159721,-0.011387,0.078838,-0.135630,-0.049476,-0.020513,-0.016371,0.009866,-0.015766,0.014181,-0.032195,0.074094,-0.124622,-0.093017,-0.099061,0.070476,-0.039662,-0.130014,-0.140621,-0.095935,-0.142533,-0.096054,-0.082610,0.018888,-0.099679,0.029170,0.053089,-0.134950,-0.083271,-0.073410,-0.070879,-0.034260,0.002058,-0.037942,0.005883,-0.076211,0.036351,-0.028603,-0.071198,-0.070324,-0.055741,0.053509,-0.138972,0.014799,-0.049373,0.145357,-0.046386,-0.010342,-0.098714,0.000297,-0.041603,-0.207277,-0.074433,-0.134862,-0.191330,0.091033,0.050562,-0.035013,0.059962,-0.157356,0.017927,0.075772,-0.113992,-0.080759,-0.086849,0.081534,-0.196194,-0.034526,-0.130606,0.070002,0.003312,0.059376,0.064787,0.113210,0.091025,-0.102826,-0.068112,0.095986,-0.099738,0.118876,-0.042904,-0.010850,0.058371,0.008259,-0.156001,0.054837,0.040049,-0.027565,-0.029203,-0.089609,0.080292,-0.038747,-0.013639,0.045180,-0.009855,-0.039769,-0.001965,-0.116366,-0.261575,-0.075924,-0.005777,0.266527,-0.036093,0.005473,-0.131082,0.037513,0.095306,-0.028747,0.126412,0.251814,0.010261,-0.046418,0.104338,0.062624,0.232733,0.040395,0.056664,0.028537,-0.081020,0.041993,0.181609,-0.030747,-0.040806,0.124685,0.063001,0.117405,-0.053880,-0.138510,-0.093614,0.124928,-0.062395,0.018051,0.258687,0.061022,-0.134751,0.043491,0.000532,0.096286,-0.204116,0.131256,0.015792,0.029237,0.100489,0.037600,0.042323,0.035534,-0.121516,-0.053283,-0.029969,0.012513,-0.042396,0.007224,0.008248,-0.100839,0.120505,0.004703,0.036784,-0.011982,0.017192,-0.031537,-0.100564,-0.033003,-0.001607,0.124309,-0.024836,-0.096308,0.043787,-0.224347,-0.048807,0.071601,0.033192,0.066153,-0.087044,0.115115,-0.099512,0.074784,-0.026683,-0.041018,0.086013,0.082416,0.014213,0.003543,0.036137,-0.144200
-0.062190,0.006575,0.035759,0.034077,0.071348,-0.132356,0.133184,-0.090680,-0.053550,0.061138,0.086956,-0.090577,0.113734,-0.150420,0.188671,0.056830,-0.015274,0.000455,-0.015490,-0.026132,-0.070020,0.034492,0.172955,-0.049823,-0.123378,-0.036139,-0.030416,-0.020012,-0.046867,-0.025917,-0.163631,-0.217414,-0.003046,0.097100,-0.150037,0.154586,-0.173874,0.044935,0.028998,0.043393,-0.020266,-0.216256,0.007514,0.042994,-0.056405,0.182235,0.034027,-0.074483,0.018660,-0.073779,-0.015331,-0.009336,-0.097103,-0.005953,-0.089265,0.006440,0.047800,-0.067615,-0.019698,-0.140693,-0.073199,-0.015912,-0.044735,-0.121459,0.041988,0.044439,-0.174419,-0.099611,-0.042327,-0.186907,-0.035764,-0.270447,0.044126,0.182428,-0.116304,-0.245925,0.006414,-0.137221,-0.000312,-0.000765,0.084479,0.064741,-0.031167,-0.127286,-0.080394,-0.085569,0.067007,-0.058248,0.038866,-0.044834,0.005388,-0.046336,-0.031472,0.099270,0.038641,0.069829,-0.027908,-0.013645,-0.025093,-0.068870,0.087436,0.164198,0.063265,0.114849,0.036461,-0.088421,0.060195,-0.007549,0.021932,0.102809,-0.018506,0.014447,-0.058467,0.112897,0.082708,-0.066644,-0.106183,-0.101916,0.088515,-0.036504,-0.044874,-0.069360,0.054950,-0.099519,-0.015314,-0.071118,-0.086317,-0.069035,0.096709,-0.041685,-0.060621,-0.077290,-0.000474,0.023404,-0.046691,0.045473,0.018325,-0.102016,0.007320,-0.131468,-0.001716,-0.024512,-0.104002,0.087932,0.062620,0.161113,0.038571,-0.039985,-0.028334,-0.025157,0.123491,-0.035435,-0.095904,-0.102699,0.106587,0.091043,-0.068119,0.032144,-0.112674,-0.170326,-0.185839,-0.045232,-0.048411,-0.060364,0.029277,-0.075408,-0.009169,-0.053118,-0.091087,0.004225,0.084475,-0.026851,0.008901,-0.258794,0.117073,0.193738,-0.156052,-0.038313,-0.044835,-0.016328,0.019138,0.019082,0.090626,-0.155653,-0.006544,0.063323,-0.084455,-0.009042,-0.114108,-0.117283,-0.022347,-0.114803,-0.025269,0.228614,0.091782,0.147196,0.024784,-0.120621,0.066412,-0.058364,-0.028765,-0.091012,-0.216246,-0.022412,0.065275,0.027841,-0.006106,-0.054071,0.040070,0.208416,0.114332,-0.040039,0.062747,0.061805,0.089418,-0.012469,-0.046254,0.022147,-0.017155,0.011144,-0.055517,0.093431,-0.016637,-0.041383,0.005571,0.136885,0.046392,-0.080650,0.012176,0.000746,0.179043,0.093214,-0.176534,-0.015729,0.104808,0.001871,0.005813,-0.065185,-0.167200,0.086422,0.078839,-0.033573,-0.124447,-0.034470,-0.073861,-0.116920,0.025611,0.018594,0.024719,0.028818,-0.061553,-0.040943,-0.048042,-0.051760,-0.088198,0.028674
0.049436,-0.061289,0.129100,-0.031799,-0.122861,0.038589,0.041932,0.112757,-0.083736,-0.028604,0.099018,0.148568,-0.129457,0.124887,-0.071592,-0.039200,-0.027013,-0.066603,-0.175659,0.106752,0.008611,0.006687,0.074777,-0.172268,-0.033486,-0.024513,0.217667,-0.053499,-0.088919,0.223296,0.114389,-0.063155,-0.039273,0.054734,-0.024050,0.010518,0.021698,0.102680,-0.059667,-0.127715,-0.017838,0.038174,0.061952,-0.030560,0.124246,-0.187191,-0.150680,-0.057476,-0.079851,0.022848,-0.030914,0.161657,0.093276,-0.126696,0.224160,-0.006221,-0.091152,-0.072882,0.147361,-0.080605,-0.156518,0.154302,0.060409,0.100359,0.030666,0.003251,0.066285,0.101835,-0.146050,-0.003131,-0.119137,0.171253,0.068829,-0.211663,0.013761,-0.039477,0.055529,0.000497,-0.041387,0.233677,-0.115259,0.016678,0.134717,0.140174,-0.294222,-0.120173,-0.152468,-0.149323,0.070980,-0.026686,-0.139425,-0.056642,-0.177771,-0.104253,-0.161552,0.134634,-0.175195,-0.101842,-0.046497,0.203104,0.022799,-0.123936,-0.071832,0.117189,0.082712,-0.053986,-0.085873,-0.023545,-0.013004,0.011208,0.129082,-0.069178,-0.167693,0.059407,0.010257,0.175934,-0.048965,-0.127940,-0.060139,0.072493,0.140980,0.040891,0.060854,-0.059209,0.084372,-0.207992,-0.058702,-0.118402,-0.045553,0.006000,0.032602,-0.175654,-0.108198,-0.019602,-0.139647,-0.154594,-0.099977,0.130756,0.086445,-0.040559,-0.103324,-0.128009,0.029644,-0.165690,0.007780,0.041525,-0.088381,-0.123805,-0.039404,0.118406,0.007035,-0.132865,-0.047912,0.178520,-0.112176,0.303767,0.164754,0.094378,0.110766,0.103644,-0.048280,-0.200727,-0.024384,0.034721,-0.075371,-0.100614,-0.059525,-0.019679,0.115172,0.004893,0.030042,-0.066754,-0.058930,-0.138497,0.003773,0.003248,0.015720,0.062351,0.048284,0.000484,0.139169,0.019190,0.109904,-0.138376,-0.024370,0.034441,-0.094805,-0.158977,-0.038150,-0.102237,0.050816,0.073459,-0.021448,0.177927,0.046836,-0.089061,0.011357,-0.001158,0.100823,-0.063799,0.019936,0.109583,0.006696,-0.059429,-0.084882,0.077663,-0.140082,-0.057102,-0.108235,0.023630,-0.033568,-0.113007,0.015254,-0.043693,0.114584,0.135983,0.073809,0.163280,-0.154442,0.037133,-0.102225,0.001438,-0.021934,0.054569,-0.118280,-0.150514,0.013653,-0.063540,-0.130730,0.028946,-0.027877,0.094962,-0.042283,-0.143275,0.043123,0.137963,0.028483,-0.141502,-0.002337,0.103251,-0.036176,-0.090211,-0.067530,0.012626,-0.096580,-0.156673,0.060584,0.058005,0.070643,-0.034266,0.028018,0.105502,-0.036524,-0.123487,0.102985,-0.138359
0.097360,-0.083976,-0.030664,0.035636,-0.104639,-0.198021,-0.007329,-0.008994,-0.037038,-0.080876,-0.002077,-0.001197,-0.103399,-0.032451,0.130042,0.020687,0.021758,-0.151368,0.043952,-0.139106,0.051940,0.036058,0.100872,-0.090558,-0.127303,0.025676,0.057095,-0.000270,0.167293,0.034208,0.018380,-0.093639,-0.024355,0.071678,0.008906,-0.025580,0.169454,-0.106470,-0.138931,-0.081409,0.119896,0.088792,-0.011874,-0.050272,-0.031393,-0.084468,0.126588,0.052510,-0.084451,0.073619,-0.025270,-0.206306,-0.047616,-0.050220,0.167341,0.051630,0.093448,0.002707,-0.032893,0.060340,0.281232,0.104999,-0.034559,0.213171,0.129212,-0.005671,-0.054453,-0.061592,-0.056664,0.124903,-0.127665,-0.112646,0.014937,-0.110771,-0.021796,-0.051387,0.049004,-0.018619,0.063545,0.018897,0.191065,-0.070678,-0.065933,-0.058057,-0.076994,-0.177183,0.090284,-0.087277,0.133029,0.063147,0.117924,0.000955,-0.145009,-0.069975,-0.138720,0.013383,-0.084867,0.014826,0.037341,0.155237,-0.023427,0.066751,0.102152,-0.034838,0.047829,-0.051525,0.022046,-0.082678,0.095985,0.007239,0.053311,-0.074544,-0.129201,-0.099639,0.049448,0.157567,0.104060,-0.199675,0.059187,0.088428,-0.016432,0.047210,0.051244,-0.025123,0.008066,0.029760,-0.153976,0.031592,0.013776,-0.107720,-0.165377,-0.000216,0.090738,0.014425,-0.058337,0.109291,-0.139184,-0.013013,0.163912,-0.177030,-0.022928,-0.009042,0.131433,0.075366,0.096555,0.085877,-0.108723,0.021199,-0.021792,-0.066708,0.113139,-0.175474,0.040726,-0.038964,-0.044295,0.091503,-0.064295,-0.101371,-0.137451,-0.016518,-0.017000,-0.157949,0.220690,0.062514,0.140932,-0.114656,0.134394,0.083417,0.186065,-0.027199,-0.038696,-0.132837,0.035694,0.082866,-0.133065,0.046435,-0.133194,-0.009953,-0.019991,-0.040075,0.006410,-0.125925,-0.158954,0.039112,0.023071,0.068075,0.158519,0.161075,0.105671,-0.098770,0.030628,-0.217661,0.038163,-0.020290,-0.053484,-0.172210,0.033536,-0.072852,-0.103627,0.033822,-0.076330,-0.005369,0.052210,0.037361,-0.075503,0.002899,-0.004441,-0.008519,-0.078466,-0.134715,0.053865,0.055576,0.056380,0.039865,0.214811,0.022915,-0.062968,0.126834,0.194696,-0.061455,0.077301,-0.010769,-0.041607,-0.051460,0.019837,0.045938,0.034994,-0.067338,0.075338,0.055431,-0.018831,0.008748,0.121350,-0.066817,-0.089569,-0.043841,-0.064960,0.114185,0.056474,-0.044475,-0.002839,-0.025588,-0.012970,-0.051805,-0.016366,0.054865,0.111352,-0.027689,0.033215,0.014892,-0.059584,-0.094258,0.040064,0.073893,0.001406,0.091145
0.069192,-0.070725,0.111365,-0.017909,0.131303,0.018776,-0.171632,0.077760,0.009285,0.125105,-0.046179,0.085729,-0.026313,-0.116846,-0.057526,0.133419,0.072459,-0.136368,-0.017683,0.125721,0.094952,-0.132777,-0.139283,-0.057488,0.114365,-0.162288,0.018584,0.029450,0.002591,0.065418,-0.081833,0.101821,-0.013660,0.036514,-0.068750,-0.033091,-0.110709,-0.047234,-0.082817,0.036262,-0.022463,-0.248324,0.072560,-0.157300,-0.132655,-0.051983,-0.039324,-0.076916,0.081379,0.211041,-0.005161,-0.063543,-0.014652,-0.170734,-0.012147,-0.030625,0.173966,-0.047911,-0.063251,-0.018771,-0.129391,-0.049078,-0.089168,-0.008972,0.003918,-0.075430,-0.134298,-0.155687,-0.012492,0.155330,0.146300,-0.011223,0.161970,-0.147400,0.007804,0.053720,-0.080021,-0.069987,0.021657,-0.124421,0.197409,0.050642,-0.166928,0.120971,-0.130077,0.009099,-0.062153,0.007323,0.101442,0.177669,-0.039426,0.031006,-0.004440,0.055103,0.098453,-0.066981,0.121763,0.006613,-0.057782,-0.003561,0.067071,-0.181097,-0.070261,0.006102,0.027172,-0.235021,0.082774,0.042735,0.061727,0.140299,0.069700,0.004894,0.105125,-0.154555,0.168470,0.142152,-0.046807,-0.026574,-0.166006,0.136644,0.009721,-0.040127,-0.000407,0.071282,0.403589,-0.042154,-0.020256,-0.019777,0.024183,-0.173437,0.176414,-0.064412,-0.066286,-0.033124,-0.130370,0.055070,-0.261672,-0.031076,0.150066,-0.070978,-0.166230,-0.172129,0.137115,-0.114596,0.117983,0.176544,0.061744,-0.052872,-0.076277,-0.052797,0.009686,-0.046872,0.054742,-0.055978,0.112920,-0.037349,-0.107865,-0.098293,0.082093,-0.086119,0.032330,-0.110972,0.044834,-0.235363,0.002678,-0.024691,-0.027040,0.002320,-0.066045,0.083359,-0.054853,0.104300,0.145586,-0.046250,-0.009929,0.014066,0.017716,0.021665,-0.098250,-0.145897,-0.070406,0.023680,0.006120,-0.065054,0.145980,-0.029405,-0.033051,-0.094439,0.047783,-0.174168,-0.009304,0.070826,-0.018565,0.000729,0.026082,0.191774,-0.034582,-0.122619,0.009541,0.029424,0.110120,-0.110353,0.101120,-0.138148,0.124400,0.054208,-0.128294,-0.009534,-0.035601,0.096381,0.093236,-0.046640,-0.146987,-0.034110,-0.075534,0.044519,-0.032597,0.208080,0.039147,0.097828,-0.099559,-0.079728,-0.127827,0.109870,0.017312,-0.122914,-0.143325,-0.116300,-0.012771,-0.203385,0.072496,0.027894,0.177247,0.045344,0.151915,0.093481,-0.198944,0.020234,0.055750,-0.009235,0.007548,0.099153,-0.137644,-0.022698,-0.161475,-0.008171,-0.098611,-0.016392,0.049457,0.190840,0.015106,0.059016,0.009802,-0.031898,0.075198,-0.065452
-0.010235,0.036294,-0.108500,0.027795,0.046634,0.057404,-0.046063,0.238823,0.063699,0.054275,-0.059396,0.116924,-0.004581,-0.027498,0.011744,-0.073750,-0.016616,0.042490,-0.028852,0.014680,-0.002526,-0.034016,-0.057684,-0.095159,-0.035925,-0.038704,-0.074455,-0.185035,0.014602,-0.087250,0.010997,-0.082194,0.013171,0.003315,-0.039033,0.049446,0.028959,0.019905,-0.063892,-0.014438,0.026702,0.102471,0.151918,-0.185895,0.033510,-0.056558,0.135900,-0.035714,-0.179968,0.028950,0.069019,-0.204640,0.182212,0.078012,0.099100,0.080167,-0.038707,-0.148947,0.030553,0.017480,-0.017608,0.142763,-0.050717,-0.113605,-0.089371,0.070527,-0.105054,0.047929,-0.030052,-0.167845,0.044741,0.073250,-0.049792,0.226330,0.010920,0.004659,-0.081107,-0.006179,-0.047472,-0.018300,-0.054075,0.079730,-0.109434,0.025101,-0.035790,0.065009,-0.162369,0.008810,0.056562,0.041319,0.076142,0.068875,0.128821,-0.169020,0.018159,-0.117832,-0.076856,0.098859,-0.199462,-0.058386,-0.016741,0.000256,-0.063797,0.016859,-0.128608,-0.091505,0.062749,0.004441,0.107158,0.064192,0.002725,-0.049698,0.015410,-0.128774,-0.114795,-0.054568,0.037368,0.161606,-0.189275,-0.091108,0.003943,-0.044122,0.021168,-0.046355,-0.042935,0.024494,0.038912,-0.157405,0.024477,-0.121340,-0.120977,-0.001548,-0.030368,-0.047571,0.101965,0.085618,0.007984,0.000314,-0.105776,-0.006086,0.094712,-0.084751,0.003621,-0.108112,-0.090959,-0.019887,0.070157,0.105697,0.000439,0.095523,0.094354,-0.112508,-0.025760,0.051309,0.016025,0.191847,0.228265,-0.041595,0.089543,0.071773,0.151593,-0.123699,-0.158178,0.025713,0.079418,0.084406,-0.213247,-0.064801,0.067959,-0.095833,0.017840,0.027854,-0.037027,0.130481,0.055965,0.014173,-0.051064,-0.138399,-0.035973,0.009720,-0.020887,-0.083974,0.025196,0.011240,-0.057900,0.104342,-0.116887,0.035836,0.056637,-0.036781,0.053142,-0.053034,-0.074167,-0.052376,0.069910,-0.037628,-0.006233,-0.036752,0.017481,0.037128,-0.035342,0.139015,-0.032267,0.090843,-0.069806,0.092065,0.014244,0.219453,0.026088,-0.038077,-0.033824,-0.027469,0.146729,-0.109721,-0.024396,0.117837,0.120119,-0.149516,-0.091216,-0.091130,0.016236,0.030390,-0.000379,-0.001942,0.066994,-0.050488,0.011389,0.005286,0.070246,0.039755,-0.037605,0.122121,-0.146600,0.072520,-0.071056,-0.043266,0.018377,0.152780,0.058202,0.073089,0.077812,-0.007753,0.091603,0.010982,-0.112903,-0.052798,0.029995,0.026190,-0.130559,-0.086016,0.128603,0.296539,0.056208,0.041406,0.008953,-0.093095
0.182778,-0.049870,-0.013783,-0.000806,0.046317,0.142728,0.036287,-0.053873,0.133962,-0.051121,-0.053869,0.020909,0.096146,-0.180003,-0.061951,0.059474,-0.088334,-0.056403,-0.157455,0.012662,-0.139450,0.167932,-0.232546,0.029174,0.043278,0.075469,0.018142,-0.029179,-0.098542,0.092641,0.238775,-0.026819,0.200408,0.015447,-0.058066,0.040712,-0.006222,-0.013449,0.102165,-0.109027,0.051534,0.032812,0.073592,-0.080006,0.078581,0.016848,0.074614,0.099469,0.011882,-0.197512,0.089691,0.147007,0.045522,-0.112988,0.028209,0.000263,-0.089366,-0.167279,-0.031810,0.013136,-0.090427,-0.057406,0.024097,-0.061766,0.007204,-0.187694,-0.006949,0.108065,0.033835,-0.136678,0.030079,-0.096830,0.075961,0.098960,0.132549,-0.128918,0.061569,0.009135,0.043537,0.111887,-0.001783,-0.060972,-0.030286,-0.090416,-0.062666,-0.057166,-0.024057,0.203951,0.034793,-0.133530,-0.025374,0.105675,-0.000513,-0.029674,0.004886,0.068724,0.013850,-0.049361,-0.047083,0.076452,0.062745,0.051910,0.037596,-0.037067,-0.036790,0.058532,-0.174488,0.037071,0.027437,0.086962,-0.081997,-0.011984,0.164522,-0.127944,0.090093,-0.060264,-0.053873,0.024382,-0.113126,0.090955,-0.095348,-0.084253,-0.000751,-0.110442,-0.027645,0.127437,-0.008676,0.072130,-0.157421,0.006493,0.192691,0.029228,0.000769,-0.053399,-0.128313,-0.071729,0.043564,0.038765,-0.102419,-0.151186,-0.061223,0.036110,-0.013318,0.110931,0.024936,0.018121,0.079589,0.018971,0.038846,-0.142773,0.001613,-0.092084,-0.130918,0.096413,-0.102481,-0.132117,-0.080013,-0.053058,0.119053,0.026826,-0.055791,0.035870,-0.087592,0.065484,0.020099,0.077081,0.084571,-0.058553,0.028075,-0.042869,-0.128644,0.005876,0.080333,-0.052493,0.069231,0.107163,0.045533,-0.117343,-0.382132,-0.143032,-0.093565,0.013954,-0.016555,-0.142433,0.018226,-0.003709,-0.106834,0.189138,-0.048867,-0.027363,-0.021003,-0.020509,-0.092478,0.058516,-0.045091,-0.097045,-0.057643,-0.158732,-0.012938,-0.109596,-0.055852,-0.091278,-0.030785,-0.151308,-0.099147,-0.022531,0.004502,-0.051878,-0.022674,-0.053500,-0.023700,0.002238,0.035398,0.006205,-0.129112,-0.085497,-0.033606,0.143376,0.060928,0.058152,-0.078970,-0.097359,-0.013387,0.081648,0.022155,-0.105102,0.133647,-0.196510,-0.018006,0.098626,0.130083,0.131398,0.086958,0.041015,0.014433,0.136471,-0.054091,-0.050348,-0.043825,0.039063,0.049058,0.096897,-0.003934,0.096235,-0.094852,-0.035352,-0.101348,0.098211,-0.121702,0.026202,-0.170536,0.155261,-0.073307,-0.102737,0.050254,0.039231
0.037445,-0.086541,-0.244436,-0.067854,-0.041304,0.048617,0.049216,-0.070717,-0.049654,-0.114131,-0.105493,-0.073119,-0.100636,-0.081965,-0.064868,0.010003,-0.107939,-0.058501,0.055600,-0.024096,-0.087538,-0.071779,-0.087507,-0.014640,0.093985,0.143026,0.000101,-0.036539,-0.132470,-0.007474,0.000174,0.058136,0.088139,0.007184,-0.016928,-0.062287,0.033829,-0.149098,-0.013351,-0.039244,0.060656,-0.026623,-0.066656,0.052652,-0.008225,-0.000805,-0.002418,0.033592,-0.036966,0.000684,0.066656,-0.091710,-0.015443,-0.072760,-0.095125,-0.174174,0.093907,0.018664,-0.000696,-0.071946,-0.207703,0.040155,-0.050453,-0.020786,-0.110469,-0.028632,-0.043780,0.049314,-0.015491,0.062917,0.085289,0.034927,0.103931,-0.030399,-0.012649,0.128591,0.018453,-0.051020,-0.012238,-0.130754,-0.064566,-0.046860,-0.048420,-0.097390,0.001227,-0.011972,0.042819,0.179704,0.005200,-0.052235,-0.093974,-0.064405,0.058622,0.054714,0.033959,-0.044083,-0.062816,-0.246544,-0.066220,0.054847,-0.180883,0.067659,0.045062,-0.158011,0.080910,0.107016,0.139982,0.033712,-0.083720,0.015623,0.006557,-0.092959,0.093428,0.112850,0.206980,0.092920,-0.201740,0.082086,-0.103114,-0.092072,0.065253,0.040318,-0.029326,-0.037521,0.005725,0.004131,0.079827,0.072441,-0.066751,0.053485,0.039624,0.110755,0.006540,0.035652,-0.046573,0.070733,-0.094934,-0.079640,-0.133832,0.039576,0.005134,0.003496,-0.172148,0.077803,-0.202148,0.214746,-0.010678,0.014621,0.088697,0.044538,0.118400,-0.027768,-0.037062,-0.005260,0.007020,0.082004,-0.157476,0.121304,-0.115906,-0.039318,-0.130897,0.214376,-0.077977,-0.018162,-0.004468,0.034228,0.027523,-0.095244,-0.024863,0.133827,-0.102235,-0.120764,0.070971,-0.082275,-0.034720,0.097128,-0.039559,-0.129421,-0.027583,-0.108131,0.060190,-0.127157,-0.044774,0.046674,-0.083278,-0.017908,0.015425,-0.035846,-0.105673,-0.111189,-0.023242,-0.034297,0.034719,0.026872,-0.008229,0.126306,-0.093437,0.000809,-0.007664,-0.061381,-0.133467,-0.020895,-0.024450,0.054791,0.084604,0.054851,-0.220201,0.114910,0.065871,-0.108576,0.024422,0.076884,-0.112929,-0.117403,-0.084983,-0.133656,0.018415,-0.158836,0.112594,-0.047133,-0.123259,-0.035962,-0.160464,0.260974,0.066201,-0.066327,-0.171500,-0.174932,-0.163853,-0.116403,0.062790,-0.039301,-0.066472,0.106333,0.032860,-0.136536,-0.134610,0.007386,0.000031,0.122491,-0.021200,-0.038636,-0.065914,-0.006687,-0.081734,0.017060,-0.157597,-0.108315,-0.102557,-0.013624,-0.092498,0.038236,-0.010800,-0.092627,0.065778,-0.018589
-0.006090,-0.003417,-0.117665,-0.002937,0.118752,-0.150322,0.148878,-0.270431,0.018738,0.128098,0.032893,0.282538,-0.064282,0.156426,-0.136889,-0.163424,0.010234,-0.076586,-0.007648,0.018214,-0.162702,0.046727,0.187819,-0.007197,-0.043161,-0.076406,0.212122,-0.101287,0.083423,0.243098,0.049011,0.047888,-0.169001,-0.084810,-0.024693,-0.108856,-0.092162,-0.182420,-0.113744,-0.121772,-0.110478,-0.095064,0.082212,0.015651,0.067847,-0.182246,-0.191329,-0.024050,0.100951,-0.327376,-0.043369,0.147422,-0.006506,-0.080232,0.281242,-0.052831,-0.036054,-0.155262,-0.004611,-0.157244,-0.090584,-0.315503,0.267886,-0.083398,-0.067466,0.054234,0.019119,0.181538,0.103262,-0.092077,0.118848,0.425826,0.006948,0.079266,0.033371,-0.067942,-0.045361,0.124383,-0.003590,0.263437,-0.187277,0.003929,0.070473,-0.048105,-0.352508,0.125591,-0.111387,-0.000797,-0.058808,-0.081447,-0.089805,-0.162677,0.009580,0.019412,0.153637,-0.069662,0.056157,-0.019784,-0.031414,-0.171594,-0.169648,0.021629,-0.081058,0.281910,0.198640,0.166365,-0.297701,-0.171700,-0.159477,0.088788,0.076940,-0.019273,-0.138867,-0.272656,0.052287,0.079829,-0.085640,0.132570,-0.039355,-0.120020,-0.210989,0.004842,0.215162,-0.065089,0.332020,0.010965,0.162639,-0.229851,-0.128106,-0.260649,0.345904,-0.002308,-0.233098,0.002489,-0.071919,-0.204304,0.030682,0.012876,-0.002795,0.140598,-0.112598,-0.123210,-0.038140,0.041247,-0.162381,0.174939,0.055354,-0.142701,-0.093214,-0.066036,-0.037594,0.151594,-0.007331,0.138824,-0.155052,0.053870,0.244305,-0.109044,-0.083196,0.182351,-0.008465,-0.069754,-0.265175,-0.035683,-0.108822,-0.004636,-0.199675,-0.077501,0.109740,0.100909,-0.052210,-0.039578,0.106816,0.105912,0.058529,-0.026902,0.101014,-0.215294,0.008008,0.095379,-0.009223,0.091445,0.011606,-0.182159,0.093253,0.257439,0.014663,-0.040034,-0.043026,0.023568,-0.130019,-0.053904,0.140842,-0.065609,-0.002405,-0.114459,-0.119603,0.162444,0.101349,-0.065535,0.016411,0.002265,-0.201095,0.297568,-0.103711,0.048887,-0.010355,-0.020611,0.024998,0.182326,0.204071,-0.081530,0.003837,0.013707,-0.019945,-0.083534,-0.021671,-0.121536,-0.200177,0.049008,0.111492,0.107827,0.274969,-0.188673,0.186174,-0.084756,-0.029152,0.076159,-0.078908,0.127362,-0.095970,-0.160526,-0.000828,0.018231,-0.081664,0.013885,0.114644,-0.036540,0.309643,0.207330,0.064535,-0.126420,0.063166,0.118757,-0.129412,-0.034024,-0.114102,0.120203,0.000912,-0.021471,-0.018825,0.079836,0.028311,-0.058361,0.139791,-0.132791
0.018265,-0.127920,-0.025443,0.015273,0.092956,-0.018331,0.039727,0.126332,-0.063691,-0.025864,-0.109030,0.053958,-0.155811,-0.008562,-0.026442,-0.052987,0.011510,-0.074902,0.025930,0.114394,-0.153667,0.003744,0.019489,-0.126231,-0.026443,-0.030659,0.003532,0.018585,-0.122009,-0.029187,0.005786,-0.101263,0.035349,0.056997,0.000640,-0.042918,-0.004002,0.039438,0.023216,-0.015499,0.215882,0.111820,-0.020419,0.068515,-0.127799,0.005674,-0.020650,-0.108377,-0.121658,0.185059,-0.102832,-0.089604,-0.007498,-0.015052,-0.033372,0.011938,-0.072559,-0.154514,-0.064546,0.036980,-0.101059,-0.090032,-0.038110,0.081953,0.007263,0.011358,-0.014554,0.065199,0.079247,-0.083542,-0.041202,-0.130780,-0.034511,0.004049,-0.025760,-0.123940,0.037694,0.081922,0.135397,0.051880,-0.064675,-0.097465,0.107287,0.038434,-0.055365,0.053294,0.018814,-0.147240,-0.053604,0.200726,0.112141,0.294936,-0.004520,0.030755,0.021683,0.115877,-0.022061,-0.059770,-0.217670,-0.092416,-0.009289,-0.000910,0.017362,-0.156978,0.121605,-0.162650,-0.040420,0.018859,-0.140660,0.014701,-0.085455,-0.134014,-0.053680,-0.035487,0.146673,-0.162404,0.001419,-0.222373,-0.066751,0.062896,-0.159633,0.005910,0.060584,0.122956,-0.181954,0.107988,0.140767,-0.038599,0.006513,-0.007794,-0.014534,-0.090025,-0.260042,0.175193,0.024057,-0.001216,0.085076,-0.069619,-0.063576,0.178339,-0.018692,0.011819,0.055513,0.130947,-0.026350,0.046177,0.122440,-0.239836,0.034849,0.003761,0.181149,-0.164267,-0.083473,-0.176206,0.011293,0.094259,0.142967,0.075847,-0.008135,-0.017232,-0.096428,0.092184,0.011689,0.068431,0.084974,0.059808,0.042759,-0.139910,0.150094,-0.067797,-0.008833,0.026840,0.061205,-0.003017,-0.102175,0.019136,0.007764,-0.054888,0.037366,-0.026026,0.059884,0.090931,-0.007717,0.053757,-0.009873,0.007468,0.045164,-0.014167,0.041545,0.050358,-0.008687,0.116538,-0.021447,0.073083,-0.117534,-0.135041,0.030897,-0.009237,0.008902,0.147287,-0.006144,-0.164216,-0.078024,0.026337,-0.148917,0.060861,0.058083,-0.064383,-0.057280,0.094888,-0.018540,0.040865,0.042175,-0.070687,0.022920,0.084747,0.035708,-0.058035,0.162619,-0.061930,-0.042792,-0.180266,-0.045096,-0.150575,-0.002491,-0.019348,-0.028975,0.079020,-0.072176,0.075355,-0.007521,-0.019620,0.003991,0.059505,0.159235,0.080777,-0.117932,-0.012729,-0.052695,-0.022611,0.009439,0.053753,0.038169,0.002685,-0.072565,-0.073933,-0.055526,-0.210012,0.068260,-0.125898,-0.057630,-0.099421,0.039047,-0.134577,-0.005402,0.004326
-0.041507,0.004975,0.045489,0.115549,-0.034277,-0.056154,-0.026391,0.073827,0.073502,0.080694,-0.100699,0.036974,0.047306,0.087627,-0.162566,0.148003,0.026227,-0.150398,-0.069706,-0.066877,0.184434,-0.036228,0.003060,0.140729,0.100460,-0.039641,0.149509,-0.011165,-0.076695,0.180529,-0.097666,-0.007291,-0.101006,0.017271,-0.024666,0.039512,-0.052592,-0.053520,-0.081477,0.056582,0.013050,-0.042722,0.036898,-0.098182,0.052504,-0.055486,0.053997,-0.056823,0.015141,0.124856,0.122155,0.162808,0.120720,-0.006510,0.016075,-0.121655,0.074582,-0.041727,0.050494,0.017766,-0.043841,0.095224,-0.017952,-0.068991,-0.004487,-0.034416,-0.042163,0.092763,-0.034671,0.163637,0.085864,-0.238183,0.051895,0.044503,-0.124962,0.029591,0.054173,-0.036833,0.017744,-0.002427,0.009114,0.075782,-0.047249,-0.062177,0.067051,-0.069505,-0.048293,0.007641,-0.090849,-0.100827,0.185751,-0.036907,-0.137031,-0.098276,-0.067244,-0.240626,0.178351,-0.060990,0.039179,-0.138313,-0.042014,0.016802,0.019809,-0.028230,-0.088173,0.021912,0.028226,0.013267,0.050487,0.161853,-0.058734,-0.052621,0.029870,-0.142350,-0.087872,-0.011529,-0.004424,-0.000259,0.012820,-0.002734,-0.185832,-0.158408,0.072546,0.048092,0.117081,-0.115082,0.074827,0.014932,0.013061,-0.239154,-0.066096,-0.102503,-0.135859,0.039210,-0.027379,0.073756,-0.139427,-0.093401,0.023859,0.080377,0.004642,-0.045960,0.172847,-0.067261,0.078389,0.036693,-0.008956,-0.046520,-0.153525,0.000206,-0.009494,0.090966,-0.093141,0.149470,-0.161951,-0.149250,0.054927,0.121373,0.041121,0.107284,-0.204956,0.110802,-0.005676,0.038545,0.120172,0.108029,0.035408,0.066336,-0.027509,-0.152244,-0.026460,0.137239,-0.016207,0.075163,-0.118923,0.068646,0.124399,0.044427,-0.018156,0.051729,0.016177,0.060821,0.093419,-0.048593,0.086462,-0.032302,-0.134840,-0.105460,-0.017686,0.011686,-0.063618,-0.066359,0.133050,-0.089917,0.071091,0.169189,-0.061621,0.085120,-0.029216,0.228759,-0.009375,0.002227,0.045637,0.088781,0.023093,0.049750,0.069475,0.059682,-0.067184,0.134364,0.008438,0.016199,0.013137,-0.132534,-0.099433,-0.187302,-0.084329,0.114802,-0.067938,0.137389,-0.101486,0.126068,-0.015951,-0.146020,0.055837,-0.106367,-0.008230,-0.039517,-0.061789,0.121594,-0.074611,-0.005351,-0.006692,-0.144010,0.113332,0.122405,-0.149042,-0.046084,0.067701,0.135384,0.078154,-0.136311,-0.023748,0.036985,-0.129737,-0.101262,-0.085450,-0.081703,-0.036803,0.068341,0.016575,-0.010461,-0.144734,0.006497,0.102346,-0.060674
0.062709,0.069772,0.043841,0.050892,0.045289,0.088511,0.107103,-0.095151,0.052019,-0.138348,0.133056,0.190780,0.063480,0.123411,0.118972,-0.011966,0.030616,0.040930,0.117986,0.043771,-0.019990,0.011698,0.122984,-0.087716,-0.095787,-0.089239,0.203528,0.010840,-0.132368,0.102111,-0.061719,0.126259,-0.032143,0.021290,0.119729,0.361785,0.163826,-0.081812,0.140567,-0.095231,0.062506,0.033382,0.019759,-0.052852,0.070575,-0.340664,0.154996,0.223134,0.001057,0.071390,-0.025134,0.179173,0.184706,0.026595,0.123677,0.034889,-0.032903,0.277267,0.301665,-0.085103,-0.010030,-0.085598,0.130119,0.078232,-0.006512,0.013952,0.098637,-0.012719,-0.060724,0.143135,0.064423,0.345965,0.003106,0.038180,0.140296,0.097048,0.042696,0.134382,0.059345,0.172624,0.040748,0.001741,0.015689,0.250102,-0.368884,-0.023164,0.034709,0.064535,0.111981,0.094438,-0.015616,-0.029687,0.090135,0.163306,0.078828,0.179876,-0.179730,0.045838,0.055516,-0.014882,-0.001191,-0.009605,-0.345504,0.034745,0.083808,-0.028689,-0.029433,0.003012,-0.087744,0.016149,-0.121705,-0.052743,-0.029048,-0.064569,0.145725,0.340984,0.194421,-0.001697,0.048357,0.145354,-0.017772,0.084950,0.029043,-0.061398,0.089827,0.013138,-0.035372,-0.102927,0.174207,-0.172047,0.098782,-0.124414,0.039151,0.125933,-0.078133,0.131614,-0.217447,-0.015774,0.206470,0.182472,-0.173285,0.145801,0.041945,-0.032178,0.062070,0.196749,-0.057405,0.093478,0.029561,-0.056434,-0.094715,-0.090083,-0.052393,0.112944,-0.134050,0.033677,0.296810,-0.001648,-0.018991,-0.075856,-0.008891,-0.276465,-0.058105,0.027246,0.119574,-0.081528,-0.128616,0.126361,0.315690,-0.053175,-0.035423,0.015193,0.256932,0.000942,0.076901,0.041340,0.017694,-0.040339,-0.057615,0.183578,-0.105329,-0.004931,0.050780,-0.222691,0.010744,0.154919,0.064094,0.247977,0.111153,-0.027382,-0.067070,-0.009563,-0.016802,0.156355,-0.013663,0.087979,-0.053598,0.125805,-0.114081,-0.066109,0.141670,0.167088,0.192157,0.273603,-0.014189,-0.173935,-0.006281,0.165857,-0.096433,0.064012,-0.010234,-0.125197,0.088190,-0.162221,0.018797,-0.001397,0.167309,0.119313,-0.084417,-0.116719,0.068059,0.159266,-0.014962,-0.013797,0.102750,-0.119076,0.024681,0.066763,0.085967,0.203370,-0.077652,0.222776,0.010885,0.169967,0.105588,0.066972,0.164154,0.005944,0.112540,0.072117,-0.021074,-0.052186,0.206077,-0.129291,-0.152316,0.096598,0.115498,0.173855,-0.075012,0.271512,0.128530,0.159505,0.083291,0.043735,-0.120691,0.102682
0.031463,0.030193,-0.053846,-0.000314,-0.014469,-0.081969,-0.072104,0.024725,0.003525,0.150777,0.099373,-0.064756,-0.085610,0.006926,0.115425,-0.088113,-0.089954,0.170187,-0.294299,0.063962,0.034414,0.088295,-0.083879,0.059335,0.016180,-0.064057,0.054695,-0.016801,-0.075494,-0.023771,0.063892,0.036967,-0.033113,-0.106171,0.014854,0.006736,0.064792,-0.010459,0.052064,-0.088895,-0.077804,-0.067962,0.081376,-0.055427,0.144910,0.049181,0.087857,0.177512,0.044492,-0.165602,0.187424,-0.346398,0.072765,0.001742,-0.000602,0.022469,-0.129197,0.078269,-0.059361,-0.077348,-0.134892,0.029506,0.091157,-0.048058,0.037640,0.060764,0.100094,0.083019,-0.129467,-0.046723,-0.103038,-0.002013,0.088545,-0.022361,-0.017007,0.147963,-0.105848,-0.047544,-0.132968,0.000917,-0.034119,0.033243,-0.023688,-0.017157,-0.138134,-0.063007,-0.103447,0.016249,0.139375,0.026027,0.059558,-0.041015,-0.146655,-0.000989,0.210218,-0.159686,0.014304,-0.027488,-0.024931,-0.223975,0.059992,0.111141,-0.099523,-0.076863,-0.032143,0.042828,0.001743,0.024894,-0.193891,-0.066836,-0.096408,0.147586,-0.004370,-0.131446,-0.044805,0.100422,0.078482,-0.188804,-0.089895,0.036751,0.111246,-0.001823,0.021285,0.049127,0.066392,-0.119270,-0.128779,0.069904,-0.098667,-0.007222,-0.114573,-0.090884,-0.080919,-0.147162,-0.085390,0.116896,0.119749,-0.117227,-0.092387,-0.076640,-0.087649,0.069002,0.095515,0.013799,0.066934,0.068053,-0.025286,0.071937,0.023192,-0.100520,0.014219,0.064917,-0.062692,-0.017433,-0.000013,0.009129,-0.075366,0.083734,0.110487,-0.017720,0.070891,-0.194211,-0.003171,0.032460,0.012433,0.101981,-0.006717,-0.052732,0.123143,-0.020930,-0.110790,-0.034198,-0.007209,0.069189,-0.029767,-0.117870,-0.006931,-0.058632,-0.020258,-0.013528,0.085366,-0.300793,0.003045,-0.035907,0.157675,-0.065842,-0.010763,-0.009122,0.106755,-0.111059,-0.023162,-0.073618,-0.001731,0.042398,-0.148048,-0.040723,0.117211,-0.125244,-0.077435,-0.067435,0.076425,0.087524,0.013951,-0.063879,0.128258,-0.122717,-0.033788,0.028295,0.009144,-0.050637,-0.053970,0.068258,0.012946,-0.030954,0.007800,-0.023472,0.091707,0.014716,-0.085539,0.098968,0.035874,-0.073378,0.002213,0.042276,-0.019733,0.040484,-0.000570,0.128804,-0.016240,0.006782,0.013956,-0.048329,-0.052427,-0.015608,0.142531,-0.055910,0.103122,0.225871,0.076023,0.103824,0.035420,0.058465,0.244457,-0.003335,-0.113705,0.028601,0.016944,0.035558,0.012273,-0.044652,-0.053595,0.051698,0.064797,-0.054499,-0.087499,-0.014820
-0.020415,0.023048,-0.165451,0.008166,0.098691,-0.014497,-0.109978,-0.025406,0.042266,0.028077,0.197303,0.046583,-0.072736,-0.179721,0.016494,0.026149,0.013091,-0.115751,-0.144941,0.035514,-0.104660,0.018642,0.001899,0.075647,0.035708,-0.059155,-0.099497,-0.037795,0.011627,0.037078,-0.108854,-0.110250,-0.042496,0.317535,0.213089,-0.006418,0.055645,-0.109468,-0.016410,-0.194574,-0.005985,0.079275,-0.031424,0.071929,0.014194,-0.203750,-0.020677,-0.007968,-0.134622,0.064231,0.020004,-0.149601,-0.003053,0.019879,0.017823,-0.065887,0.090691,-0.136059,0.129188,-0.059996,-0.142889,-0.022891,0.205522,0.028404,0.118886,-0.000069,0.051520,-0.006215,0.045987,0.025906,-0.124990,0.178231,-0.242365,-0.027623,-0.086619,-0.024097,0.200189,-0.001937,-0.019785,0.055749,0.049967,-0.139794,0.121247,-0.061545,-0.019406,-0.057145,-0.119650,0.000710,-0.064854,0.041762,-0.003018,-0.017075,0.011557,-0.084616,-0.020438,-0.031743,0.010849,-0.054109,-0.025520,0.049768,-0.043985,-0.200159,0.007404,-0.031242,-0.017179,0.203199,0.050222,-0.157109,-0.055047,0.072554,0.022141,0.109882,0.156018,-0.109963,-0.179042,-0.031813,-0.053991,-0.064114,0.033301,0.045628,0.077523,0.269795,0.110433,-0.020558,-0.028469,0.009539,0.007110,0.096113,0.165802,0.131030,0.019057,-0.116314,-0.008343,0.071146,-0.026927,0.114341,0.083475,-0.021723,0.243781,0.025855,-0.108580,0.049945,-0.170242,-0.128427,-0.246704,0.023062,-0.102735,0.040328,0.240682,0.023806,0.020547,-0.084924,-0.089252,-0.042417,-0.060133,0.074035,0.036913,-0.130100,-0.121105,0.110608,0.143476,0.002016,-0.132720,0.011291,-0.111578,-0.005031,0.061301,-0.099766,0.019464,-0.205780,-0.085355,-0.129874,-0.110880,0.107806,0.073695,-0.085520,-0.062922,-0.123288,-0.001625,-0.056007,-0.103237,0.111873,0.010695,-0.160642,-0.042875,-0.102352,0.045698,0.044558,0.052233,0.176576,0.150442,0.077582,-0.220616,-0.043649,-0.021882,-0.066514,-0.063380,-0.039741,0.074975,-0.012258,0.089658,0.037073,-0.057829,0.044998,-0.133685,-0.007157,-0.094872,-0.243368,0.115271,0.004085,0.014421,-0.064570,-0.033562,-0.107043,-0.025349,-0.031645,0.040381,-0.058265,-0.053073,-0.175984,-0.084516,-0.010818,-0.212354,-0.040968,0.012044,-0.078954,-0.065060,-0.133173,-0.104547,-0.102441,0.014167,-0.108247,0.076411,-0.081902,-0.005523,-0.113429,-0.066584,-0.018937,-0.014272,-0.078170,0.071446,0.096658,-0.221388,0.067367,-0.088875,0.058969,0.024334,0.046783,-0.103356,-0.037060,-0.023373,0.079947,0.136838,-0.043706,-0.066461,-0.008672
-0.145069,0.094123,-0.158423,-0.102476,0.017735,0.137225,-0.120155,0.006292,0.061117,0.084845,-0.035734,-0.206470,0.063867,0.101967,-0.073989,-0.055469,-0.136198,0.083673,0.014827,-0.055814,-0.037111,-0.145736,-0.199017,0.036561,0.006858,-0.088898,-0.115542,-0.024100,-0.083168,0.076840,-0.131184,-0.151258,-0.057679,0.166460,-0.025251,0.008191,-0.115612,-0.089364,-0.027027,0.039186,-0.029640,0.014200,0.116497,-0.189878,-0.130599,0.049003,-0.017310,0.051089,0.055031,-0.075131,-0.056623,-0.038005,-0.100484,-0.137447,0.068965,0.034673,-0.155835,-0.041650,0.119998,0.058226,0.163897,-0.136467,0.068753,-0.068487,-0.073644,0.039252,-0.076967,-0.114420,-0.036756,0.077231,0.076630,0.012632,0.019981,-0.159991,-0.061365,-0.058232,-0.034405,-0.106565,0.067165,-0.051355,-0.050183,0.025973,-0.023596,-0.096090,0.170220,0.107285,-0.046082,0.064037,0.039602,-0.195389,-0.053493,-0.108997,0.049408,0.111923,0.098417,-0.160669,-0.081943,-0.116450,0.000411,-0.260577,-0.021819,-0.065713,-0.173208,-0.131241,0.063037,-0.103028,-0.085339,-0.001465,-0.063467,0.022006,-0.020630,0.169586,-0.050776,-0.101461,-0.045642,-0.027638,0.099995,-0.089126,-0.011853,-0.119337,0.123746,0.096129,-0.055229,0.136711,0.058005,0.016339,-0.025417,-0.069078,0.078797,0.064026,0.008175,-0.117231,-0.010675,0.163635,0.084011,-0.080827,-0.014967,0.029408,-0.063821,0.102466,0.085514,-0.035414,-0.016605,0.022739,0.248318,-0.004352,-0.064638,0.038283,0.038649,0.050419,-0.101937,-0.100910,0.089829,0.074587,0.145674,-0.034925,0.098884,-0.001893,0.028236,0.070020,0.029853,-0.069552,0.000113,-0.122043,-0.075669,-0.057637,-0.011450,0.003934,0.093203,0.003912,0.002566,-0.049274,-0.205085,0.033412,-0.017831,-0.202957,0.020903,0.098266,-0.117523,-0.044510,0.053251,-0.016592,0.051379,0.043756,-0.039532,-0.045238,0.221725,0.166085,-0.089964,-0.002955,0.065694,-0.043104,0.000762,0.215580,-0.084398,0.003123,0.025199,-0.058254,-0.086311,-0.025025,0.010942,0.138316,-0.002064,-0.045603,-0.038100,-0.078141,-0.052275,0.171948,-0.107260,-0.040447,-0.049633,0.024856,-0.043532,-0.006899,0.099609,0.129234,0.108968,0.071294,-0.101194,-0.048249,0.057710,-0.113663,-0.001167,-0.026560,-0.079867,0.079626,0.082149,0.046872,-0.146459,0.036647,-0.028903,0.026615,-0.089404,0.067983,-0.019860,-0.051140,0.041925,-0.063511,-0.025743,-0.055055,0.046874,-0.055214,0.145364,-0.009392,-0.127912,0.131439,-0.022158,-0.118140,0.005889,-0.044046,-0.081618,0.113359,-0.002285,-0.049784,-0.159802,0.037696
-0.042304,-0.054607,0.104388,-0.011971,0.031745,-0.003674,0.019622,-0.049517,0.033362,0.034883,0.035198,0.011834,-0.138922,-0.079458,-0.094119,-0.087488,-0.150490,0.049201,-0.062033,-0.067922,-0.010613,0.006750,-0.171374,-0.039167,0.144052,0.066319,0.023047,-0.104223,-0.040055,0.126693,-0.078984,0.131728,0.081649,-0.018538,-0.063687,0.065893,-0.064621,-0.166989,-0.013196,0.163689,-0.018822,-0.028881,0.110241,-0.074035,-0.089076,-0.124821,0.025597,0.095350,-0.075275,-0.152525,0.005852,0.007062,-0.009381,-0.105569,-0.054087,-0.001002,-0.169523,0.029843,0.139414,0.009490,-0.064896,-0.041140,0.017657,0.028447,-0.141451,0.118151,-0.089355,-0.094457,-0.021376,-0.021986,-0.085232,0.035547,0.028452,-0.144897,-0.095612,0.096358,0.078066,-0.085549,0.051704,0.100161,-0.000539,0.077145,-0.030250,0.121033,-0.027046,0.093127,-0.020576,-0.010726,-0.090962,0.054303,0.030467,0.135473,0.007492,0.046370,0.183351,-0.046874,-0.080758,0.180306,0.133529,-0.059277,-0.138697,0.009381,0.058679,-0.081676,-0.087515,-0.015008,0.012164,0.061759,0.130001,0.038539,0.098572,-0.099221,-0.003176,-0.009616,0.016310,-0.081210,0.080792,-0.137331,0.070760,0.061310,-0.061841,0.053530,-0.026719,0.077560,-0.166245,0.055324,-0.120693,0.034525,0.032195,0.066271,-0.081783,-0.063326,0.032803,-0.005108,-0.059686,-0.038655,0.021787,0.120207,0.088290,-0.053863,-0.107769,0.164355,0.004402,-0.009317,0.060586,-0.038312,0.007897,0.066724,-0.021432,-0.051829,-0.044726,-0.007876,0.074807,-0.028269,-0.006358,-0.122861,0.071984,-0.070704,-0.008993,-0.090389,0.131220,0.005875,-0.019063,0.018829,0.043640,-0.008418,-0.050841,-0.042963,-0.009189,-0.154911,0.014659,0.097775,0.147862,-0.089577,-0.092431,0.003751,0.078551,-0.201141,0.083894,0.068263,-0.058460,-0.051387,0.093448,-0.020289,0.006792,0.231176,0.056497,0.069646,0.048484,-0.103177,0.059008,-0.156386,0.091769,0.141629,0.133309,-0.064877,0.053189,0.079483,0.077659,-0.019015,-0.079119,-0.009123,0.092011,-0.053313,-0.049997,-0.076898,-0.115805,0.026564,0.048920,0.067536,-0.218074,-0.005949,-0.095579,-0.143643,-0.062182,-0.015287,-0.021312,0.161682,0.110740,0.059406,-0.102797,-0.012762,-0.079131,0.020057,0.045444,-0.110987,-0.072968,-0.056763,-0.044785,0.019549,-0.123337,-0.091566,0.050489,-0.084227,0.086971,0.058320,-0.028710,0.106045,-0.072076,0.152607,-0.034053,-0.036649,-0.014396,-0.059488,-0.022088,0.062395,0.058984,-0.219559,-0.080733,-0.019480,-0.144092,-0.012480,0.105975,0.013524,-0.026201,0.111122
-0.035482,-0.127315,0.322230,0.116809,-0.010496,0.089022,-0.004575,-0.035794,0.033099,0.011444,0.180564,0.000706,-0.049858,-0.102681,0.089514,0.049665,-0.064481,0.027358,-0.147625,0.144704,-0.004471,-0.009298,-0.149108,0.099151,0.073012,-0.076217,0.136558,-0.165258,-0.071675,-0.030644,-0.035660,0.020179,-0.038319,-0.209513,0.042539,-0.040118,0.089879,0.123144,0.097447,-0.034755,0.168249,0.049130,-0.045690,-0.212385,-0.002213,-0.136994,0.110646,-0.096992,0.058892,0.121674,-0.050006,-0.084001,0.356978,0.027294,0.059689,-0.176224,-0.095068,0.202620,0.032901,0.039598,-0.017051,0.173648,-0.127285,-0.055320,0.050840,0.098900,0.040182,0.230798,-0.001286,-0.124841,0.133480,0.444249,-0.024838,0.068073,-0.007405,0.201969,0.350099,0.059882,-0.130692,0.193700,-0.049475,0.023738,-0.035147,0.192915,-0.386836,0.068834,0.031992,0.018061,-0.090337,0.131900,-0.066113,-0.119865,0.095743,0.348165,0.241074,0.102466,-0.064411,-0.206534,0.165628,0.119553,-0.037442,-0.004112,0.081179,0.123747,-0.237766,0.121350,-0.030356,0.080022,0.029434,0.029898,0.156614,0.135462,-0.135304,0.091637,-0.036874,-0.065152,-0.056667,-0.048756,-0.081141,-0.067891,-0.050940,0.241649,0.163499,0.024413,-0.078165,0.103713,0.180496,0.062912,0.204433,-0.023006,-0.081751,0.045098,0.084451,-0.125464,0.199722,0.282217,-0.003202,0.170428,-0.092758,0.122509,0.024410,0.111454,-0.145339,0.031757,0.347896,0.048045,0.114121,0.198002,0.146960,-0.121602,0.004186,0.160101,-0.150695,0.270814,0.101919,0.128172,-0.057240,-0.099509,-0.045003,0.080164,0.028166,-0.098779,-0.075887,0.027568,-0.024315,0.028454,-0.192458,0.157944,-0.033551,-0.105903,-0.088679,-0.011269,0.020520,-0.150162,0.039927,0.274034,-0.084985,-0.024176,0.049421,-0.146019,-0.002152,-0.149682,0.000321,-0.058483,0.081857,-0.033498,-0.039764,0.137038,0.116706,-0.025106,-0.041959,-0.196896,0.115358,-0.047328,-0.165807,-0.064355,0.052184,-0.032517,-0.015831,-0.041998,0.043920,0.015526,0.170297,0.051871,0.029153,0.048307,0.138575,-0.076795,0.031623,0.055125,-0.058787,-0.058384,-0.053206,-0.095291,0.009061,0.099302,0.123692,-0.152912,-0.097737,0.076528,0.010587,-0.103108,-0.082819,-0.216854,-0.053294,0.127706,-0.000657,0.020833,0.168458,-0.116732,-0.072209,-0.048954,-0.159661,0.017467,-0.008725,0.083092,0.206410,0.097277,-0.056582,0.194776,0.144385,-0.019458,0.224915,0.070420,-0.188356,0.236077,0.047324,0.013135,0.230155,-0.106780,-0.238373,-0.054708,0.171276,0.309641,0.029471,-0.187958
0.029530,-0.086100,0.078551,0.023263,0.058785,-0.046440,-0.106303,-0.105170,-0.083331,-0.027777,0.042916,-0.123448,-0.016326,-0.068710,0.012946,-0.075676,0.038693,-0.075127,0.070763,-0.002646,0.003848,-0.004353,-0.014734,-0.169144,-0.072806,0.011873,0.004497,-0.027475,-0.030780,0.080002,0.023925,-0.032320,0.014329,-0.207118,-0.208119,0.015036,0.013321,-0.029740,-0.067071,-0.002735,0.061624,0.114488,0.021134,0.076580,-0.014274,0.080529,0.132329,-0.011281,0.010178,-0.091367,0.220351,-0.079338,0.016631,-0.013879,-0.152627,0.022100,0.006248,0.097463,0.041358,0.035637,-0.051000,-0.010476,0.086226,0.037796,0.012512,-0.114389,0.079257,-0.007206,0.072243,0.036082,0.118275,0.005705,0.097058,-0.042265,0.061678,0.019665,0.119925,-0.089813,0.040901,-0.226579,-0.120095,-0.070037,-0.120889,-0.154478,-0.033662,0.034072,-0.124733,0.000599,-0.003690,0.003990,-0.007204,0.048567,-0.069449,0.108376,0.188345,0.087264,-0.109349,-0.147872,-0.046546,-0.003804,0.009529,0.042995,-0.008180,-0.067987,-0.069871,-0.088934,0.117687,-0.146514,0.020358,0.114133,-0.066203,-0.131808,-0.014889,0.051959,0.094392,0.090116,-0.236707,-0.012954,0.091121,-0.022682,-0.021132,0.100020,0.026972,0.010302,-0.045950,0.102105,0.029358,-0.173457,-0.119193,0.044809,-0.149398,0.007680,-0.051477,0.043208,0.006490,0.020972,0.062104,-0.085288,0.014516,0.034609,0.123760,0.148951,-0.012243,0.057308,0.101508,-0.047229,0.123717,-0.040550,-0.036338,-0.030475,-0.000913,0.056869,-0.068215,-0.032597,0.098199,0.193320,-0.064335,-0.042511,-0.089318,-0.059827,-0.183689,-0.032542,-0.002803,0.008230,-0.265937,-0.021801,-0.061793,-0.128629,-0.100026,0.164255,-0.043318,0.021504,-0.011783,0.012634,-0.148073,-0.043454,-0.097708,0.053129,-0.141832,0.115681,-0.069182,-0.145738,0.023450,-0.012332,0.107193,-0.116649,0.058079,0.014683,-0.063023,-0.143022,-0.082083,-0.035412,0.121769,-0.079562,-0.089667,0.080136,0.067713,-0.057536,0.004958,0.005593,0.194160,-0.031281,0.150261,0.142412,-0.010129,-0.007808,0.074823,0.026564,0.127366,-0.028411,0.238717,-0.094487,-0.028963,0.170354,-0.101829,0.090601,-0.061902,0.042569,-0.077713,-0.033061,0.029261,0.060968,0.043417,0.065438,0.057118,-0.181581,-0.088075,-0.039668,-0.145999,-0.181344,-0.019850,0.008254,0.073971,-0.034165,0.012102,-0.015776,-0.034172,-0.095734,0.192229,0.036570,0.196850,0.136269,0.022941,0.000053,-0.081980,0.002450,0.040836,-0.008819,0.097451,0.007832,-0.122108,0.066887,0.013629,-0.038975,-0.012152,-0.116850
0.042564,-0.036636,-0.034116,0.038263,0.060844,0.040920,-0.073072,0.044141,0.121243,-0.065893,-0.078019,-0.080186,0.011425,-0.038529,0.026599,0.003915,-0.088183,-0.027037,0.091681,0.057615,0.143231,-0.012330,-0.022412,-0.024195,0.019162,-0.049732,-0.008387,0.059157,-0.029878,-0.045102,0.015276,-0.051793,-0.018511,0.040264,0.062671,-0.005845,-0.061870,-0.063889,0.106748,0.111066,0.125893,0.063838,-0.109736,0.007429,0.061106,-0.062615,-0.046109,0.087758,0.035320,0.015114,0.002918,-0.125287,-0.066679,0.020453,-0.143523,-0.020629,-0.141767,-0.060583,-0.055503,0.057487,-0.108476,-0.063575,-0.166100,0.031659,-0.028423,-0.042939,0.002326,-0.126342,0.048469,-0.005641,-0.098707,-0.015226,-0.159253,-0.030321,0.059352,-0.040905,-0.085746,-0.028114,0.067186,-0.041231,-0.052551,-0.052193,0.038278,0.019679,-0.113145,0.006124,-0.023943,-0.025994,0.013044,0.014376,0.069170,-0.037170,-0.128650,-0.061170,0.043413,0.194797,-0.097545,-0.048221,0.131627,0.021522,-0.031603,0.120323,-0.206751,-0.018213,0.108499,0.016617,-0.129964,-0.023099,-0.018098,-0.043353,-0.070680,0.034508,-0.052240,0.136353,-0.125342,-0.014450,0.029130,-0.089674,-0.047623,-0.234618,0.113760,-0.062879,-0.076780,-0.054893,0.117330,-0.202048,-0.008303,0.048180,0.020201,0.078076,0.025057,0.085664,0.030583,0.039496,0.062256,-0.133142,-0.123137,-0.044279,-0.052215,0.095949,0.016707,-0.177775,-0.101779,-0.091908,0.010095,0.052953,-0.018144,-0.035342,-0.078421,0.007400,-0.025729,-0.155913,-0.003298,-0.019011,0.011463,-0.008109,0.010503,0.055174,-0.021958,0.072000,-0.139029,-0.110182,0.116579,-0.157984,0.015242,0.083280,-0.147237,-0.055210,0.174255,-0.080762,-0.027217,0.053160,-0.128703,-0.150273,-0.113600,-0.077993,-0.079083,0.112502,0.069231,-0.032551,0.234642,0.099068,0.135848,0.065247,0.177214,0.183202,0.057713,-0.023245,0.071486,0.174566,-0.132413,-0.048434,-0.131480,-0.160791,-0.061796,-0.065628,-0.030038,0.106848,-0.065322,0.113299,0.002372,-0.037475,0.108090,0.071084,0.139619,-0.030957,-0.029889,-0.076401,0.048137,0.081019,0.221554,0.035574,-0.051254,0.098512,-0.055241,-0.128101,0.059926,0.080063,-0.288972,-0.041478,0.016192,-0.144397,0.076471,0.088938,-0.137076,0.017509,0.083798,-0.006214,0.022914,-0.039475,0.075588,0.030672,-0.038760,0.118673,-0.032692,-0.068008,-0.022442,0.018532,0.021778,-0.049654,0.130930,0.014806,-0.127977,-0.056448,-0.006642,-0.012619,0.013848,0.105461,-0.054389,-0.022357,-0.008125,-0.007278,-0.128443,0.026342,-0.103793,0.013651
0.099737,-0.056404,-0.120978,0.027669,0.114051,0.021187,0.035429,-0.039788,0.093396,0.289620,-0.084137,0.154381,0.248055,-0.082500,-0.103755,0.036202,-0.066461,0.122722,0.046252,-0.013348,0.122014,-0.082489,0.053237,0.172026,0.019651,0.031942,-0.107856,0.045733,-0.193780,-0.000782,0.082425,-0.037831,0.059424,0.030643,0.087133,0.032001,0.098204,-0.090548,0.024901,-0.081892,0.059250,0.012033,0.130462,-0.057850,-0.040533,-0.170615,0.013769,0.093248,-0.240441,0.027666,0.118710,0.134597,-0.152634,-0.054176,0.057560,0.113575,0.023713,-0.047589,-0.062988,-0.209209,0.028888,0.162564,-0.122588,-0.019774,0.177483,-0.026728,0.104637,0.016012,-0.090367,0.302180,0.197451,-0.236828,0.034121,0.074115,0.025764,-0.026413,-0.014319,0.077650,0.046942,-0.050257,-0.078603,0.170853,0.090978,-0.068496,-0.228489,0.100578,-0.120704,-0.062565,-0.021603,0.039354,0.039047,0.064769,-0.193951,0.054803,-0.164916,0.079412,0.107297,0.133301,-0.013653,-0.083134,0.058542,0.032609,0.014109,0.005807,-0.028542,-0.080572,-0.036685,0.152857,0.081995,-0.108023,0.040638,0.070133,0.085263,-0.066657,0.306940,0.038955,-0.133508,-0.004879,-0.115006,0.170253,0.054818,0.000531,-0.032431,-0.108683,0.077165,0.152454,0.059575,0.043319,0.038330,-0.279304,-0.044468,0.039792,0.116876,0.121273,0.079297,0.000051,-0.115725,0.021852,0.131609,-0.102651,-0.049493,0.105897,0.158834,0.021793,0.037325,-0.116411,-0.134943,-0.171295,-0.034735,0.111344,-0.190951,0.120134,0.034458,-0.053499,0.202017,-0.144916,0.070147,0.110104,-0.079955,-0.021797,0.110738,-0.019965,-0.004480,-0.033665,0.142855,0.037248,-0.174001,-0.031024,0.027608,0.049178,0.005718,-0.147108,0.105791,0.156023,-0.048954,0.052869,0.111995,0.111322,0.105755,0.047764,0.135977,0.006678,0.053681,0.167657,0.043296,-0.227148,-0.031012,0.142714,0.043229,0.096444,0.101987,0.170324,-0.113105,-0.004082,0.110406,0.267547,0.109160,0.229323,-0.170238,0.085373,-0.047532,0.051004,0.279479,0.045722,0.013687,0.078954,-0.051069,0.303501,-0.018803,0.264779,0.146536,-0.113745,-0.079593,0.033698,0.114317,-0.275452,0.014368,0.262516,-0.081461,0.139812,0.031135,0.051251,0.174572,0.059218,0.100718,0.059011,0.141229,-0.144491,-0.028853,0.294848,-0.209143,-0.026309,0.052825,0.020632,0.237448,0.182081,-0.051100,0.185367,0.044409,-0.088151,-0.152215,0.231610,-0.007287,-0.137939,0.030548,0.088380,-0.194156,0.071724,0.115036,0.167573,-0.129285,0.185654,0.029589,0.002512,0.073408,-0.220139
-0.014552,0.062950,0.117582,-0.238358,0.117041,0.109360,-0.150498,0.181489,-0.171806,0.000610,0.000303,0.079585,-0.046548,0.021935,0.045373,0.084765,0.091152,-0.037523,-0.036839,0.032564,0.135505,0.025294,-0.018688,0.010199,0.023769,0.028481,-0.012128,0.052827,0.065255,-0.208315,0.132973,0.221151,0.000519,-0.010724,0.069370,0.126729,-0.138083,0.008774,0.024792,-0.035096,-0.029208,-0.129645,0.242548,-0.080407,0.016670,-0.192105,-0.012019,-0.104639,0.005306,-0.077455,0.041955,-0.303351,-0.013564,0.139557,-0.043196,-0.201949,0.011509,-0.082439,0.027672,0.014711,-0.041511,-0.141741,-0.075374,0.087057,0.018633,0.018595,0.053439,-0.018661,0.019401,-0.083000,0.053692,0.097709,0.136147,-0.211509,0.033503,0.029170,0.027758,-0.029796,-0.172411,0.078865,-0.083386,-0.049244,0.080397,0.039564,-0.121570,-0.136983,-0.013059,-0.029047,0.050115,0.142172,0.054166,-0.182783,0.120657,0.026349,0.121511,0.048409,0.115366,-0.169367,0.008761,-0.061311,0.020267,0.106257,-0.112091,-0.013657,0.005217,-0.094253,-0.067684,0.015575,-0.151392,0.029647,-0.092897,0.016994,-0.039955,-0.110843,0.004620,0.144857,-0.068620,-0.106639,-0.020469,0.068919,-0.093757,0.121169,-0.034923,-0.039639,-0.198486,0.141456,-0.002101,-0.066622,0.086773,0.013193,-0.013605,0.121428,0.163750,-0.060162,0.141334,-0.026431,0.062978,0.182537,0.083766,-0.145920,-0.061562,0.024727,-0.028330,-0.205773,0.059623,0.166345,0.073370,-0.071102,0.105365,-0.050204,0.050821,0.003090,-0.143812,-0.098628,0.036973,-0.039733,0.135268,-0.185646,-0.084160,-0.044488,0.008540,0.024361,0.040037,-0.039985,0.029329,-0.105608,-0.087013,0.006737,0.058014,0.048804,0.002483,0.158928,0.068531,0.138653,-0.000395,0.096604,0.155729,0.097020,-0.142621,-0.047242,-0.035216,0.166732,-0.009927,-0.140165,0.070996,0.017557,-0.037854,0.148776,-0.165209,0.113164,-0.006421,0.028214,-0.086288,0.091546,0.109891,0.148170,-0.043616,-0.042397,0.062329,0.050939,0.049731,-0.129689,0.265207,-0.016223,0.128949,-0.155954,-0.000329,-0.032033,0.213971,0.188481,0.031551,-0.036671,-0.049718,0.090847,-0.182447,0.089142,0.148854,0.082522,0.112828,0.111093,0.007717,0.026186,-0.087916,-0.057722,-0.080920,0.157524,-0.043550,-0.012755,-0.023220,-0.009572,-0.189633,-0.109571,0.112877,0.075633,-0.045725,0.119491,-0.122778,0.047220,-0.040949,-0.168194,-0.025727,-0.177488,-0.068327,-0.108726,-0.033878,0.143958,0.161537,0.184294,0.033281,-0.043632,0.119200,-0.046717,-0.000800,0.030556,0.064540,0.093095
-0.078885,-0.092351,0.215221,0.112279,0.162218,-0.072318,-0.004020,0.021965,-0.096748,0.049883,-0.172079,0.019901,-0.006514,-0.086140,-0.015367,0.064807,0.120263,-0.087557,-0.041347,-0.036470,0.175107,0.018966,-0.177938,-0.015474,-0.013127,-0.029142,0.021239,0.049214,-0.134031,-0.018027,-0.165459,0.062344,0.056363,-0.239842,0.096926,0.076646,-0.101469,-0.031825,0.129815,-0.056183,0.000769,-0.269843,0.099613,-0.103664,-0.135182,-0.149985,0.035914,-0.044490,-0.093099,0.091920,-0.121600,-0.022772,0.077242,-0.205631,-0.197569,0.124198,-0.025669,0.144881,0.106387,-0.067924,0.010239,-0.006840,-0.097116,0.064701,-0.254911,0.017306,0.034996,-0.265456,0.073833,0.186766,0.038858,0.025587,0.101987,-0.051178,0.055523,-0.089916,0.237486,-0.010915,-0.004377,-0.081704,0.232397,-0.054406,-0.055384,0.110526,-0.257977,-0.073266,-0.064965,0.220211,-0.017211,0.062273,0.023307,-0.134477,0.164065,0.047715,0.269065,-0.069566,0.139303,-0.006285,-0.048453,-0.043507,-0.058882,-0.187032,-0.142014,-0.085580,0.082941,-0.145412,0.185700,0.147343,0.125539,-0.072229,-0.138112,0.026845,-0.005599,0.014479,0.277179,0.248374,-0.199615,-0.025769,0.007878,0.100975,-0.203844,0.000764,-0.193154,-0.303257,0.100196,-0.189420,-0.092333,-0.044658,0.155508,0.042113,0.081268,-0.105952,0.092434,-0.031247,-0.024078,0.128291,0.003740,-0.045754,0.066322,-0.135074,0.076872,0.168037,-0.014481,-0.205136,0.182501,0.084586,0.098316,-0.126508,0.018876,-0.103186,0.096745,0.121028,-0.060099,-0.118645,-0.100609,-0.242579,-0.131669,-0.072030,-0.119255,-0.046611,-0.031586,-0.080104,-0.070012,0.039189,-0.078005,-0.153140,-0.030581,0.018888,-0.119495,-0.167579,0.014606,0.225572,0.166682,0.042561,-0.008207,-0.084802,-0.059846,-0.098740,-0.093393,0.073891,-0.039177,0.001806,0.054201,-0.075424,0.094816,-0.031233,-0.008045,-0.034686,0.164309,0.102594,-0.075944,0.076196,-0.061641,-0.040011,-0.044153,0.227506,0.078501,0.018612,-0.105538,-0.033929,0.219414,0.066286,0.351083,-0.159057,0.218287,0.064413,-0.014020,-0.054314,0.063777,0.177609,0.052659,0.052594,-0.030312,0.089577,-0.003489,0.097875,-0.199485,0.219946,-0.054941,0.133142,-0.049900,-0.056083,-0.216597,0.029132,0.223976,-0.183819,0.079448,0.025999,0.053870,-0.113622,0.032780,0.016545,0.269930,-0.087616,-0.023286,0.046251,0.003811,-0.077679,-0.296701,-0.111171,0.054951,0.093280,0.019844,0.052634,-0.090038,0.107990,-0.016763,-0.038688,0.108132,0.084260,-0.167338,0.020916,0.137921,-0.088598,-0.054094,-0.071271
0.238486,-0.072214,0.055161,-0.065010,0.161161,0.283390,-0.100586,0.107016,-0.201406,0.064249,-0.117451,-0.032644,0.126771,-0.094284,0.111913,-0.006224,-0.108296,0.128883,-0.109411,0.081481,-0.075369,-0.126122,-0.205963,0.003352,0.048298,-0.026928,-0.109086,-0.019969,0.287572,-0.010611,-0.156576,-0.055516,-0.014620,0.111901,-0.005401,0.022051,0.053879,-0.164367,-0.036909,0.063444,0.145313,0.088554,0.073319,-0.277842,0.000849,0.018589,-0.072551,-0.038701,-0.023542,0.029949,0.003351,-0.075794,-0.210616,0.047750,0.020279,-0.146053,-0.266710,0.069154,0.072850,-0.190577,0.013699,0.099141,-0.043227,0.061171,0.006879,-0.011773,-0.223861,0.047915,0.011709,-0.139440,0.024293,0.010684,-0.087254,-0.023295,0.040702,-0.128836,-0.089915,-0.079332,-0.036728,0.047170,0.020705,0.026712,-0.023313,-0.176388,-0.088789,0.078409,-0.164556,0.033060,-0.038617,-0.030983,-0.059446,0.069309,-0.006742,-0.046976,-0.013137,0.003661,0.009869,0.005995,-0.008345,0.100561,0.039116,0.035091,0.025080,-0.105498,-0.042966,-0.140721,0.047384,0.186648,-0.062808,-0.032746,0.058946,0.149531,-0.061885,0.001217,-0.069506,0.084415,-0.032241,-0.199124,0.140996,-0.119508,0.038973,-0.081656,-0.041369,-0.036152,0.007593,0.079057,0.016975,0.056282,0.085437,-0.147695,0.141446,0.186073,-0.044310,0.056117,-0.021469,-0.033288,-0.154363,0.101561,-0.004354,-0.091394,-0.022614,0.149776,0.073015,-0.036725,-0.078929,0.169444,0.108765,-0.022427,-0.163286,0.085947,0.104225,-0.125979,-0.122940,0.026087,-0.026232,-0.057814,-0.108495,0.049436,0.023803,0.070018,0.122794,0.034200,0.011508,-0.139827,0.001860,0.028680,-0.051158,-0.076137,-0.051888,0.002293,-0.063587,-0.088678,-0.026816,0.002482,0.033858,-0.024846,-0.010787,0.181988,-0.006751,0.092429,-0.023683,0.052741,0.121248,0.232493,-0.149214,-0.005850,-0.011607,-0.003214,0.058356,0.083288,-0.121510,-0.106018,0.067171,-0.020092,0.090917,0.175713,0.110259,-0.026139,-0.095172,-0.063567,-0.025199,0.199368,-0.191269,-0.042760,-0.299698,-0.014573,0.110141,0.097480,-0.082726,0.140331,0.006195,-0.269923,-0.144149,-0.041243,0.218761,-0.066609,0.041967,-0.070729,0.119941,0.019189,0.017096,-0.083096,0.129630,0.073817,-0.096350,0.184559,0.205584,-0.092907,0.173278,0.081313,0.013593,0.104213,0.073361,-0.052294,-0.074261,0.008260,0.033957,0.216480,-0.074157,0.002529,-0.034825,0.008940,0.011524,0.033602,-0.132880,0.203618,0.005672,-0.094840,-0.074172,-0.165648,-0.081909,0.080894,-0.120129,0.253340,0.032512,-0.077975
0.145662,0.016768,-0.055220,0.136874,0.251543,0.011817,0.003352,0.012818,-0.065552,-0.207943,0.199792,0.133324,0.077197,-0.118838,-0.022559,-0.086790,0.223430,0.166336,-0.054359,-0.127281,0.044700,-0.090794,0.017229,0.011145,-0.036488,-0.147495,0.031842,-0.065509,-0.000803,0.111124,0.001594,0.131470,-0.063819,-0.159598,0.021538,-0.013676,-0.032733,-0.030190,0.041228,0.072464,-0.008693,-0.117349,0.094439,-0.066665,-0.010903,-0.033467,-0.011450,-0.024283,-0.031548,0.032382,-0.114107,-0.113585,0.086946,0.029230,-0.005099,-0.131087,0.125679,-0.071542,-0.010657,0.049931,0.093240,-0.043599,0.043215,0.048900,-0.015963,-0.152270,0.032042,-0.054430,-0.059243,-0.007998,0.043298,-0.225200,0.074395,-0.167958,0.032005,-0.075633,0.106743,-0.059994,0.108604,-0.059409,0.069722,0.036374,-0.114933,0.096225,-0.208799,-0.209606,-0.039533,0.150699,0.029608,-0.058278,0.101023,-0.022925,-0.150338,-0.043375,0.125566,-0.035743,-0.087093,-0.108881,0.105906,-0.070608,0.035184,-0.159503,-0.048053,-0.014291,0.078496,-0.064232,0.243051,-0.102146,-0.005212,-0.104344,-0.001079,-0.152645,-0.133747,-0.052895,0.066729,0.037832,0.076892,0.172300,-0.141716,-0.041916,-0.049319,-0.032320,0.017104,0.074879,0.101058,-0.051040,-0.075734,-0.112695,-0.005910,-0.005102,0.135500,-0.129591,-0.088999,-0.088699,0.112236,0.013871,-0.193026,0.057798,0.065974,0.052779,0.001441,-0.102343,0.048913,-0.084139,0.003910,-0.095173,0.067816,-0.069022,-0.070389,-0.063056,0.149099,0.116340,0.054466,-0.087929,0.112319,-0.104400,0.027907,0.138281,-0.029352,-0.122856,-0.014138,0.136816,0.006688,0.030416,-0.044013,0.065398,-0.042525,-0.051283,0.032577,-0.111618,0.070794,0.097870,-0.031199,0.123901,0.012920,0.103804,-0.031849,-0.020037,0.043397,0.045840,-0.033641,0.077247,0.059404,-0.116805,0.104155,-0.112835,0.056040,-0.046485,0.061561,-0.201735,-0.113612,0.140706,-0.101177,0.007530,0.188102,0.267344,0.057391,0.159440,-0.110965,0.119141,0.048511,0.152350,0.056908,-0.083577,-0.059058,0.011621,-0.076303,0.081646,0.016672,0.034737,0.113933,-0.033272,-0.070578,-0.001830,-0.068205,-0.103144,0.027851,0.097467,-0.054421,-0.128601,0.067447,0.228763,-0.088958,0.021028,0.086467,-0.039979,0.081296,-0.082733,0.003559,0.306021,-0.155088,0.096718,0.123133,0.042467,0.017346,-0.178221,-0.095785,-0.061337,-0.056104,-0.021583,-0.076479,-0.024593,-0.010410,-0.022580,0.038610,0.019674,0.133675,-0.221823,-0.041829,-0.141345,-0.128138,0.058442,0.046539,0.004649,0.008255,-0.083663
0.013583,-0.077624,-0.134405,0.028996,0.057988,-0.125023,-0.259236,0.186452,-0.200001,0.024388,-0.083792,-0.183332,0.109712,-0.136307,-0.101776,-0.052583,0.092652,-0.034608,0.037224,-0.000144,-0.012013,-0.116293,0.107119,-0.120344,-0.035865,0.058757,-0.082927,-0.066893,0.074826,0.193469,-0.121791,-0.020873,-0.054060,-0.123425,0.133121,0.045055,-0.120455,0.053554,-0.117194,0.024990,0.069412,0.056022,-0.081727,0.091284,-0.214445,0.159194,-0.057566,0.038644,0.027502,0.026336,-0.001119,-0.104477,0.016131,-0.136329,-0.008707,-0.030409,0.158541,0.111956,0.154387,0.039125,0.029002,-0.036653,0.068784,-0.074086,-0.116902,-0.115683,-0.054144,0.001637,-0.030060,0.026213,-0.107503,-0.117197,0.113065,-0.147501,-0.005244,-0.116900,-0.093366,0.044046,-0.100698,-0.109427,0.020084,-0.065781,0.043279,0.063214,-0.099977,0.081302,-0.035429,-0.121258,0.014251,-0.092122,-0.024578,-0.105518,-0.059448,-0.162925,-0.019152,-0.121214,-0.156226,0.105650,-0.127100,0.006962,-0.016974,0.018846,-0.025988,-0.023932,-0.056161,0.049523,-0.069438,0.031015,-0.228580,0.036812,0.071651,-0.065843,0.162666,-0.008413,0.207023,0.126358,-0.071823,-0.137404,0.176856,-0.042120,-0.045275,0.068313,-0.002242,0.019883,0.103615,0.056454,-0.052913,-0.016324,0.071834,-0.143773,-0.123930,-0.193393,0.024220,-0.106873,0.073862,0.086356,0.060691,-0.096650,0.088355,0.193263,-0.117631,-0.083627,0.070187,-0.020344,-0.164401,-0.135395,0.010515,0.021501,0.093234,0.005913,0.150180,-0.110630,-0.042003,-0.002146,-0.005302,0.022814,-0.152304,-0.094159,0.100171,-0.040500,0.038449,-0.033355,-0.037134,0.138035,-0.138309,-0.010848,-0.072940,-0.061607,0.079184,-0.014976,-0.012158,0.070769,-0.070745,0.001259,-0.205632,-0.260621,-0.006177,0.153551,0.011649,0.042442,0.007836,-0.051149,-0.103690,0.080040,0.022455,0.027217,-0.112499,0.010288,-0.142427,-0.032981,0.018256,-0.038599,-0.132628,-0.041353,0.167837,0.072685,-0.106021,-0.045111,-0.030820,-0.211361,-0.133313,-0.062791,-0.097187,-0.122212,-0.023628,-0.002399,-0.062210,0.094691,-0.216963,-0.081463,-0.055101,0.015180,0.021178,-0.134815,-0.168631,-0.058688,-0.088119,0.081783,-0.025579,-0.030554,0.002947,0.019995,-0.041791,-0.140769,-0.151015,-0.061121,-0.033646,-0.084982,0.060597,-0.095701,0.016271,-0.056911,-0.082129,0.171607,-0.146297,-0.121084,0.018820,0.246514,0.060230,-0.063115,-0.004469,0.001855,0.096823,-0.109930,0.013653,-0.080327,-0.129049,-0.062160,0.007037,-0.152846,0.013141,0.164568,-0.008668,-0.111506,0.001147,0.083502
0.093721,-0.009179,-0.228231,-0.013796,-0.115545,0.069380,-0.077649,0.075312,0.251195,-0.139948,0.074492,0.189397,0.026031,-0.050962,-0.136241,-0.076816,-0.000342,-0.030511,0.090101,-0.110962,-0.080730,-0.015234,-0.010448,-0.101729,0.074385,0.021196,0.048515,-0.037859,0.089967,0.201866,-0.202009,-0.164932,0.042788,0.064792,0.058103,-0.101863,-0.096380,-0.008129,-0.092066,-0.240679,-0.097901,-0.001475,0.184281,-0.267802,-0.047260,-0.268333,0.046346,-0.183063,-0.033924,-0.014693,-0.260364,0.245262,-0.082087,-0.058062,0.169078,-0.127776,0.058704,-0.163167,0.091414,0.055026,-0.009929,-0.216564,0.058368,0.213139,-0.018482,0.028831,-0.167239,0.193313,0.110136,0.027856,-0.133378,0.122695,0.194693,-0.139136,0.024502,-0.145954,0.044246,0.147683,0.005772,0.205863,-0.116530,0.011270,0.087098,0.215113,-0.210002,0.084543,-0.087759,0.012844,0.293964,0.077504,-0.138701,0.060349,-0.032056,-0.233242,0.002780,0.333573,0.121333,0.208751,0.103475,-0.046585,0.053285,-0.098415,-0.078031,0.175935,0.297235,0.052450,0.022441,-0.017002,-0.078467,-0.135373,0.097164,-0.101282,0.039951,0.049777,0.164694,0.040860,-0.247732,0.052196,-0.122767,0.061924,-0.076317,0.123668,0.053332,0.035696,0.243003,0.131095,-0.074862,-0.042110,0.130712,-0.293699,0.175783,0.033420,0.228844,-0.044005,-0.114575,-0.054789,-0.001574,-0.218010,0.148946,0.096307,0.139078,-0.018068,-0.162261,-0.291011,-0.195377,-0.092293,-0.120030,-0.251568,0.012579,-0.317857,-0.014039,0.014508,-0.167945,0.100346,-0.091467,0.171663,0.231395,-0.077791,-0.007760,0.229526,0.088929,-0.000702,0.083855,0.041192,-0.008600,0.130440,0.009979,-0.005695,0.066302,0.222130,0.181533,-0.014977,-0.089889,0.170893,0.126881,-0.129040,0.120999,-0.104925,0.046137,-0.089935,0.137728,-0.022929,0.229961,-0.058384,-0.139195,0.000122,0.022112,-0.112315,-0.033817,0.065957,0.009571,0.180553,0.189616,0.140481,0.140272,0.116780,0.039167,0.335255,0.143985,-0.085469,-0.104334,-0.052828,-0.002068,0.049840,-0.266878,-0.035791,-0.231738,-0.147079,0.062502,0.243932,0.033535,-0.082316,-0.100073,-0.081976,0.160932,-0.086048,0.128202,0.287393,-0.113963,-0.032682,-0.235222,0.143869,0.088084,0.216504,0.049414,0.020973,0.031947,-0.147903,-0.116824,0.143273,-0.072804,0.044004,0.127477,-0.093269,-0.137674,0.120338,-0.072872,-0.039975,0.066198,0.031729,0.102111,-0.073687,-0.128875,-0.097260,-0.041029,-0.032838,0.101118,-0.180676,-0.026770,-0.111150,-0.084554,0.095775,-0.100442,0.221783,0.146733,0.038632
-0.011827,0.078332,0.031107,0.153041,-0.055628,0.089599,0.001741,-0.164706,0.011877,-0.108049,0.063562,0.081128,0.011651,-0.151760,-0.017380,-0.142499,0.194763,-0.053505,0.034497,0.039533,0.055016,-0.113517,-0.013759,0.039318,0.160986,0.015230,-0.136429,0.075099,-0.154701,-0.000748,-0.018159,-0.067459,0.062668,0.012225,0.090246,-0.113356,0.030183,0.196835,0.022429,-0.087067,0.043890,0.032047,0.010059,-0.009548,-0.099270,0.037291,0.005616,0.012972,0.051833,-0.164247,-0.048582,-0.038421,-0.029046,-0.069143,0.102282,-0.154924,-0.158989,0.051765,0.150814,0.065235,-0.028345,0.113469,0.007049,0.053832,-0.099743,0.128359,-0.024036,-0.024436,-0.050616,0.069357,0.104298,-0.192774,-0.051679,-0.123282,0.014129,-0.108778,-0.144220,-0.119820,0.034753,0.016768,-0.075177,-0.166530,-0.179851,-0.056198,-0.015810,-0.025772,-0.036764,-0.040960,-0.178129,0.091875,-0.065138,-0.025664,0.041518,0.042673,0.137207,-0.040550,0.032481,-0.063636,-0.042849,0.149566,-0.027855,-0.185471,-0.080103,0.002325,-0.047284,-0.074899,0.016020,0.120717,-0.030597,-0.011152,-0.083491,-0.082221,-0.131973,-0.072690,0.006308,0.064594,0.064752,-0.014304,-0.132134,-0.060238,0.033755,0.052167,-0.048577,0.120889,0.171595,0.056494,-0.025531,0.010521,-0.036828,-0.017566,-0.017992,-0.028137,0.020304,-0.112686,-0.001211,-0.000130,-0.083006,-0.011967,0.062020,0.072368,0.044178,0.053480,-0.079784,0.106316,0.109248,-0.022501,-0.105137,0.122675,0.011999,0.074705,0.096702,-0.014554,-0.214806,-0.151081,0.106974,-0.091029,0.100723,-0.009382,0.017633,-0.035336,-0.022612,0.043007,-0.031637,-0.098668,-0.115587,-0.110377,0.013832,-0.008194,-0.095916,0.084062,0.017008,-0.007349,0.119880,0.045570,-0.065934,-0.151127,-0.060313,0.057116,0.180567,-0.026201,-0.003819,0.156373,-0.098524,0.080463,0.071940,0.016672,-0.037148,0.133753,-0.002282,-0.000280,0.057333,-0.007613,-0.008246,-0.079087,-0.082581,-0.145717,-0.092984,-0.084767,-0.001592,-0.044462,-0.058943,-0.164364,-0.035957,-0.024787,0.152543,-0.198387,-0.003302,-0.064534,-0.063347,-0.200246,-0.005634,0.119376,-0.073701,0.082385,0.109942,0.286801,0.037147,-0.020518,0.024029,0.062503,-0.139754,-0.045537,0.163287,-0.110707,-0.054606,-0.049738,0.088508,0.103083,0.096437,-0.124963,0.022078,0.061236,-0.064667,-0.035471,-0.111610,0.009914,-0.124278,-0.003532,-0.147747,0.052643,-0.011571,-0.026175,-0.052117,0.057338,-0.035038,0.129823,-0.024814,0.098441,-0.025758,0.023795,-0.007223,0.027753,-0.045532,-0.028961,-0.079355,0.086233
-0.027601,-0.075265,-0.001340,-0.039931,-0.016071,-0.017370,-0.002576,0.010292,-0.018998,-0.008008,-0.013716,-0.121921,0.000887,-0.126850,0.191831,-0.085781,-0.185771,-0.044447,-0.155411,0.149904,0.057558,-0.078195,-0.315050,-0.132678,-0.111856,0.080141,0.050790,0.043536,-0.045803,0.066146,0.170944,-0.002715,0.049624,0.096038,0.181114,-0.072364,-0.188717,0.002657,-0.188851,0.064975,-0.003938,-0.091386,0.038631,0.054989,-0.188211,0.152155,0.030979,-0.024120,-0.038412,0.018074,0.036838,0.014189,0.155340,-0.060031,0.100448,-0.082250,0.069140,0.028464,0.031747,0.044955,0.034827,-0.036905,-0.063673,-0.126679,0.099683,0.024340,-0.084788,0.009495,-0.105637,0.113764,-0.017687,0.076430,-0.056887,-0.012296,-0.002330,-0.023929,-0.051021,-0.092356,-0.183041,0.140284,-0.019783,-0.007611,-0.066023,-0.049805,0.081329,-0.019358,0.009918,-0.004591,-0.017163,0.024748,0.022169,-0.006292,0.031865,0.013269,-0.063895,-0.095429,0.007652,-0.013012,-0.217526,0.135175,0.164817,-0.081305,-0.053693,-0.122716,0.090901,-0.092909,-0.029780,-0.056052,-0.042221,0.081152,-0.028110,-0.153058,0.029898,0.064161,-0.087520,-0.041887,-0.019629,0.048762,0.109026,0.003349,-0.020187,-0.093864,-0.133918,0.065335,0.028403,-0.000004,-0.077135,-0.105331,0.093128,-0.072901,-0.035450,-0.120167,0.002842,-0.123254,0.071131,-0.043192,0.015784,-0.064449,0.001404,-0.071499,0.062537,-0.039316,0.033331,0.036765,-0.135820,-0.303757,-0.133596,-0.040771,-0.244791,0.013775,0.001382,-0.214722,0.012733,0.016600,0.032700,-0.085078,-0.042989,-0.133198,0.138529,-0.039377,0.034389,-0.063001,0.144056,0.106476,0.044921,-0.075168,-0.091925,0.172664,-0.092316,-0.098447,-0.074794,-0.100878,0.081870,0.153861,-0.164971,-0.133135,0.090439,-0.184000,0.025552,0.137516,-0.017485,0.045361,-0.019451,-0.012570,-0.037433,-0.086342,0.153708,-0.087850,0.001723,-0.065845,0.041003,0.051106,0.057120,0.108559,0.042623,-0.034618,-0.035192,-0.096237,-0.103532,-0.021635,-0.069715,-0.071028,-0.005317,-0.006898,0.069587,-0.106957,-0.138741,-0.024069,0.013306,-0.028861,-0.005335,0.007349,-0.079857,0.065665,-0.048795,0.148547,-0.095568,-0.027681,0.029858,-0.060792,0.006674,0.006989,0.042820,0.113791,0.074378,-0.010553,-0.120280,-0.256869,-0.014130,-0.102295,-0.053405,-0.024609,0.036598,0.023518,0.020893,-0.042958,0.050910,0.012647,0.052425,-0.053523,-0.113862,0.021758,0.112491,-0.032997,0.137455,-0.053333,-0.064231,0.055010,-0.042216,-0.014201,-0.068258,-0.172571,-0.014711,0.019915,0.003162,-0.085331
-0.032929,0.018471,0.033775,-0.113983,-0.062557,-0.013123,-0.075020,-0.158756,-0.055242,0.093666,-0.035103,-0.061338,0.006646,-0.106128,-0.147533,-0.050427,-0.058011,0.057676,-0.082065,-0.075339,-0.012223,-0.083565,0.060394,0.017445,0.058316,0.133558,-0.043390,-0.033349,-0.130643,-0.124316,0.015391,0.030338,0.051214,0.066722,-0.189689,-0.093538,-0.080717,0.108653,-0.013423,-0.083045,-0.016252,0.055548,-0.005415,-0.013294,0.059802,0.032311,0.038308,0.080965,-0.116420,-0.013466,0.051676,-0.031217,0.101819,0.015116,0.066203,-0.051639,0.017886,-0.137138,0.051477,0.062319,-0.046394,0.049128,-0.196156,-0.070134,-0.196233,0.020823,0.124816,-0.077294,-0.052684,0.093726,0.044161,0.014779,0.064257,-0.054129,-0.030948,-0.014553,-0.031300,0.096647,-0.103517,-0.043028,-0.001666,0.102645,0.004690,0.059567,-0.017707,0.056519,0.079216,0.008407,0.118474,-0.094240,-0.110582,-0.096096,-0.049521,-0.128774,0.009595,-0.112711,-0.037230,-0.071926,-0.022343,-0.094248,-0.015295,0.127000,0.113777,-0.045046,-0.049542,-0.017698,0.030218,-0.018965,-0.015672,0.100877,-0.059715,0.092893,-0.054921,-0.056810,0.129759,0.027286,0.042002,0.011689,0.092344,-0.111183,-0.176928,-0.012373,-0.098030,0.035140,-0.247581,-0.071941,-0.108410,-0.064143,0.101684,0.051400,-0.057386,0.011491,0.008673,-0.030606,0.003201,-0.115626,-0.036116,0.041739,-0.026159,0.011184,-0.050070,-0.134096,-0.067422,-0.185335,0.028986,0.018565,0.045047,-0.147514,0.105789,0.036385,-0.150785,-0.094758,0.140483,0.003116,0.030477,-0.075293,0.124786,0.055853,0.084118,0.146404,-0.049327,-0.057954,-0.032346,-0.041482,0.097785,-0.098098,0.040377,0.069246,-0.018844,-0.021536,-0.000418,0.165131,-0.069427,0.025887,-0.079765,-0.102525,-0.054463,0.065538,-0.005253,-0.018553,-0.054804,0.116986,0.096518,-0.049818,-0.172106,-0.093715,0.135194,0.083312,-0.064966,0.010070,-0.030367,0.030568,-0.048183,0.025515,-0.006331,0.085890,-0.018694,-0.038985,0.039268,-0.187972,0.072821,-0.123540,-0.072846,0.000835,0.008130,0.012702,0.052353,-0.099748,0.052662,0.015469,-0.088259,0.028698,-0.084282,0.045095,-0.262067,0.006982,0.014146,-0.141653,-0.094489,-0.004009,-0.168587,-0.085209,-0.115916,-0.130540,-0.003219,0.073408,-0.023248,0.083246,-0.049322,-0.059285,0.036359,0.105150,-0.116431,-0.015524,0.033307,-0.120195,0.040283,-0.071138,0.003095,-0.061548,0.115162,-0.047815,0.088099,-0.068645,0.068736,0.121989,0.063807,-0.017446,-0.084127,0.112715,-0.200393,0.063415,0.099004,-0.076186,0.006119,-0.070703
