0.101452,0.145399,-0.146362,-0.073480,0.031139,0.150748,0.065905,0.101800,0.074583,0.091144,-0.191805,-0.108335,0.107278,-0.052699,0.131724,0.016816,0.050383,0.124649,0.173696,0.189769,0.211428,0.024430,0.118532,-0.102515,0.139869,0.090266,-0.228635,0.073066,-0.189294,-0.045490,-0.079142,0.132214,-0.268186,-0.024082,0.083397,0.049601,0.054947,0.018401,-0.142790,-0.122573,-0.128743,0.055982,-0.116920,-0.014670,-0.128435,0.046842,-0.051168,-0.004517,0.040228,-0.047224,-0.042588,-0.103539,-0.009406,-0.094254,0.067108,-0.157261,-0.093392,-0.152777,0.054747,0.242009,-0.168386,-0.085172,0.176050,0.015139,-0.088667,0.027447,-0.231986,0.160252,-0.043210,0.050354,0.049282,0.106485,-0.080252,0.057845,0.049063,-0.006308,-0.054939,-0.002152,0.011742,0.008019,0.031133,0.115478,-0.058263,0.070058,0.163113,0.142376,-0.006514,-0.009943,0.067047,0.178999,-0.161524,-0.082559,0.089182,0.109594,-0.043147,-0.153756,-0.230001,-0.193564,-0.008065,-0.123572,0.067850,0.111676,0.015873,-0.109515,0.055402,0.122553,0.219437,0.101125,0.222947,-0.025626,-0.069733,0.037121,-0.164021,-0.066331,0.299596,0.094349,-0.006983,0.043782,0.100976,-0.002379,0.211907,0.026954,-0.111815,0.005228,-0.044226,0.167574,0.129941,0.048567
0.158848,0.119228,0.011927,0.005022,-0.159725,-0.000765,-0.035957,0.143935,-0.104265,-0.052782,-0.136176,-0.124195,0.047619,-0.127494,0.000963,0.068229,0.166718,0.041268,0.001598,0.113065,0.095418,-0.239582,-0.299875,-0.068415,-0.021898,-0.065426,-0.112280,-0.216246,-0.138067,0.050942,0.078328,-0.040539,-0.038381,0.051541,-0.019211,0.022769,-0.083707,0.214200,-0.064673,-0.044800,-0.159060,-0.119954,-0.001572,-0.034292,0.044869,-0.177225,-0.094816,0.083406,-0.027971,0.124692,0.016680,-0.120521,0.084089,0.152210,0.233896,-0.220157,0.051257,-0.192688,-0.140964,-0.003494,0.225267,-0.089202,0.055088,-0.075407,0.005322,-0.040382,0.098711,-0.104505,-0.222598,0.176090,-0.021804,-0.006866,-0.051438,0.198593,0.037761,0.064083,-0.230848,0.004714,0.020421,0.152441,-0.075794,0.267553,0.258812,-0.153684,-0.020211,-0.259333,-0.178523,0.083173,-0.065971,0.009091,-0.082635,0.031042,0.059745,0.124395,-0.062678,0.008764,0.086814,0.213819,0.064923,-0.121588,-0.036918,-0.056208,0.014273,-0.004817,-0.165296,-0.145134,-0.134993,0.197919,0.094222,0.042018,-0.092615,-0.085386,0.115678,-0.215374,0.035965,0.038305,0.062105,0.062145,0.028400,-0.137768,0.126336,-0.183079,0.092170,0.182517,-0.183910,-0.143818,0.159335,-0.148568
-0.088576,0.025460,0.016676,-0.313347,0.039472,0.063887,-0.206365,0.042860,0.165931,-0.052407,0.061891,-0.076688,0.017311,-0.242533,0.067933,0.102361,0.089891,-0.074774,0.082005,-0.065192,-0.010746,0.023539,0.036840,-0.123854,-0.085485,0.047601,-0.252981,-0.184991,-0.148697,0.042907,-0.042462,-0.069850,0.110144,-0.158132,-0.065300,-0.024147,-0.127566,-0.140553,0.000475,0.241532,-0.134277,-0.261970,0.009319,-0.204047,-0.029115,-0.042097,-0.072199,-0.068535,-0.123034,-0.049835,0.182174,0.076373,-0.135028,0.219971,-0.134842,0.239657,-0.001760,0.071092,-0.035013,-0.130483,-0.133605,-0.251672,-0.064652,-0.067310,-0.169592,0.063040,0.069916,-0.191837,-0.127669,-0.026419,0.161331,0.122735,0.112425,-0.122728,0.224042,-0.047574,0.247298,-0.159801,-0.191235,-0.081462,-0.060080,-0.047139,-0.022901,0.046189,0.149825,0.058366,-0.178858,0.051102,-0.074552,-0.053048,0.134852,0.075588,-0.227013,0.086847,-0.171327,-0.110484,-0.124167,-0.097897,0.183022,-0.028489,-0.066902,-0.192655,0.089982,-0.076159,-0.069428,-0.102112,-0.066157,0.285387,0.044207,-0.063059,0.038929,0.084569,-0.129251,-0.250121,0.141630,-0.327187,-0.163222,0.116630,0.080366,0.047895,-0.142940,-0.195145,-0.102554,0.148208,0.006082,-0.118104,0.122082,-0.116622
-0.033652,0.089786,0.146360,0.059004,0.175110,0.264148,0.055809,-0.283888,-0.009252,-0.003982,0.144639,-0.047918,-0.184881,0.056637,-0.044270,-0.160488,-0.031644,0.006147,-0.197954,0.065081,0.063330,-0.069706,0.161440,0.118174,-0.095617,-0.037676,-0.036294,-0.215688,-0.202494,-0.025140,0.138502,-0.047492,0.102305,0.141882,-0.208345,-0.241590,-0.191293,-0.029013,0.048690,-0.100137,0.020634,0.039511,0.022099,0.110048,0.134963,-0.052797,0.053677,0.224025,-0.015451,-0.001456,-0.020727,0.019464,-0.105741,-0.146189,-0.087640,0.081865,-0.210102,0.010056,-0.077781,-0.006318,0.051443,0.118517,0.198261,0.082465,0.071006,0.005365,0.129954,-0.103825,-0.061439,0.088588,0.075622,-0.109949,-0.407104,-0.146102,-0.073933,0.175475,0.004918,0.027234,-0.093185,-0.033154,-0.100767,0.233418,-0.004117,0.111641,-0.026735,-0.066444,0.044815,-0.192269,-0.098778,0.188188,-0.213946,-0.188378,0.062259,0.089618,0.000120,-0.147716,0.203965,0.156832,0.184558,-0.072668,-0.013436,-0.172360,0.007649,0.005599,-0.055052,-0.037098,-0.235431,0.094296,0.040854,-0.031278,-0.178266,0.063602,-0.001618,-0.123470,-0.295667,0.130588,-0.264470,0.069465,0.081954,-0.065467,0.042902,-0.055030,-0.183790,0.113957,0.196017,-0.022974,-0.017665,-0.080875
0.177953,-0.066479,-0.046647,-0.061686,0.045380,0.059113,-0.034982,-0.063153,-0.108217,-0.224256,0.061685,-0.205302,0.141165,0.098130,-0.066856,-0.140151,0.136345,0.019066,-0.001273,0.074559,-0.001592,-0.036171,0.032896,-0.070712,-0.083977,-0.071989,-0.080031,0.056733,-0.037007,-0.087208,-0.161571,-0.003326,0.023303,0.031610,-0.084639,0.020825,0.367378,-0.068393,0.076219,0.057776,-0.107033,-0.077217,0.359762,-0.021700,0.283069,-0.010036,-0.046036,0.005371,0.074186,0.136716,0.083890,-0.066587,-0.278862,-0.005967,0.128169,0.021763,0.065491,0.111447,0.121085,0.028266,0.112620,0.042392,-0.201534,-0.033388,-0.078600,0.109860,-0.151907,0.067706,0.021297,-0.034870,-0.025638,0.033481,-0.177508,0.210042,-0.108333,-0.154901,-0.061791,0.012987,-0.104110,-0.086837,-0.240805,0.008300,0.184264,0.057201,0.082716,0.093762,0.150078,-0.059739,-0.075062,-0.246793,-0.077634,-0.008259,-0.251152,0.050652,0.154472,0.220194,0.139150,-0.254640,-0.002204,-0.100755,-0.092941,0.028071,0.064652,0.112542,0.052074,0.055051,-0.073569,0.070761,0.021419,-0.061703,0.113404,-0.176410,0.108897,0.074899,-0.318433,-0.123185,0.147802,0.007776,-0.007514,0.000242,-0.035533,-0.097221,0.031412,-0.205135,-0.203680,-0.061057,-0.182493,0.019950
0.023821,0.008541,0.155496,0.016796,-0.087641,-0.009255,0.038762,0.100801,0.246232,0.157597,-0.299267,0.068351,-0.048811,-0.072427,0.191267,-0.211768,-0.179525,0.123986,0.018225,0.123848,0.011651,-0.017570,0.070374,-0.142714,-0.100016,0.113307,-0.013755,-0.021778,0.049319,-0.044949,0.086424,-0.113844,-0.110859,-0.029028,0.040900,-0.209817,-0.165653,-0.358212,0.147232,-0.062918,-0.186482,0.058458,-0.042942,-0.301955,0.080795,-0.251882,-0.033978,-0.140908,-0.227946,0.043679,0.009340,-0.008894,0.051829,0.119111,-0.302718,0.129548,0.123123,0.060636,0.195526,-0.228507,-0.209472,0.171288,-0.274632,0.058025,-0.162651,-0.023176,-0.054132,0.083697,-0.060935,0.028582,0.178665,0.098788,0.082240,-0.057383,0.181303,-0.212584,0.111691,-0.014036,0.139182,-0.002571,0.140704,0.225108,0.059189,-0.066672,-0.041285,0.002174,-0.004387,0.062387,0.091388,0.429949,-0.091075,0.141821,0.043825,0.260121,0.249214,0.143568,0.018922,0.045415,0.039328,-0.002655,-0.179298,0.140035,-0.056601,0.026071,0.008164,0.128823,0.096882,-0.023223,-0.168305,-0.028921,-0.003611,0.115987,-0.262363,-0.244501,0.012113,-0.228687,-0.094134,0.080343,0.094236,-0.142204,0.084574,0.076832,0.051290,0.114317,0.002333,0.017172,0.004824,-0.028871
-0.054824,-0.096960,0.137670,0.046802,0.049449,-0.128827,-0.015341,-0.012975,0.116051,-0.150052,0.030400,-0.353432,-0.007841,0.305793,-0.138760,-0.235429,-0.097241,-0.068010,-0.233225,-0.050684,-0.000679,-0.097123,-0.047717,0.090718,-0.045894,0.127155,-0.054135,-0.027315,0.016607,-0.048548,0.022744,-0.012439,-0.077110,-0.006834,0.066017,-0.015936,0.004715,-0.186263,-0.206635,-0.131469,-0.006145,-0.082687,0.064603,-0.145765,-0.267984,-0.105736,-0.059502,-0.228758,-0.074571,0.087451,-0.120917,0.040743,-0.301531,0.088753,0.064862,0.027392,0.007861,0.364775,-0.245270,-0.094675,0.161148,0.148553,0.052388,-0.130062,-0.067721,0.056303,0.081320,0.140489,-0.111999,-0.173841,0.202763,0.085852,0.039040,-0.165979,0.078050,0.008013,0.106240,0.010609,-0.159712,-0.073123,0.049074,0.004510,-0.164063,0.021785,0.049118,0.020770,0.084926,-0.027705,-0.022959,-0.128497,-0.200120,0.012899,-0.261463,0.123477,0.045642,0.069209,-0.242181,0.079772,-0.020728,-0.180366,-0.147920,-0.022432,-0.042913,0.208840,-0.080307,-0.052636,0.074610,-0.008115,-0.077904,0.116522,0.029598,0.107770,-0.002954,-0.064414,0.049807,-0.101820,-0.045026,-0.079454,0.023260,0.049888,0.070715,-0.233708,-0.095246,0.289994,-0.138836,0.011856,-0.183268,0.066575
-0.096068,0.155115,-0.207438,0.084989,0.064499,0.058217,0.034779,0.364482,-0.267759,0.231188,-0.031100,0.184274,-0.035066,-0.052179,0.130077,-0.298285,0.018388,-0.130177,-0.069655,0.028778,0.085611,-0.033135,0.007319,0.112670,0.247130,-0.079231,0.042947,-0.091976,0.042150,-0.281564,0.065135,0.062519,0.064481,0.126554,-0.094208,0.154478,0.025321,0.159316,0.156622,0.161239,0.142654,0.153710,0.013818,0.093882,-0.009024,0.065468,-0.009279,-0.003585,0.219371,-0.131222,-0.032658,0.047450,-0.172078,0.162468,-0.046237,-0.051834,-0.125611,-0.117707,0.003363,-0.082298,0.033790,-0.269588,0.069365,-0.142120,0.197127,-0.112786,-0.222644,-0.077633,0.210435,-0.129693,-0.124502,-0.009963,-0.058293,-0.058963,-0.111024,0.213639,0.140798,0.154098,-0.071700,0.086554,0.126198,-0.061874,0.131402,-0.049666,-0.284866,0.003009,0.155019,-0.100332,0.077112,0.034745,-0.113715,0.036661,-0.058796,-0.099749,0.089652,-0.229730,-0.127021,-0.216286,-0.103362,-0.038912,-0.177068,-0.039229,0.041294,-0.138518,-0.062890,0.018218,-0.024319,-0.133829,-0.074105,0.018022,0.234447,0.016857,0.073444,-0.101834,0.064658,-0.226680,-0.058162,0.175446,-0.077499,-0.164143,0.041363,0.030185,0.222557,0.168094,0.016794,-0.032853,-0.034634,0.042486
0.036968,0.038698,-0.139182,0.012678,-0.006858,-0.080752,-0.220027,-0.046232,0.050552,-0.259459,0.103540,0.136211,0.027384,0.114296,-0.041104,0.199241,-0.242167,0.099837,0.012302,0.054301,-0.016811,0.146830,-0.150842,0.046810,-0.102871,0.001872,-0.094794,0.139317,-0.020896,0.099361,-0.076176,-0.004125,0.017575,-0.152471,-0.189097,0.072129,0.264136,-0.051364,0.032696,-0.008630,0.065299,0.037699,-0.235572,-0.228280,0.227326,0.047227,0.096856,0.004358,-0.198038,-0.188606,0.020548,-0.056663,-0.126040,-0.088686,0.293430,0.285205,0.000064,-0.221174,0.036174,-0.127231,0.224248,0.062978,-0.074626,-0.076238,-0.186214,-0.168374,0.009332,0.138649,-0.141242,0.134109,0.022850,0.129324,0.050561,0.253820,-0.222717,-0.088319,0.056398,0.168019,0.079397,-0.188990,-0.003577,-0.044689,0.003575,-0.001200,-0.207434,0.104740,0.005355,0.022200,0.113892,-0.110956,0.047598,-0.017521,0.047744,0.100006,-0.029166,-0.102587,-0.005970,0.044306,-0.077519,-0.071681,-0.227005,0.081073,-0.016530,-0.154918,0.042926,0.062372,0.056051,-0.072055,-0.088662,-0.028536,-0.113119,-0.032512,-0.032135,-0.063160,-0.040543,0.027940,0.022904,0.120718,0.117046,0.138733,0.148906,-0.128628,-0.109197,0.034724,-0.019286,0.076048,0.110717,0.059975
0.112424,-0.256908,0.034301,0.008785,-0.076474,-0.128984,-0.076767,-0.109846,-0.058070,0.040549,-0.018506,-0.045788,-0.124833,0.071301,0.279766,0.201513,-0.189099,0.057353,0.177652,0.123929,-0.016731,-0.048722,-0.108540,-0.066713,-0.060452,-0.092078,0.079733,0.029994,-0.004379,0.035875,0.003215,0.050432,-0.210072,0.091086,-0.085420,-0.340109,0.100467,0.041462,0.139498,0.042642,-0.011953,0.008283,0.254758,-0.149792,-0.060276,-0.156302,-0.024394,-0.017388,-0.017455,-0.096264,0.029059,-0.033073,-0.035944,-0.016088,-0.006614,-0.049919,-0.089733,-0.009984,0.045923,0.110831,-0.022211,0.088006,-0.151429,0.123410,-0.105928,-0.007837,-0.002553,0.274662,-0.037606,-0.158124,0.080144,0.276129,-0.045511,0.026241,-0.180980,0.052621,-0.271905,-0.043344,0.019268,-0.097055,-0.045626,0.048799,-0.084366,-0.075909,-0.142307,-0.055315,0.141577,-0.059671,0.030581,-0.094147,0.043243,0.040685,-0.063787,0.155776,-0.094552,0.058531,-0.091379,0.002607,-0.091373,0.032662,0.253324,-0.086984,-0.062960,-0.170697,-0.034881,0.014021,-0.072133,0.036056,-0.046607,0.196074,0.126778,-0.032738,-0.102373,-0.210427,-0.059860,0.105914,0.009611,-0.087081,0.138194,-0.016888,-0.160985,-0.154772,-0.019092,0.052153,0.057723,-0.106763,0.015406,-0.147241
0.184064,-0.124456,-0.017588,-0.128291,0.123188,-0.087982,0.358978,-0.308974,-0.123421,0.080344,-0.070693,0.052430,0.041550,0.326059,-0.292139,-0.034372,-0.156138,0.021639,0.069782,-0.111930,0.099368,0.013787,0.207273,0.194177,0.088049,-0.057492,0.007542,0.113639,0.127097,0.054210,-0.259029,0.022654,0.210487,0.178042,-0.170369,-0.121239,-0.149451,-0.228931,0.117999,-0.046143,-0.088930,-0.017052,0.216563,-0.018605,0.063366,-0.093631,-0.065917,-0.282390,-0.008588,-0.081354,0.027269,-0.051468,0.022078,-0.030262,0.174086,-0.083266,-0.149356,-0.069986,0.079247,-0.035892,-0.005057,0.115155,0.158923,0.176040,0.060681,-0.123328,0.029397,0.154978,-0.206456,-0.063269,0.121292,-0.137821,-0.041326,-0.121268,0.255547,-0.112351,-0.104557,-0.026066,-0.111564,-0.130169,-0.030603,-0.135018,-0.079616,0.005434,-0.188703,-0.192886,-0.134604,-0.028526,-0.141435,0.018514,0.074095,-0.024221,0.051464,-0.079441,-0.056671,0.126370,0.017308,-0.177228,0.045288,-0.268813,0.131495,0.076735,0.026917,0.296574,0.143071,-0.002693,-0.000729,-0.049985,-0.128140,-0.063320,-0.200218,-0.083737,-0.027965,0.193445,-0.074903,0.141619,0.080640,0.020299,-0.034607,0.059300,0.030755,-0.023509,-0.075502,-0.048556,0.038942,-0.090014,0.000533,0.036834
0.005343,0.159731,-0.017812,0.049944,-0.198795,-0.003412,-0.161013,0.066659,-0.001563,-0.156190,-0.042072,-0.083818,-0.213235,-0.133708,0.127824,0.030197,-0.046083,0.259128,-0.026798,0.085303,0.029335,0.077101,-0.216259,-0.086009,0.019455,-0.085009,0.034497,0.057492,0.190518,0.009892,0.122100,-0.027322,0.031483,0.183186,-0.010903,0.222481,-0.074839,0.046628,-0.049528,-0.056326,0.037879,0.036999,-0.115861,-0.031490,0.077154,0.051344,0.022366,0.026720,-0.029271,-0.212151,-0.126861,0.021252,0.066788,-0.172393,0.139126,0.033360,-0.130312,-0.082173,0.008574,-0.110934,-0.060009,0.026271,0.008423,0.094972,0.037251,-0.107630,0.141945,-0.056264,-0.061786,-0.203260,-0.184780,0.066706,0.187071,-0.039064,-0.074871,-0.047422,0.239774,0.072729,-0.024073,0.065250,0.194958,0.131252,0.027914,-0.110709,-0.016120,0.044671,0.076988,0.168417,-0.228313,0.077342,0.054434,-0.017282,-0.112765,-0.050749,0.115419,-0.001582,-0.024663,-0.071430,-0.132373,0.232909,0.107120,-0.120943,-0.102928,0.146582,0.232576,0.059991,0.019147,0.153156,-0.092265,-0.103282,0.107285,0.196394,0.228788,-0.092592,0.104808,-0.033919,0.032954,-0.056188,0.046871,0.130640,-0.093162,-0.009699,-0.025345,0.142437,0.136553,-0.055062,0.091334,-0.093613
-0.043304,-0.069879,-0.000024,0.157416,0.078875,0.001478,0.237559,-0.106068,0.154010,-0.116990,0.165093,-0.018192,-0.044616,-0.092975,0.200911,-0.086801,-0.221018,0.206777,-0.249510,-0.114692,0.082396,-0.009911,-0.217207,0.035377,0.037274,-0.037975,0.241854,-0.053781,0.070709,-0.387478,0.130256,-0.019401,-0.183010,-0.149496,-0.025757,0.183466,-0.155746,0.082903,0.013923,0.026829,0.001752,-0.002970,-0.093735,-0.085467,-0.176119,0.169115,0.009984,-0.039520,-0.102255,-0.024393,-0.143044,0.012551,0.010854,-0.084513,-0.153832,-0.099123,0.068907,-0.078752,0.277247,-0.064007,-0.332034,-0.362688,0.269282,0.020014,0.238919,0.087643,0.127255,0.214922,0.066602,-0.057006,-0.104266,0.076826,0.036918,0.025960,0.108398,0.052119,-0.130349,0.211285,0.145604,-0.036862,0.122231,0.252533,-0.286021,0.026801,0.194122,-0.002349,-0.098259,-0.014120,-0.018277,0.054252,-0.132206,-0.098263,-0.095754,0.076350,0.146919,0.076499,-0.168438,-0.109077,-0.017562,0.021371,-0.137010,0.231826,0.044335,-0.018291,0.064637,-0.065581,0.111384,0.375574,0.065018,0.094665,0.087273,-0.074798,-0.038960,0.095276,0.207949,-0.036000,0.033641,0.101074,0.197297,-0.034605,0.127213,-0.106823,0.027899,0.244042,0.141394,0.193104,0.016817,0.113883
-0.002038,0.200330,-0.016845,0.088796,0.029412,0.120488,-0.222065,0.110762,-0.209563,0.194481,-0.070095,0.179819,-0.044832,0.078973,-0.095892,-0.020914,0.134461,0.010650,0.155213,-0.106621,0.175779,0.014030,0.085536,0.294487,-0.163850,-0.241648,-0.056882,-0.185307,-0.197054,0.319392,-0.066300,0.214019,-0.027361,0.318990,0.015356,0.079272,-0.099533,0.123271,-0.004196,-0.087217,-0.045955,0.206561,0.147061,0.040320,0.079433,0.248775,-0.063362,0.008985,0.171240,-0.067488,0.078979,-0.010851,-0.089434,0.106620,-0.070517,0.245503,-0.105668,-0.129365,0.001441,0.257984,0.092462,0.001709,0.110995,0.013933,-0.034835,0.164555,-0.203583,-0.135789,0.029261,-0.029502,0.279426,0.191599,0.151827,0.075969,0.174848,0.042870,0.153916,0.232149,-0.075650,0.091122,0.045251,0.087108,0.065461,-0.086983,-0.064888,0.108022,-0.089917,-0.258335,0.027578,0.042630,0.138317,-0.201237,-0.161856,0.159672,-0.055626,0.104595,-0.078579,-0.184475,-0.036342,-0.007241,0.019833,0.078977,0.009385,0.012730,-0.219348,0.085012,-0.129908,-0.001275,0.059565,-0.011196,0.219133,0.278777,0.025217,0.158084,-0.006142,-0.063159,0.094079,0.046669,-0.146681,-0.059939,0.147338,-0.032942,-0.035161,-0.126459,0.240792,0.052825,-0.044566,-0.147909
-0.006803,0.015293,0.013625,-0.131602,0.053788,0.033753,0.144429,-0.069757,0.000080,0.133535,0.209447,-0.340987,0.084412,-0.102481,-0.117389,-0.084130,-0.180304,0.125088,-0.104239,-0.062261,-0.035672,-0.089495,-0.236690,-0.005288,-0.090085,0.056029,0.018141,0.175406,-0.016572,-0.074934,-0.165051,0.152282,0.117941,-0.169873,-0.013647,-0.189449,0.032784,0.101497,0.055439,-0.046629,0.076575,0.000962,0.017707,-0.152481,0.195083,0.064622,-0.099896,-0.067079,-0.003544,-0.025537,0.131136,0.053821,0.105706,-0.188053,0.201036,0.055948,0.165311,-0.043292,-0.059551,0.200561,0.129995,-0.077387,-0.061810,-0.051411,0.045966,0.051290,0.082723,0.083199,-0.221560,0.018090,0.004910,0.049769,-0.053961,-0.014674,-0.160740,-0.160391,-0.039731,-0.106934,-0.020972,0.051153,-0.027077,0.160364,0.282250,0.109807,0.026606,-0.034921,-0.238550,-0.171822,0.041911,0.136281,-0.169684,-0.038585,-0.136761,-0.024845,0.010806,0.024832,-0.102601,-0.158339,0.000221,0.028877,0.094014,-0.092606,0.185211,0.062783,-0.129217,0.086050,0.050787,0.045161,-0.006083,0.075786,-0.104968,-0.009095,0.216757,-0.077048,0.039048,0.054475,0.176444,0.006359,0.098650,0.063762,0.031740,-0.018156,0.063800,-0.146144,-0.253468,-0.121545,-0.094603,-0.185392
0.161278,0.154275,0.004428,0.374462,-0.146159,0.181180,-0.259045,-0.022842,-0.092540,0.178262,0.157615,0.131519,-0.044049,0.047298,0.081164,-0.190303,0.115945,0.052330,-0.023619,-0.055754,-0.103294,-0.153601,-0.075518,-0.033548,0.035968,0.100455,-0.163677,0.007890,-0.103966,-0.115355,0.040328,0.047841,-0.060047,0.162386,-0.049933,-0.207401,0.210801,0.013705,0.057351,0.174928,-0.006198,-0.071241,-0.092055,0.075825,-0.081371,0.014431,-0.143719,0.122158,0.234652,-0.030171,-0.148989,0.047815,-0.024463,0.015269,-0.165242,-0.061088,0.071802,-0.012718,-0.072877,0.096790,0.199607,0.080810,0.189308,0.056887,-0.007477,0.103361,0.015175,0.205057,0.178434,0.143292,0.100717,-0.244742,-0.153162,-0.044692,-0.061220,-0.088185,-0.356064,-0.092354,-0.034628,-0.133612,-0.125672,-0.083849,0.151271,0.069410,-0.058700,-0.226965,0.141839,0.080530,0.046492,0.117837,-0.035754,-0.085659,0.190393,0.063922,0.121902,0.067499,-0.204220,0.152873,0.135534,0.019245,0.179925,-0.058190,0.084501,-0.051291,0.078813,0.052911,-0.039366,-0.066982,0.121826,-0.030939,-0.053430,0.086172,0.136038,-0.072318,-0.015779,-0.037279,0.262150,0.121907,0.155509,0.090117,-0.098569,0.033046,-0.204500,-0.174079,-0.103973,-0.065735,-0.055333,-0.119814
0.058520,-0.367077,-0.202462,0.201252,0.046307,-0.097713,-0.050032,0.185887,-0.066369,0.038309,0.247548,-0.024585,-0.068257,-0.033340,-0.097408,-0.003354,-0.051748,0.025666,0.017208,-0.028559,-0.071767,0.153210,0.178596,-0.205264,0.179413,-0.238124,-0.231475,0.058809,0.049470,-0.143272,-0.019144,0.023586,0.156715,0.046596,0.102809,0.060379,-0.465346,-0.065056,0.175138,-0.042355,-0.000968,-0.005420,0.213265,-0.193265,0.056166,0.022069,0.065958,-0.110123,0.113706,-0.057722,0.043872,-0.175580,-0.218651,-0.009816,0.034227,0.115803,-0.283068,0.150380,0.067389,0.109372,-0.053091,-0.270648,-0.075158,-0.343802,-0.089648,0.009834,0.228712,-0.026937,0.103305,-0.041494,0.071892,-0.038115,0.022631,0.109037,-0.121764,0.004487,-0.145963,-0.026341,-0.114403,-0.009071,-0.064483,0.074653,0.035671,0.120541,0.070278,0.019949,0.032978,0.207914,0.059980,-0.095992,-0.066846,-0.180795,0.053410,0.159595,0.226984,0.201188,-0.010112,0.087040,0.021175,-0.154382,0.114307,-0.146266,0.050598,0.024036,0.028180,0.064855,0.048739,-0.032640,0.085631,0.258958,-0.183216,-0.069670,-0.027868,-0.075311,-0.223613,0.101603,-0.078056,0.088876,-0.101423,-0.152310,0.022992,0.211562,-0.030970,0.031541,0.037976,-0.099973,0.121044,-0.132593
0.064594,-0.035816,-0.067824,-0.092782,-0.025299,0.283623,0.137527,0.253650,-0.035155,0.299291,0.017194,0.120920,-0.098410,0.044804,0.171711,0.055644,0.049468,0.197181,0.059207,-0.085577,0.221693,-0.017191,0.027972,0.206166,0.116678,0.057240,0.024506,0.023461,-0.099061,-0.036264,0.085924,0.073852,-0.345247,0.041934,-0.014047,0.015065,-0.155058,0.209929,0.015709,0.040312,0.012830,-0.114506,-0.035128,0.264935,-0.104563,-0.112172,-0.000310,-0.137026,0.096340,0.028982,-0.113540,-0.095590,0.046842,0.123924,-0.074496,-0.047213,0.089319,-0.113069,-0.013907,0.094958,0.060350,0.154492,0.060160,0.010161,-0.010541,0.225256,0.085965,-0.002620,0.110314,0.081421,-0.231405,0.031296,0.115590,0.082648,0.181402,-0.135893,-0.165785,0.038872,-0.022549,0.180691,0.165292,0.167955,0.025568,-0.043144,-0.042931,0.008171,0.147473,-0.072407,0.100440,0.085024,0.234774,0.025073,-0.073792,0.086809,-0.147061,-0.053140,-0.145631,-0.120842,-0.217031,0.144355,-0.135638,0.170642,0.108563,0.034524,0.090296,-0.010368,-0.086651,0.190896,0.125354,-0.101250,0.287448,0.261917,-0.028001,0.157732,0.309315,-0.060808,-0.204723,-0.040442,-0.107278,0.009097,0.368708,-0.054297,0.293558,-0.160602,-0.051083,0.107162,-0.017256,0.085635
0.171877,0.088211,0.152601,0.259009,-0.004056,-0.100508,-0.084156,0.254745,-0.233912,0.206100,-0.102237,-0.059718,0.017455,0.155622,0.022134,0.228796,-0.015970,-0.028871,-0.178976,-0.002245,-0.112757,0.153358,0.039843,-0.294653,0.224674,-0.028209,0.077617,0.005828,-0.296933,-0.104118,-0.118977,0.241862,0.166545,0.048321,0.348901,-0.006232,0.198451,0.140187,0.019662,-0.014161,-0.039023,-0.002830,0.127476,-0.111386,0.080061,-0.044478,0.014129,0.166563,0.034920,-0.039273,-0.153339,-0.194187,-0.181156,0.111859,0.151379,-0.037136,-0.076313,-0.246376,0.155464,-0.144199,-0.077068,0.293532,-0.017082,-0.028370,0.055779,-0.104871,-0.073872,-0.156224,-0.060032,-0.117348,0.051132,-0.096902,-0.084539,-0.122207,0.009406,0.003999,-0.032498,0.090947,-0.053202,0.016768,0.001001,0.246171,0.033889,-0.093730,0.160854,0.143966,-0.024813,0.173171,-0.069530,-0.150899,0.184574,0.008719,-0.089091,-0.092222,-0.047434,0.108818,0.162352,0.025727,0.122911,-0.018394,0.098985,-0.089254,0.194129,-0.123794,0.157910,0.147373,-0.027317,0.029639,-0.089038,-0.050751,0.073306,-0.210295,0.057116,-0.131265,0.150674,-0.016963,0.062639,0.086454,-0.025784,0.089702,0.262956,0.180773,0.030460,0.104847,0.064323,0.032563,0.054766,-0.016652
-0.027267,-0.306402,0.053327,0.061280,0.052079,0.060324,-0.124326,0.188955,-0.021114,-0.042971,-0.417466,0.095402,-0.204487,0.058545,-0.073815,-0.149796,-0.093089,-0.122827,-0.068654,0.055327,0.032396,-0.069395,-0.060778,0.066081,-0.112362,0.034302,-0.242120,-0.005257,-0.110358,0.081282,-0.152218,0.114500,-0.093695,0.111940,-0.009909,0.034348,0.012328,-0.028267,0.066872,-0.026783,-0.261230,0.082850,0.072799,-0.213940,-0.019643,0.042887,0.004002,0.170528,0.067963,-0.169401,-0.069407,-0.275219,-0.148378,-0.059118,-0.005113,-0.221044,0.072326,-0.081711,-0.014362,-0.032266,0.224215,-0.152914,-0.024417,-0.016526,0.011124,0.008478,-0.116427,-0.193444,-0.060750,0.003462,-0.060658,0.003971,-0.034011,0.237599,-0.069710,0.252287,0.056888,-0.090171,-0.232246,0.059888,0.062193,0.180461,-0.053036,0.085422,-0.053171,-0.113344,-0.261095,0.159021,-0.104936,-0.031086,0.089937,0.140079,-0.010168,0.319867,-0.088960,0.023798,0.120301,-0.001174,-0.238907,0.142658,0.057973,0.085253,0.082275,0.113848,0.257677,-0.129440,-0.128527,-0.068883,-0.009050,-0.039295,-0.245086,-0.055126,-0.014827,-0.003547,-0.122403,-0.124031,-0.097874,0.086589,0.391305,-0.078458,-0.101071,0.196489,-0.133084,-0.068013,0.097309,0.067367,0.004891,0.077024
0.077816,-0.108883,0.093970,-0.053667,0.077259,0.343862,0.130190,0.076893,-0.118602,-0.004694,0.142622,-0.258216,0.040401,-0.295478,0.030616,-0.124279,0.099783,-0.064724,-0.110293,-0.132686,0.073676,-0.113521,-0.068180,-0.104827,0.089547,0.005227,-0.152023,0.135686,-0.293995,-0.079616,-0.095156,-0.102088,-0.326001,0.021565,-0.029030,-0.014656,0.153495,0.127685,-0.064166,0.055779,-0.066334,0.006815,0.227211,0.088997,-0.091680,-0.018581,0.228004,0.005949,0.303537,-0.051592,-0.130526,0.046109,0.140758,-0.027522,-0.047156,-0.064221,0.008260,-0.005118,0.076610,-0.073933,0.021400,-0.196016,-0.231643,0.215571,0.108557,0.095264,0.210240,-0.246581,-0.089307,0.126700,-0.085913,-0.049267,0.029574,0.031398,0.261148,-0.247469,-0.164219,-0.066949,0.033772,-0.006015,-0.083090,0.032760,0.268977,-0.072257,-0.048705,0.175500,-0.116347,-0.017993,-0.024789,0.135915,0.275430,-0.062638,-0.050102,-0.019370,-0.022781,0.176275,0.015583,-0.062967,-0.140690,-0.109900,-0.093328,-0.207633,0.141465,-0.211126,-0.153547,0.165234,0.046304,0.169302,0.204156,-0.159862,0.090696,-0.098525,-0.019575,-0.007448,-0.078344,0.137548,0.121711,-0.067686,-0.014048,-0.002252,0.075865,-0.189116,0.055658,0.020266,0.047046,0.028846,0.088741,-0.128644
-0.081849,-0.061224,0.327642,0.150787,-0.041885,0.221971,0.079872,0.018531,0.039431,0.031290,0.006000,-0.027411,-0.095560,-0.086639,0.044422,-0.072181,0.140072,0.032260,-0.036808,-0.296486,-0.125525,-0.084848,-0.084544,-0.127561,0.001786,0.182050,-0.131935,0.064974,0.021721,0.034823,-0.109557,0.078922,0.155942,0.215061,-0.049950,0.133441,0.085968,0.071622,0.074044,-0.062105,-0.015564,-0.073996,-0.060384,-0.001278,0.096098,0.308634,-0.004943,0.020913,0.062486,0.014145,0.051521,0.049311,0.001647,0.162842,-0.126685,-0.007440,-0.085322,0.057631,-0.068791,0.380914,0.018375,-0.038746,0.062222,0.025183,0.034395,0.174265,0.000276,0.064700,-0.010840,0.131283,0.116396,-0.093126,-0.008441,-0.213087,0.161056,0.128734,0.074602,0.027529,-0.044880,0.172148,0.187695,0.107535,0.189116,0.144693,0.093750,0.121492,0.120591,-0.040648,0.222737,-0.092119,-0.291586,-0.137491,0.121092,0.001987,0.078551,-0.128399,0.172457,-0.044373,-0.098590,-0.011456,0.062573,0.149287,-0.115571,-0.150103,0.011592,0.083329,0.095054,0.225650,-0.022044,-0.012374,-0.078789,0.074568,0.347332,0.040762,0.073659,-0.159047,-0.188436,0.170743,0.105070,0.048423,-0.165255,-0.137589,-0.053801,-0.005150,-0.078129,0.044598,0.056483,-0.000419
-0.162936,0.034485,-0.075601,0.044782,-0.021754,0.042940,0.032295,-0.129936,-0.229467,-0.058480,-0.024569,0.066341,-0.029022,0.087921,0.052687,-0.159995,0.156065,-0.067204,0.084512,0.115115,-0.252076,0.073194,-0.090643,-0.187177,0.007897,-0.018258,0.034621,0.371940,-0.113037,-0.158945,0.029812,0.059680,0.041603,0.048912,-0.142101,0.131632,0.028941,-0.024602,-0.353211,0.072773,0.137829,-0.070277,-0.025305,-0.086045,-0.052965,0.037271,0.105095,-0.016205,0.106324,0.254742,0.048950,0.152801,-0.064774,-0.159927,0.016154,-0.291596,-0.026714,-0.331399,-0.260959,-0.016586,-0.262762,0.117879,-0.057221,-0.116191,0.153552,0.033589,-0.035967,-0.019099,0.069442,0.104399,0.081120,0.078685,-0.131243,-0.149277,-0.033010,0.123935,-0.136315,0.012343,0.031773,-0.259681,0.080030,0.034660,0.009725,-0.157022,-0.103626,0.166046,0.126604,0.228629,0.093407,0.052213,-0.039814,0.075836,0.017250,0.174604,0.166635,-0.228996,-0.180597,0.054136,-0.005347,-0.029035,-0.110150,-0.034342,-0.305880,-0.147982,0.160807,-0.130894,0.341004,-0.185501,-0.190925,0.086991,0.237599,-0.098277,-0.151605,-0.101372,0.013417,0.223720,0.064627,-0.070316,0.019099,0.021286,-0.149457,-0.185134,0.082679,0.066188,0.116812,0.034781,-0.158792,0.170975
-0.027412,-0.079192,0.128443,-0.241402,-0.069935,0.110735,0.160850,0.074517,-0.113238,-0.235814,0.025835,-0.134638,-0.181945,0.015067,-0.012840,-0.009482,0.103891,0.041932,0.138520,0.155602,0.118093,-0.008625,0.129717,-0.064037,0.042389,-0.009029,0.062083,-0.188413,-0.131655,-0.210604,0.112347,-0.044714,-0.309421,-0.105944,0.100587,-0.058985,0.060762,0.190031,0.146547,0.315191,-0.109233,0.075964,-0.063621,-0.029557,-0.022860,-0.016968,0.029771,-0.138392,-0.110335,-0.010882,0.061082,0.015239,0.048238,0.047210,0.143589,0.096351,0.303728,-0.099163,0.154707,0.120793,0.058769,0.146481,-0.044620,-0.184717,-0.020994,0.198012,-0.043858,-0.210511,-0.248939,-0.161321,0.003834,0.004814,-0.038887,0.090316,0.099427,0.049830,0.048427,0.210543,0.235611,-0.033197,0.160993,0.016701,-0.034936,-0.036570,0.055722,0.121026,0.128888,-0.071006,-0.240021,-0.015544,-0.019804,-0.108763,0.059959,-0.008843,-0.108232,0.206019,-0.011416,0.149378,0.027853,0.205181,-0.031596,-0.157438,0.066400,0.041579,0.138332,0.173504,0.038076,0.220191,0.061280,0.060669,-0.035471,0.014790,0.260487,-0.097770,0.178158,0.116388,-0.058290,-0.022955,-0.000702,0.064212,0.143175,-0.111476,0.130263,-0.030591,0.084386,0.104750,-0.119971,0.045748
0.033067,-0.043016,0.007011,0.195249,0.049174,0.056827,-0.029102,-0.179591,-0.068040,0.033671,-0.000132,-0.150514,-0.047978,-0.030941,0.218752,0.017621,0.101396,0.084930,-0.081897,-0.031671,-0.000032,-0.129277,-0.059486,0.055621,-0.277135,-0.062251,-0.018451,-0.196564,-0.082297,0.060303,0.025011,-0.029798,-0.044456,0.016311,-0.113296,0.118500,0.112911,0.114523,0.047484,-0.119913,-0.085330,-0.043560,-0.041696,-0.085533,0.010220,0.130410,0.003302,0.075070,0.104056,-0.102428,-0.032209,0.058250,0.056518,-0.001501,0.030473,-0.150849,0.085961,0.115933,-0.042453,-0.053599,0.057729,-0.040390,-0.166444,0.012982,-0.107966,0.006934,0.061363,0.178288,0.095370,0.012327,-0.105423,-0.022248,0.143823,-0.140992,0.112721,-0.011681,0.091200,0.028398,0.008521,0.326420,-0.005888,-0.142645,0.067759,-0.003410,-0.088825,-0.040985,0.010707,0.011456,-0.069877,0.113900,0.166676,-0.213773,-0.008531,-0.073368,-0.005471,-0.075151,-0.322489,0.285528,-0.115346,0.044165,0.096151,-0.059381,0.167434,-0.259130,-0.042278,0.061938,-0.150631,0.149188,-0.025087,0.031518,-0.071669,-0.107484,-0.018416,-0.042339,0.157763,0.072410,-0.078474,0.139374,0.144078,-0.195264,-0.072415,0.062000,0.007815,-0.071288,0.137874,-0.218651,0.155659,0.067190
0.092265,-0.167795,-0.151584,0.109937,0.075389,0.127518,0.025886,0.128716,-0.154542,-0.082404,-0.134204,-0.186596,-0.041439,0.206600,0.045846,0.124673,0.147118,0.104570,-0.099645,-0.131469,-0.093123,-0.125915,-0.006532,-0.051105,-0.077935,0.126475,0.180170,0.028645,0.128066,0.129242,-0.071522,-0.249492,-0.007094,0.090016,-0.003884,-0.034290,-0.196773,-0.014978,0.025447,0.089844,0.000116,-0.075598,0.099650,-0.063514,-0.035339,0.184032,-0.078852,-0.204971,-0.147077,0.054902,-0.099231,-0.145224,0.004616,-0.082602,-0.048311,-0.098217,-0.045551,-0.091022,-0.048271,0.028478,-0.148949,-0.047767,0.010433,0.040892,-0.052837,-0.052623,-0.425563,-0.089465,-0.057405,0.018255,0.158734,-0.194458,-0.100608,-0.007410,-0.088550,-0.085689,0.110036,0.104083,-0.128961,-0.143134,-0.066251,0.077895,-0.090251,-0.108941,0.056675,-0.179426,-0.025167,0.164870,0.002782,0.066743,-0.063480,0.014115,-0.046491,-0.080532,0.208250,0.011690,0.023978,-0.151119,-0.090068,-0.145791,0.008920,-0.088322,-0.221490,-0.079325,0.154186,-0.071013,0.134011,0.044781,-0.262168,0.084734,0.037474,-0.101378,-0.074164,-0.024559,-0.144411,-0.098275,0.125303,0.283549,-0.013841,0.091455,-0.116485,-0.013182,-0.077936,0.113247,-0.017149,0.004554,0.130256,-0.245591
-0.191757,0.009950,0.033519,-0.060440,-0.205732,-0.104188,0.123897,-0.109416,0.048157,-0.142656,-0.072387,0.252816,-0.272891,0.027211,0.121277,0.072336,0.085685,-0.156383,0.021181,0.105803,-0.001365,0.090756,0.089810,-0.047288,0.173571,0.013550,-0.105921,-0.000952,-0.189833,0.009221,0.011872,-0.001410,0.117681,-0.012307,-0.105212,-0.108272,0.175595,-0.010346,-0.046808,0.107221,-0.169431,-0.015212,-0.297483,-0.039862,0.071550,-0.044652,-0.197360,0.031322,-0.114354,0.065247,-0.018346,-0.168122,-0.026871,-0.064856,0.082262,0.130400,-0.117302,0.059118,-0.126828,0.003574,-0.194173,-0.049911,0.262202,0.208593,-0.151883,0.109148,-0.197677,-0.171125,0.084277,-0.077795,-0.055578,-0.065398,-0.103729,-0.053961,0.110803,0.020941,0.014493,-0.107438,-0.061672,0.145022,0.208317,0.049771,-0.144057,0.063969,0.032891,-0.015022,0.000085,-0.146107,0.209572,0.014205,-0.132692,-0.023610,-0.188466,-0.053182,-0.025184,0.100115,-0.032272,0.209101,0.011638,-0.102645,0.070378,-0.037349,0.227836,0.021524,0.078424,-0.106810,-0.004689,0.031297,-0.112843,-0.227218,-0.044565,0.169546,0.290302,-0.172471,0.012610,-0.021425,-0.079446,0.046177,0.089772,-0.090752,-0.179970,0.017443,0.085478,0.069070,-0.010636,0.024733,-0.196111,-0.232774
0.105813,0.019714,0.035234,-0.013371,0.098717,-0.050426,-0.021925,-0.070267,0.038411,0.046590,0.001922,-0.036418,0.089457,0.068157,-0.115526,-0.092235,0.140603,0.013078,0.064021,-0.009875,0.096845,0.099566,-0.074278,-0.112263,-0.019319,0.133044,-0.099511,0.113195,0.008415,-0.024942,0.103301,0.051604,0.310942,0.019134,-0.124778,-0.241378,0.085722,0.059654,-0.100949,-0.390894,0.039568,-0.108444,-0.195030,-0.184812,0.106459,0.163080,0.061814,0.179599,-0.096680,-0.008293,-0.135455,0.038136,-0.165934,0.064196,-0.053536,-0.094748,0.083491,-0.272363,0.118553,-0.064951,0.028589,-0.248325,0.163412,-0.211371,-0.025341,-0.088476,-0.097674,0.087619,-0.059784,-0.141843,-0.031473,0.105856,-0.107674,0.056298,0.079474,0.221681,-0.057731,0.076128,-0.208154,0.119577,-0.272835,0.017867,0.077030,-0.055703,-0.333940,0.065225,-0.070957,-0.137937,-0.029854,-0.026513,-0.030406,-0.081655,0.056791,0.169229,-0.035188,-0.007251,-0.052222,0.239814,0.134201,0.007936,-0.182099,-0.005641,0.040582,0.205331,-0.116213,0.073096,0.092088,0.090399,-0.018131,0.060431,0.046273,-0.101996,-0.165981,0.309057,-0.068776,-0.002257,-0.034840,0.079368,-0.114439,0.012112,-0.089687,-0.221046,-0.211453,0.246604,-0.063531,-0.025383,0.023533,0.191629
-0.007295,-0.001752,-0.125780,-0.001337,0.196991,0.106232,0.048869,-0.109717,-0.210121,0.109333,0.194176,0.139757,-0.257774,-0.069044,-0.179572,0.055857,0.111557,-0.147475,-0.069362,-0.106644,0.187952,-0.128600,-0.147204,0.066389,0.033458,0.061969,-0.162464,-0.070025,0.423978,-0.102324,-0.197794,-0.121822,0.062735,0.248100,0.037250,0.115643,-0.215914,-0.112509,-0.014041,0.070506,0.054607,-0.054481,-0.101901,-0.246876,0.022416,0.068327,0.057815,-0.067402,-0.274230,0.104495,0.012689,-0.131397,-0.034759,0.016212,-0.069506,0.045471,0.181537,0.016192,0.023817,-0.062291,-0.072935,0.153183,0.205031,0.127960,-0.053782,0.099790,-0.219738,0.005307,0.149814,0.179444,0.273210,0.099015,0.106136,-0.035017,-0.043057,-0.013396,-0.107859,-0.215554,-0.163364,-0.091266,-0.329957,0.223893,0.099343,0.131581,0.317416,0.077460,0.047923,-0.081205,0.057481,0.152270,-0.035709,0.168890,-0.077877,0.158895,0.123416,0.009109,0.275868,0.040992,-0.111047,-0.021915,-0.012304,0.049571,0.013591,0.018437,-0.064055,0.052679,-0.193812,0.078660,0.290721,-0.092861,-0.030228,0.444988,-0.248928,0.213741,0.057243,-0.060521,0.052594,-0.030758,-0.087121,0.052242,0.112936,0.111023,-0.140510,0.033641,0.009528,-0.174182,0.213127,0.225887
-0.011670,0.079159,0.054506,0.033485,0.031696,-0.125609,-0.123843,0.050235,-0.243534,-0.077792,0.079851,0.050907,0.201088,-0.074004,0.141054,0.035510,0.147146,-0.157044,0.073268,-0.099019,-0.164788,-0.146727,0.137742,0.149157,0.180462,-0.003770,0.068511,-0.089004,0.007571,0.217371,-0.016355,0.014615,0.140513,0.049395,-0.163129,-0.035286,-0.088898,-0.058393,0.035724,-0.003599,-0.086127,-0.082255,0.115916,-0.095560,-0.273162,0.044711,0.040481,-0.125326,0.107629,0.043220,-0.203228,0.162141,-0.071914,-0.281682,0.067163,0.066016,0.024551,0.058649,-0.026166,-0.235000,-0.032153,0.226832,0.019344,-0.059586,-0.100784,-0.103245,0.002211,0.191252,-0.084214,-0.071636,-0.135578,0.066849,-0.202228,0.049851,0.042420,-0.168779,0.032429,-0.037731,-0.039029,-0.074656,0.111011,0.043966,0.079467,-0.091141,-0.009501,-0.026737,0.004962,0.035771,0.164301,-0.140025,-0.239784,-0.026449,0.152406,-0.009609,-0.151922,0.028645,0.169684,0.152542,-0.107017,-0.241515,-0.020162,-0.235633,0.154074,0.183934,0.187456,-0.028567,-0.157341,0.033939,-0.074732,0.221225,-0.146350,0.034751,-0.074825,-0.152147,-0.113825,-0.084735,-0.111425,0.014084,-0.079583,0.112464,-0.111028,0.089243,-0.085069,-0.138908,0.040185,0.023349,-0.035692,0.126219
0.038764,0.090581,-0.080455,0.283163,0.101206,-0.059116,-0.039171,0.093181,-0.039546,-0.008789,0.181433,-0.091964,-0.128191,0.055999,-0.058307,-0.037033,0.067050,-0.069582,-0.001208,-0.094230,-0.101095,0.152561,0.006222,-0.083452,-0.085737,0.192099,-0.023690,-0.049077,-0.083655,0.067894,-0.089651,0.024653,-0.167066,0.041916,-0.044709,-0.008578,-0.097125,-0.092504,-0.054158,0.063983,-0.081988,0.280893,0.004488,0.036017,-0.140377,-0.050398,0.004646,0.078044,-0.135724,-0.212878,0.032628,0.010730,-0.005298,0.002507,0.047438,-0.060049,-0.190113,0.062471,0.140833,0.157399,0.126659,0.070865,-0.191792,-0.029983,-0.208963,-0.010342,0.112126,0.101018,0.098747,-0.158502,0.010798,-0.145422,0.054644,-0.068977,-0.072686,-0.026038,-0.057663,0.120669,0.023768,0.113584,0.040752,-0.109692,0.325136,-0.041897,0.101298,-0.079225,0.147685,0.082536,0.148111,-0.184490,0.111985,0.000629,0.099282,0.176757,0.182487,0.090062,0.154007,-0.017470,-0.239752,0.140934,0.119578,0.081113,0.004856,-0.029666,-0.023037,-0.063645,0.050844,0.078232,-0.266705,-0.045221,-0.137209,-0.242950,-0.160618,0.025639,-0.164643,0.031854,0.017838,0.179158,-0.137269,0.015099,-0.170668,0.046847,0.083220,-0.139146,-0.125269,0.096849,-0.059376,-0.096813
0.091059,-0.073911,-0.073109,-0.145861,-0.308396,0.170221,0.094152,-0.104901,-0.026734,-0.026273,0.167215,-0.031709,-0.019797,-0.132385,0.144160,0.301878,0.090602,-0.113312,-0.079465,-0.081354,-0.125653,-0.101931,0.260592,-0.078272,-0.087756,-0.079486,-0.016661,0.135597,-0.100346,-0.085382,0.069829,-0.062934,-0.027092,-0.001482,-0.074016,0.124590,0.042186,0.086779,-0.230493,-0.047849,-0.142597,-0.165863,-0.154066,-0.087413,-0.008536,-0.031789,-0.165509,0.106185,0.058480,-0.043149,0.087373,0.155317,-0.073233,-0.093382,-0.071594,0.124208,0.067275,-0.065935,-0.028013,0.039342,0.029993,-0.051142,-0.110185,-0.057365,0.136142,-0.076082,0.034729,-0.101139,0.032004,-0.065733,0.073879,-0.109025,-0.316981,0.005881,-0.081726,-0.008634,-0.137109,0.073207,0.136065,0.178652,-0.097412,-0.052576,0.144686,0.272938,0.130463,0.131432,0.087628,0.020428,0.125967,0.013454,0.123568,-0.030151,-0.088531,-0.152899,-0.042402,-0.062081,-0.195791,-0.158410,-0.069172,-0.140141,0.084078,-0.031479,0.257821,-0.243567,-0.030287,0.096871,0.016365,0.081760,-0.136707,0.026528,0.047956,0.163635,0.016879,-0.134618,0.223302,0.176970,-0.182975,-0.010700,0.015264,0.039095,-0.194169,-0.083780,-0.041766,0.105920,0.057374,0.006199,0.121820,-0.180335
0.035976,-0.097225,0.069043,-0.127805,-0.135663,0.045585,-0.187031,-0.025002,0.017111,-0.130188,-0.113881,-0.059674,0.055243,-0.246865,0.002843,0.046712,-0.115110,0.105509,0.084504,0.204890,0.024518,-0.149319,-0.189689,-0.106839,0.063605,0.014077,-0.208683,0.019823,-0.082674,-0.120193,0.096943,-0.090401,-0.101671,0.026471,-0.035077,0.036174,0.019547,0.028937,0.046056,0.022394,-0.062621,-0.085892,0.004693,-0.059744,-0.032981,-0.172400,0.301467,-0.105406,-0.020890,-0.072641,-0.024929,0.090183,0.065799,0.064687,0.026531,0.114288,-0.075596,0.111442,0.077859,0.004483,-0.082701,-0.060060,0.009212,-0.001185,-0.097878,0.085781,0.007958,-0.045413,0.138437,-0.024957,0.083682,0.103058,-0.069631,0.207281,0.201783,0.082936,-0.136716,-0.122812,-0.006636,-0.029218,-0.306616,-0.116279,0.118755,-0.006588,0.041266,-0.037494,0.048962,-0.007528,0.288292,-0.191014,-0.013416,0.145778,0.159978,-0.299179,0.043109,-0.286456,0.136355,0.125494,-0.103063,-0.052010,0.013382,-0.053943,-0.021788,-0.161069,-0.313275,0.048606,0.180544,0.042743,0.033320,-0.005410,-0.010609,0.043158,0.007762,0.146071,-0.056167,-0.062840,-0.099351,-0.049693,-0.227818,0.002846,0.107804,0.058817,-0.022480,-0.024023,-0.157073,-0.001199,-0.038836,0.024081
0.009014,0.139205,0.033894,0.084722,0.072646,0.023385,-0.190226,-0.148435,-0.045404,-0.091522,-0.109803,0.131405,0.081445,-0.029175,-0.060475,0.184473,0.158053,0.078450,0.134066,-0.086306,-0.122771,-0.260916,-0.112982,0.133786,-0.148699,-0.071443,0.101513,-0.273978,-0.038773,0.034426,0.128929,-0.114399,-0.146977,0.015670,0.069215,0.137529,0.151261,0.075600,-0.067537,-0.014192,0.004715,-0.143271,-0.108562,-0.062007,-0.059876,0.084102,0.014684,-0.179675,0.041964,-0.131391,-0.098498,0.036964,-0.088346,-0.034313,-0.073476,0.260049,0.068438,0.185030,-0.106603,0.057478,-0.032671,0.258775,-0.201790,0.316461,-0.012405,-0.066725,-0.091735,0.204155,0.015956,0.002468,-0.005138,-0.136231,-0.184484,-0.039156,-0.076503,-0.125137,-0.069118,-0.042111,0.151814,0.236675,-0.150770,0.129229,0.104521,0.068815,-0.020612,0.081908,0.059798,0.031370,-0.123683,-0.063004,0.050673,0.006367,0.240323,0.111437,0.018486,0.018156,-0.143872,0.067293,0.213028,-0.103316,0.038484,-0.078265,-0.209834,-0.015153,0.175756,-0.054492,-0.131320,0.104788,-0.039763,0.033970,0.044073,-0.190684,0.022792,0.018804,-0.148310,-0.034670,-0.026005,-0.093312,-0.097784,0.015974,0.013393,-0.022996,-0.049626,0.075213,0.063199,-0.089557,0.022450,0.228241
0.057875,-0.084772,0.240813,0.026365,-0.033286,0.138803,0.018868,0.031718,-0.087887,0.043209,0.074882,0.113628,-0.036229,-0.209787,-0.081775,0.038973,-0.174655,-0.193303,0.067726,-0.033532,-0.183489,0.012890,0.026056,-0.064834,-0.069289,0.269637,-0.069453,0.162616,-0.033656,0.226527,-0.042966,0.016111,0.011062,0.143600,0.115174,0.019874,0.067147,-0.111169,0.135776,-0.078390,-0.014414,0.042226,0.057124,0.013813,-0.049424,0.033900,-0.068462,0.117987,0.087464,-0.046035,-0.147141,-0.082198,0.330608,0.048343,-0.151386,0.069729,0.392555,0.001806,-0.003604,0.215760,0.052691,-0.207264,0.237082,0.130546,-0.038153,-0.079948,-0.004764,0.197485,0.238926,0.271070,-0.005736,-0.078695,0.046866,-0.045138,0.035325,0.113002,0.058783,0.054598,0.330284,-0.005329,-0.049766,0.180063,0.172187,-0.003633,0.174267,-0.247213,-0.135714,-0.090899,0.157287,-0.025304,-0.041890,-0.075726,0.167601,-0.177337,-0.073121,-0.108098,-0.192365,0.033256,-0.099889,0.047893,-0.319338,-0.219009,-0.108473,-0.070314,-0.046112,0.115179,-0.000704,-0.123632,-0.183232,0.044623,-0.022277,-0.072609,-0.117814,-0.268241,0.173840,-0.025913,0.168889,-0.023550,0.044445,-0.011362,0.157900,0.078481,0.155785,0.162248,0.005043,0.019178,-0.037424,-0.375264
0.014414,0.105779,0.094314,0.018973,0.120886,-0.020668,0.021457,0.138034,-0.134665,0.232629,0.137781,0.037331,-0.275553,-0.205428,-0.014439,-0.020209,0.249659,-0.128673,0.082187,-0.004867,0.053185,-0.019692,0.031357,0.182929,0.037930,-0.131120,0.056019,0.262560,0.106515,0.063250,-0.004804,0.254157,0.005891,0.110234,0.144073,0.013149,0.191385,0.177700,0.009767,-0.018167,-0.106805,-0.116341,0.015692,0.207885,0.094514,0.143137,-0.006077,0.029883,-0.026894,-0.079037,0.186705,-0.084576,0.059449,0.039098,0.165025,0.057021,0.310250,-0.167929,-0.044177,0.061305,0.044956,-0.160136,-0.040329,-0.086202,-0.007931,0.033983,0.165254,0.000380,0.014830,0.179005,0.071886,-0.017901,0.011473,0.001360,0.187633,0.033189,0.099905,0.006303,0.008477,-0.071910,-0.020199,0.049506,-0.232817,-0.079327,0.224665,0.042887,0.004610,-0.076937,-0.160962,0.001434,-0.029343,-0.157145,-0.105759,0.182887,-0.042788,0.060722,0.003820,0.046440,-0.097554,0.103137,0.011683,0.171418,-0.120731,0.421165,-0.047301,0.023519,0.209304,0.075041,0.110824,-0.138576,-0.015773,0.031249,0.046457,0.138352,-0.169754,-0.145403,-0.144630,-0.149545,0.054588,-0.016915,0.010613,-0.046144,0.203478,-0.157203,-0.095441,-0.041878,-0.040659,0.074015
-0.031353,-0.056805,0.057046,-0.091583,-0.067373,0.051155,0.121282,0.050596,0.119231,0.397230,0.146946,0.167121,0.040498,0.017990,0.124058,-0.072243,-0.076081,0.137740,-0.055450,-0.245373,0.233142,0.041806,-0.029260,0.230240,0.019721,0.180198,0.231113,-0.145592,0.235327,0.130239,-0.068941,0.008884,-0.192026,-0.114315,-0.350032,0.090291,-0.024458,0.202181,0.123979,-0.128051,-0.100946,-0.057348,-0.123977,-0.007691,-0.075515,-0.001626,0.077165,-0.047470,-0.067287,0.063699,0.281683,0.149253,-0.095866,-0.006776,-0.130095,-0.124905,0.053370,0.095380,-0.145728,0.126800,-0.059010,0.090476,0.112099,-0.240743,0.301557,0.023286,-0.010575,0.043154,0.120680,0.215049,-0.070924,0.128650,0.128417,-0.122531,0.115554,-0.124786,-0.167238,0.030513,-0.112922,0.046261,-0.065973,0.146672,-0.037258,0.173536,-0.122162,0.073724,0.001970,-0.047965,-0.108351,-0.128633,0.024910,0.169446,-0.106565,-0.062632,-0.025085,-0.065490,0.008129,0.108360,-0.053023,-0.091340,0.065295,-0.059012,-0.110552,0.122250,0.013845,-0.307423,-0.076747,0.310825,0.216364,-0.034339,-0.019212,0.131454,-0.017947,0.063580,0.266397,-0.055542,0.066071,-0.087666,0.138522,-0.099648,0.053538,-0.149263,-0.304836,-0.055807,-0.070378,-0.008019,0.212626,0.090385
0.199743,0.044183,0.083548,-0.152275,-0.017683,0.027839,-0.180209,0.185187,0.060188,0.023169,0.028307,-0.083272,0.015606,-0.000286,-0.085861,0.178697,-0.118393,-0.193997,0.049210,0.011887,-0.309751,-0.033280,-0.060324,0.078522,-0.112558,0.074178,0.035711,0.063536,0.024581,0.193088,-0.097316,-0.108577,0.156719,-0.008823,0.056104,0.179374,0.123543,-0.010686,-0.145122,0.065757,-0.057811,-0.188022,0.161013,0.080213,-0.125476,0.178773,-0.038376,0.107054,0.070427,0.105058,-0.025114,0.026476,0.082019,-0.010362,0.131445,0.062809,-0.009857,-0.071766,-0.109771,0.016129,0.270637,-0.146706,-0.017405,0.091165,0.327432,0.014688,0.007786,-0.057607,0.277578,-0.033800,0.104458,-0.112545,0.088587,-0.062172,-0.223825,-0.061475,-0.078020,0.041283,0.039891,0.064727,-0.251232,0.050724,-0.031921,0.031223,-0.057092,0.038862,-0.008675,0.104212,-0.147151,-0.215451,-0.093431,-0.037629,0.027923,0.056479,0.049363,0.202001,0.047020,0.123605,-0.021954,0.122848,-0.072486,0.135977,0.072631,-0.000405,-0.200245,-0.171577,-0.226717,-0.137389,-0.109155,-0.091491,-0.015350,0.138013,0.019174,0.060463,0.160926,0.233461,0.002443,-0.147945,0.093733,0.105694,-0.138347,0.154702,-0.097097,-0.142248,-0.088985,-0.051587,0.017005,0.077662
-0.026315,0.045629,0.016076,-0.030445,-0.102792,-0.003436,-0.003260,0.029100,-0.166983,-0.051437,0.157594,-0.132016,-0.074201,0.025911,0.178512,0.108214,0.005721,0.027563,0.050294,-0.182747,0.109361,0.307687,-0.010976,0.001486,-0.026803,-0.055860,-0.146998,0.220283,-0.049758,-0.008778,-0.001660,-0.113497,0.186795,-0.024365,-0.070446,-0.146269,-0.175462,0.068902,-0.133939,0.043546,0.093350,0.053653,-0.107673,0.044409,0.053987,0.185475,-0.203803,-0.038798,-0.201477,0.224199,-0.008550,0.250183,-0.245117,0.038009,0.077608,-0.005438,-0.041021,-0.018457,0.017000,-0.209738,0.009921,-0.155664,-0.064796,0.117360,0.017435,0.002338,-0.011728,0.043684,-0.058707,0.121589,0.068832,-0.067960,-0.146258,0.048266,0.035720,-0.061263,-0.070013,-0.260148,0.006363,-0.036653,-0.067983,-0.119163,0.009797,-0.062659,-0.028221,0.212516,0.153028,-0.099163,-0.269426,-0.017234,-0.095681,-0.131582,0.016665,-0.005838,0.054087,0.062179,0.063111,-0.041457,-0.123053,-0.133480,-0.116678,-0.100331,0.240158,-0.027275,-0.194122,-0.064370,-0.016021,-0.051829,0.145678,0.041584,-0.110233,-0.056721,-0.110596,0.091368,-0.225206,-0.092374,-0.034295,-0.328319,0.130555,-0.097673,-0.038509,-0.025496,-0.024695,0.000368,-0.172435,0.122442,0.225201,-0.114175
0.054353,-0.190713,0.146558,0.026338,-0.074959,0.108517,-0.049240,0.216289,0.096922,0.124503,0.035617,-0.161878,-0.040023,-0.067804,0.236206,-0.118681,-0.014417,0.073776,0.141731,0.048955,0.130496,-0.027968,0.320473,0.040391,-0.227273,0.092116,0.094986,0.000999,0.121503,0.009772,0.074142,0.181932,0.105641,0.055383,0.005181,-0.099740,-0.149018,0.091798,-0.146457,-0.087287,-0.090979,0.079565,-0.065452,-0.061225,-0.013592,0.115574,0.044287,-0.034703,-0.207805,0.001750,-0.009968,-0.028482,-0.118490,0.142058,-0.115546,-0.085084,-0.029569,0.052262,-0.093517,-0.089737,-0.207870,0.109912,0.074893,-0.009644,0.001689,0.049258,0.218456,-0.048672,0.152430,0.162638,0.032359,-0.089642,-0.057567,-0.167004,0.105259,-0.059774,-0.066666,0.274810,-0.022351,0.054487,0.159784,-0.105355,-0.127112,-0.158652,0.044734,-0.001074,0.087599,0.204530,0.046876,0.073670,-0.367295,0.060733,-0.025660,0.270314,0.118676,-0.110847,0.026265,-0.096272,-0.088660,0.281863,-0.129313,-0.128288,-0.198638,0.040802,-0.171981,0.235351,-0.098656,0.278026,0.045795,-0.174296,0.041008,-0.144358,-0.005536,0.151615,-0.061969,0.012379,-0.149096,0.023705,-0.127794,0.039952,0.062494,-0.143668,-0.051425,0.043315,0.012741,0.098781,0.004719,0.072496
0.073573,0.132636,0.252859,-0.168364,-0.186879,-0.045339,0.092501,-0.084901,0.095720,-0.143037,-0.016363,-0.064278,-0.153021,0.085460,-0.116498,-0.085811,0.047948,0.016204,0.076662,-0.051933,-0.033705,-0.111759,-0.092865,-0.086144,0.191237,0.076586,-0.277030,-0.112249,-0.126734,-0.006166,0.113851,-0.139363,0.054486,-0.176009,-0.157579,0.015530,-0.035486,-0.025653,-0.102671,0.196452,0.029277,-0.155991,0.000608,0.078952,0.140187,-0.013639,0.104856,-0.066085,0.074483,0.058043,0.016996,0.079201,0.072322,-0.219465,-0.104459,-0.083071,-0.074626,-0.107833,-0.057643,-0.090157,-0.115252,0.003389,-0.059842,-0.120433,0.336880,0.187354,-0.078951,-0.199809,-0.124226,-0.099120,-0.044547,0.031749,-0.177544,-0.040873,0.129978,0.125378,-0.254305,0.088847,0.211893,-0.002960,-0.065769,-0.172855,-0.131441,0.089397,0.082369,0.008377,0.039606,0.133910,-0.061514,-0.063832,0.122557,0.322972,-0.102495,0.155936,0.078367,-0.237746,0.007748,-0.025033,0.121803,0.113999,0.178622,0.088542,-0.057586,0.168855,0.014471,-0.181308,0.189521,0.067193,-0.010382,0.183092,-0.102869,-0.082296,-0.007146,0.008981,-0.162860,-0.058700,0.031251,-0.216167,-0.055975,-0.017902,-0.020319,0.129503,-0.264932,-0.155509,0.032083,0.133056,0.273200,-0.159268
-0.079721,0.047687,-0.002155,-0.155810,-0.044150,-0.178770,-0.122732,-0.107676,0.011209,-0.005817,0.017855,0.103497,-0.051827,0.007790,-0.000987,-0.080299,0.170078,0.025596,0.183128,0.151525,-0.019207,0.257220,-0.062273,0.011226,0.137957,-0.089964,0.034179,0.063015,-0.106553,0.261649,0.059606,-0.023829,0.113572,-0.005061,-0.155328,0.084798,-0.029333,0.017167,-0.234327,-0.011375,-0.001769,0.032926,-0.086771,0.062029,0.259534,-0.143744,-0.005874,-0.076499,0.132125,0.029344,0.159148,-0.075158,-0.057973,0.064057,-0.156155,-0.115355,0.019086,-0.006708,-0.118237,0.054886,-0.077286,0.129666,-0.072214,0.045005,0.104453,0.030746,0.143620,0.019438,0.087431,-0.245861,-0.000627,0.192135,0.034108,0.181139,0.031034,-0.004681,0.198548,-0.031520,-0.233964,-0.171288,0.134782,-0.012862,-0.236286,-0.026004,-0.077648,-0.096527,-0.045656,-0.031515,0.127335,0.049486,0.158206,0.145309,-0.074466,-0.143866,0.016151,-0.086239,-0.003463,-0.317357,-0.318516,-0.036031,0.032898,-0.212804,0.177468,0.047285,-0.148497,0.025979,-0.154672,0.082184,-0.220050,0.192075,0.056280,-0.013685,0.120661,-0.009827,-0.140406,-0.040506,-0.166107,-0.263621,-0.114359,0.001821,-0.117414,0.012910,0.148895,-0.010466,0.101031,-0.097245,-0.028682,-0.278972
0.034901,-0.321443,-0.020825,-0.088235,-0.235469,0.088643,-0.046663,-0.074426,-0.059145,-0.151659,-0.005698,-0.050597,0.036076,-0.129508,-0.007538,-0.349465,0.040063,-0.108476,0.010807,-0.094909,-0.155196,-0.013993,-0.148387,-0.112827,0.019559,0.041642,-0.195145,-0.032285,-0.088497,0.018190,-0.101434,-0.135999,-0.020534,0.090187,-0.029407,0.222714,-0.066601,0.018961,0.116049,0.084004,-0.051778,0.072147,0.041356,0.055347,-0.038635,-0.199673,-0.098804,0.235033,0.237983,-0.315916,-0.312745,0.031129,0.084343,-0.086360,-0.056069,-0.008347,-0.065288,-0.071291,0.096051,-0.093310,-0.012578,-0.247244,0.030890,-0.082505,-0.063791,-0.186097,0.055712,0.171337,0.020975,0.121302,0.064620,-0.121173,0.009451,-0.289229,0.041240,-0.042830,-0.042360,0.045975,-0.089214,0.070526,0.137323,0.020148,-0.086234,0.026817,0.049192,0.086522,-0.065320,-0.100180,-0.075796,0.131600,0.062557,-0.114017,0.044887,0.152667,-0.006670,0.027156,-0.005584,-0.019968,0.004527,0.054846,0.358292,0.123110,0.068775,-0.059478,0.061720,0.066028,-0.016118,0.117839,-0.002436,-0.106862,-0.123806,-0.075768,0.094688,0.106825,-0.102162,0.072037,0.093877,-0.257017,-0.001196,-0.144993,-0.119327,0.118371,0.082328,0.187783,-0.146530,-0.000319,-0.030986,-0.010904
-0.027966,0.071582,-0.057805,-0.020531,-0.049757,-0.089218,-0.043437,0.088170,-0.049681,-0.016398,-0.114524,0.299869,0.082388,0.293295,-0.033650,0.025163,0.127468,0.049346,-0.064454,0.035623,0.013543,-0.035852,0.046131,-0.069465,-0.166441,-0.021607,-0.071974,-0.144464,0.120428,0.107146,0.065391,-0.036227,-0.106467,0.096460,0.009255,-0.137613,-0.183167,-0.030465,-0.201995,0.053404,0.216890,-0.043538,0.160186,0.147016,-0.099972,0.012704,0.117524,-0.040991,0.071758,0.068751,-0.025537,0.029081,0.112671,-0.114958,-0.049706,-0.015596,-0.034852,0.136738,-0.138955,-0.062211,0.149917,-0.115379,-0.076387,-0.022236,-0.003503,0.004862,-0.155675,0.159337,-0.291573,-0.017847,0.038291,0.024078,0.083041,-0.068832,-0.062954,-0.111144,-0.121402,-0.090263,0.258181,0.077414,0.019355,0.093097,0.133318,0.130062,-0.113596,-0.239228,-0.036929,0.281940,-0.034797,0.138262,-0.155919,-0.049298,-0.019644,-0.150674,0.048326,-0.148042,0.028270,-0.075843,-0.125666,0.016034,0.200953,0.036077,0.031022,-0.124392,-0.029844,0.135703,-0.159659,-0.170787,-0.179224,0.290998,0.084390,0.118300,-0.049878,-0.183765,0.069796,0.009922,-0.030594,-0.095940,0.059631,-0.018530,0.057860,0.057537,-0.088133,-0.100076,-0.080130,-0.096357,0.083755,-0.047381
-0.127759,-0.215789,-0.149572,0.026742,-0.171644,0.230181,-0.008223,0.213681,0.002063,0.260015,0.128635,0.230449,0.005335,-0.012852,0.093039,0.128834,0.301119,-0.164250,-0.045456,0.082213,0.219797,-0.172568,0.095501,0.035566,0.218882,0.185624,0.035316,0.067102,0.168030,0.085890,0.169896,0.120147,0.040990,0.365005,0.233277,0.157340,-0.049007,0.266926,-0.005196,-0.310675,-0.014543,0.152925,-0.077657,-0.043687,0.164112,0.133204,-0.031472,-0.133242,-0.079795,-0.051211,0.303244,-0.062766,0.081211,-0.011630,-0.112300,-0.279200,-0.130972,-0.152595,0.144189,0.338726,0.178818,-0.181244,0.119905,-0.051107,0.108610,0.069316,0.313922,-0.118056,0.061172,0.072716,0.239826,-0.071797,0.352349,-0.008706,0.059791,0.238375,0.200962,0.128037,0.095254,0.241641,0.164583,0.049804,-0.137319,0.145973,0.382731,0.109625,-0.017030,0.142227,-0.123769,0.112704,0.270292,0.266379,-0.050097,0.036269,0.238148,0.201361,0.240466,-0.140522,-0.024005,-0.087167,-0.196233,0.214583,0.178256,0.242127,-0.342626,0.218643,-0.263252,0.309653,0.405472,0.118515,0.259158,-0.091348,0.219588,-0.113754,0.114128,-0.133139,-0.038809,-0.181633,-0.164413,-0.017827,0.129854,0.273146,0.057455,0.038945,0.083438,-0.034610,0.091326,0.231041
-0.027541,0.120177,0.025631,0.161760,-0.090829,0.082365,-0.147076,-0.141210,0.041338,-0.043080,0.022267,0.022839,-0.113463,-0.051683,-0.161488,-0.064483,-0.256076,0.036050,0.106672,-0.125458,-0.115362,-0.065104,0.060128,-0.073366,0.103611,-0.154527,0.096431,0.010827,0.025867,-0.093592,-0.054687,0.162901,-0.097297,0.115180,-0.049410,-0.011718,0.019746,-0.043600,0.164431,0.027046,0.074384,-0.012299,-0.073532,0.002327,-0.070349,-0.134932,0.101257,0.205082,-0.062380,0.098484,-0.141174,0.076845,-0.073251,0.013164,-0.110965,-0.243568,-0.031834,-0.020477,-0.085027,0.037282,-0.171812,-0.047366,0.326555,-0.081209,0.100240,-0.304615,0.048711,-0.026033,-0.044321,0.015768,-0.119979,0.081088,0.022739,-0.016914,0.099029,0.040097,-0.161854,0.192896,0.187945,-0.079022,0.314127,0.092032,0.108562,-0.168995,-0.005088,-0.089360,0.057976,-0.098500,0.087056,-0.217837,-0.018845,-0.076593,-0.301099,-0.079147,-0.062231,-0.071452,0.030344,-0.191762,0.107971,0.105881,0.093740,0.132328,-0.046742,-0.092761,-0.053710,0.088501,-0.005968,0.034276,0.072581,0.201165,0.016455,-0.057958,-0.089102,0.127737,0.013614,-0.003304,-0.126789,-0.206526,0.193422,-0.132876,-0.032378,0.235875,0.108653,-0.200662,0.095835,0.023402,-0.189130,0.141662
-0.011232,-0.094824,0.102708,-0.087538,-0.042123,-0.002419,0.053540,-0.003416,0.089637,0.083161,0.053106,0.001024,0.255707,0.080549,0.023782,-0.215122,-0.059127,-0.191381,-0.133674,0.017272,-0.186387,0.188943,0.068050,-0.221723,-0.013506,0.310512,-0.009096,-0.086477,-0.179851,-0.003597,0.025596,0.105753,0.163100,-0.177799,0.081314,0.059041,0.026615,-0.371284,0.009177,0.079432,-0.208485,-0.222308,-0.110451,-0.064797,0.077753,-0.019603,0.149637,0.109603,0.008180,0.027638,0.203623,0.189733,-0.071397,0.094971,-0.171358,0.136863,0.071868,-0.026241,-0.007359,-0.042517,-0.043387,-0.052459,-0.090180,0.239394,0.204535,-0.198242,-0.111631,-0.127781,-0.076467,0.049208,-0.133590,-0.014513,-0.051078,0.076945,0.020605,0.090320,-0.088532,0.073179,-0.104499,0.073416,-0.082765,0.014542,-0.078000,0.092240,-0.108967,0.128142,-0.033848,0.164913,0.028865,-0.188665,-0.035952,0.057239,-0.108666,-0.009254,-0.003080,-0.228896,0.328982,-0.406978,-0.114152,-0.073908,-0.106237,0.136965,-0.080860,-0.147428,-0.046062,0.082045,-0.207319,0.005047,0.205713,-0.015625,-0.010692,-0.131029,0.110273,-0.211616,0.159687,-0.066120,-0.147875,0.120444,-0.096367,0.063124,-0.022671,-0.174165,-0.032002,-0.015913,-0.094380,0.116235,-0.010019,-0.038483
0.164768,-0.036889,0.142021,0.166194,0.045001,0.124336,-0.090921,0.013683,0.005978,0.006638,0.071391,0.063140,-0.054791,0.069034,0.140577,0.020173,0.160323,0.041513,0.093804,0.094503,0.011131,-0.154771,0.038841,-0.123592,0.093174,0.056720,0.018541,-0.042752,-0.045588,-0.076856,-0.111694,-0.138517,0.106396,-0.006680,-0.234593,0.011047,0.056242,0.030797,-0.032288,-0.091908,0.107110,-0.123058,0.214050,0.068320,-0.192271,0.102799,-0.081690,-0.075383,0.069945,0.231264,-0.132536,-0.131570,0.092342,0.047302,-0.071690,0.085387,0.005426,-0.103962,0.046041,-0.112677,-0.046034,0.085299,-0.004929,-0.047886,-0.093384,0.036193,0.222937,0.237772,-0.098061,-0.281639,-0.254107,-0.141284,-0.224573,-0.107901,-0.009700,-0.025042,0.055224,-0.105556,-0.195038,-0.002400,0.023693,0.013446,0.049316,-0.005358,0.063734,-0.193596,0.009564,-0.217054,0.246552,0.185296,-0.204986,0.114043,-0.069203,0.125653,0.231186,0.034332,-0.167852,0.159441,-0.032547,0.117561,0.055082,0.102848,-0.046344,-0.186800,-0.243765,-0.072195,-0.189817,-0.239048,-0.070618,0.096084,-0.010743,0.044746,-0.237317,0.036303,-0.220923,0.098647,0.299767,0.051563,0.055321,0.025818,-0.001179,-0.055332,-0.042026,-0.036784,0.103174,0.094230,0.108037,-0.115572
0.001724,0.001708,-0.053222,-0.065470,0.017216,0.003666,-0.124930,0.013015,0.113229,-0.203223,0.030711,0.210963,0.157403,0.078534,-0.205664,0.017139,0.091920,-0.115933,-0.145450,0.049010,-0.059439,-0.026347,-0.173154,0.216147,-0.050274,0.130660,-0.112397,0.144956,-0.270455,-0.129299,-0.027201,0.139618,-0.112933,-0.185402,0.048932,0.070063,-0.032004,-0.034549,-0.062386,0.047408,0.078806,0.042255,-0.086539,0.012982,-0.012156,-0.134851,-0.152227,0.151896,0.152568,-0.146493,-0.090883,-0.031327,0.072555,-0.034998,0.075709,-0.136087,-0.051053,-0.050121,-0.133279,-0.119259,-0.085087,0.055839,-0.166320,0.132425,0.118906,0.051259,-0.111059,-0.018726,0.035567,-0.144662,-0.047722,-0.091011,-0.216779,0.060441,0.069181,0.145245,-0.006376,-0.007878,-0.128443,-0.149491,-0.118328,-0.256050,0.051670,0.049956,0.006663,-0.079497,-0.059102,-0.001388,-0.088429,0.150291,0.023009,-0.030813,-0.035929,0.166898,0.025739,0.282596,-0.269899,-0.106459,0.191777,0.058418,0.041624,-0.115377,0.015294,0.109282,-0.012057,0.062334,-0.217886,0.018321,-0.029858,0.102480,0.020626,0.042435,-0.082188,-0.068102,0.424015,-0.349378,-0.042042,0.200023,-0.157646,-0.031982,-0.089428,-0.015515,-0.055977,-0.058849,-0.098950,-0.094737,-0.204875,-0.060958
-0.041170,0.078840,0.108048,-0.261407,0.003044,0.009233,-0.173529,-0.192372,-0.013868,-0.106920,0.038002,-0.100650,-0.066319,0.223067,-0.047228,0.105099,-0.068585,0.195781,0.049923,0.016477,-0.093973,0.097638,-0.215240,-0.172516,-0.243200,-0.105505,0.025802,0.208365,-0.146628,-0.199445,-0.137317,-0.125956,0.264185,-0.176432,-0.096746,-0.229683,-0.112692,-0.014572,-0.171393,0.050626,0.074569,0.003536,0.072438,0.125595,-0.060297,-0.034034,-0.188441,-0.115993,-0.128848,-0.097667,-0.017478,0.010584,-0.055407,-0.054178,0.073996,0.032933,0.063961,-0.129422,0.057398,-0.044064,-0.005621,-0.173309,0.163145,-0.087507,0.057253,0.019875,-0.039938,0.065637,0.091587,-0.013381,0.101623,-0.056140,0.055286,-0.145576,0.064635,-0.003286,0.062193,-0.318225,-0.052613,0.052829,-0.049204,0.093755,0.125718,-0.056292,-0.218941,0.057001,-0.035474,0.120515,0.035270,-0.128642,-0.059223,-0.145157,-0.090919,0.019822,0.090667,-0.053085,-0.151215,0.028961,-0.262625,-0.037632,-0.149734,-0.109026,-0.058780,0.015705,-0.074752,-0.237871,-0.040933,0.062369,-0.276965,-0.138619,-0.056151,0.069369,0.190352,0.125822,0.123467,0.150766,-0.239943,-0.121623,-0.049880,0.081494,-0.052087,0.064619,0.100561,-0.067962,-0.120437,-0.042082,-0.099859,-0.191592
-0.093585,-0.054254,-0.121436,0.097092,0.025867,0.143854,0.285233,0.264626,-0.078565,0.210547,-0.047043,0.083221,-0.013848,0.051508,-0.036251,0.110701,-0.007550,-0.029840,0.184203,-0.088161,0.077836,0.005637,0.072405,0.060481,-0.076864,0.228245,-0.064098,0.157793,0.038562,0.147453,-0.123601,0.126733,0.245116,-0.021745,0.198684,0.100529,0.000115,0.098635,0.117670,-0.104240,0.154308,0.019145,0.093131,0.086222,0.060781,0.391607,-0.217271,0.155778,-0.081165,0.011685,0.192156,0.129816,-0.134256,0.137438,-0.032571,0.089172,0.139307,0.023084,-0.060775,0.112292,-0.134558,0.168672,0.110487,0.216286,0.010228,-0.108199,0.222216,0.136533,-0.099612,0.139513,0.247713,0.304085,0.112555,0.010137,0.059609,0.145851,0.049219,0.032401,-0.013181,-0.034022,0.119323,0.225025,0.273606,-0.069992,0.106370,0.083699,0.193122,-0.171398,-0.107506,0.116970,0.124104,-0.071741,0.234791,-0.050011,0.083520,-0.113897,0.097161,0.113832,0.065522,0.012252,0.064287,-0.113788,0.193903,-0.013870,0.076484,0.179150,-0.013385,0.187998,-0.039919,0.071134,0.131390,-0.245512,0.242536,0.109699,0.291040,-0.042477,0.153464,-0.149924,-0.025708,-0.037393,0.024379,0.314491,0.121268,-0.016287,0.163629,0.156203,0.244433,0.122361
0.167172,0.254433,0.194267,0.053422,-0.104846,0.162319,-0.059181,-0.074969,-0.096825,-0.002374,-0.148421,0.179061,0.117365,0.068795,0.105217,0.139034,0.183010,-0.062640,-0.229745,-0.003085,-0.220686,-0.067619,0.068090,-0.102995,-0.036200,-0.023786,-0.284103,0.018046,0.038391,0.105490,0.119597,0.003679,-0.053406,-0.002969,0.087774,-0.020401,0.039148,0.032924,-0.160899,0.003540,0.046075,0.038537,0.180405,0.014998,0.032686,0.022156,-0.062938,0.030554,0.223031,0.125158,-0.188228,-0.034443,0.066279,0.056104,0.066831,0.066403,0.120008,0.131270,0.200571,0.168899,0.092518,0.110238,-0.139948,0.033189,-0.083417,-0.025845,-0.234599,-0.039071,0.015468,-0.099991,-0.025828,0.106446,0.041664,-0.194365,-0.220076,0.035653,0.096138,0.010658,-0.113230,-0.151834,-0.157605,0.050591,0.104937,-0.051206,0.065772,-0.390005,-0.166416,0.108594,-0.055653,0.001503,-0.175739,0.044111,0.337659,-0.294161,-0.191585,0.105033,0.009876,0.277398,0.152324,0.020669,0.152739,-0.063850,0.093143,-0.025638,-0.192334,-0.020118,0.145895,0.143708,-0.148944,0.039045,0.105964,-0.097551,0.052230,-0.005243,0.180432,-0.138955,0.078844,0.034810,0.180660,-0.169560,0.224295,0.077543,-0.121620,-0.040378,-0.164691,0.043929,0.194525,-0.074724
0.077420,0.102781,0.013440,-0.043588,0.012744,0.193961,0.116668,-0.123539,-0.035385,0.114998,0.171347,-0.224719,0.074177,0.075756,-0.058246,-0.074720,-0.053185,-0.143008,-0.098715,-0.031542,0.004770,-0.040617,-0.276987,0.035503,0.059398,-0.094301,0.136715,-0.054763,-0.085086,0.144893,0.201121,-0.126592,0.077218,-0.117896,0.040983,0.095551,0.093320,-0.060920,-0.013228,0.039091,0.331510,0.040712,-0.112049,0.097174,0.085035,-0.124101,0.064957,-0.012076,-0.259356,0.072423,-0.061337,0.098659,0.260157,0.067487,-0.028117,-0.100299,0.073707,-0.086475,-0.091975,-0.081340,0.033347,-0.024202,-0.120340,0.221560,-0.024911,-0.011693,-0.079805,0.041802,0.091315,-0.124143,-0.156790,-0.137073,-0.150558,0.051582,-0.257504,-0.243112,-0.057802,-0.102298,-0.229437,0.055755,-0.125127,0.212661,0.034497,-0.095690,-0.009465,-0.237007,0.018264,-0.120073,-0.038033,0.083868,0.084084,-0.031245,-0.089307,-0.137292,-0.085068,0.015512,0.068278,-0.051309,0.060732,-0.091648,-0.087157,0.279835,-0.007928,-0.300843,0.072905,-0.021686,-0.037783,-0.065544,0.204893,0.128578,0.013284,0.045776,0.068497,0.153005,0.060998,-0.248159,-0.038833,-0.019166,0.232610,-0.022363,-0.134054,-0.128117,0.061487,0.004561,-0.107536,-0.106414,-0.015467,0.079209
-0.073087,0.083929,0.003260,0.195794,0.075900,0.046568,0.044205,-0.164156,0.017825,0.029861,-0.211693,-0.219871,0.178299,0.070102,-0.065499,-0.004366,0.182311,-0.165372,0.051112,0.082578,-0.420105,-0.017731,0.100506,-0.023496,-0.061738,0.142259,0.042957,-0.095735,0.094647,-0.086660,-0.051740,-0.146167,0.108197,0.060376,-0.020421,-0.060374,-0.054870,-0.152410,0.002789,-0.094386,-0.066659,-0.137188,-0.047964,0.181169,-0.009115,-0.108739,-0.178861,0.017989,-0.167554,0.081575,-0.001521,-0.057095,-0.021379,-0.144322,0.040347,0.003031,0.000940,0.058289,-0.248650,-0.125459,-0.027450,0.058430,-0.128627,0.088469,0.125679,-0.191062,-0.117672,0.142725,0.050889,0.009897,-0.072939,0.046167,-0.263897,-0.009619,0.064318,0.049730,-0.073575,0.000384,0.367110,0.171695,-0.129680,0.080976,0.177376,0.126923,-0.064969,0.092221,-0.144297,0.059842,0.154388,0.077350,-0.034907,-0.094812,0.154703,-0.102424,-0.217170,0.074308,-0.020249,0.052136,0.257327,0.012239,0.101944,-0.004141,-0.066603,0.143464,-0.010804,0.123767,0.002296,-0.102952,-0.236459,0.083039,0.118946,-0.106472,0.093079,-0.236907,0.094570,0.147118,0.023640,0.168216,0.015927,0.097254,-0.036566,-0.134476,0.073838,-0.141867,-0.287552,0.168844,0.198335,-0.051588
-0.010340,0.127634,-0.174173,-0.077743,-0.110651,-0.011621,-0.026484,0.332222,0.013366,0.002749,0.201365,0.003963,-0.102498,-0.138656,-0.233079,-0.103776,0.074152,0.004696,0.102024,-0.147936,-0.153934,-0.326103,-0.073696,-0.092280,-0.085588,0.092055,-0.022112,-0.028335,-0.067157,-0.051614,0.107972,-0.155641,-0.060816,0.002203,-0.095209,-0.036738,0.087211,-0.035801,0.073116,0.010105,0.025972,-0.149861,-0.086441,-0.071802,-0.046794,0.031467,0.156315,-0.110404,0.006805,-0.004422,-0.144034,-0.163553,0.054848,-0.134320,0.059760,0.193447,0.008818,0.151334,-0.033921,0.102884,-0.115066,0.104976,0.057482,-0.008751,0.216627,0.086558,-0.078678,0.122673,0.138754,0.103306,0.041170,0.072400,-0.050413,-0.038231,-0.180653,0.018531,-0.028681,0.181249,-0.029286,0.062256,-0.078361,0.067106,0.308687,0.114907,0.088692,-0.044575,-0.032077,0.073509,-0.172131,0.068969,-0.093474,0.029109,-0.200669,0.121324,0.151489,0.095381,-0.347985,-0.190310,0.058201,0.155305,0.119168,-0.036432,0.064192,-0.001635,-0.205069,-0.088880,-0.189982,-0.160318,-0.151047,-0.056003,-0.035282,-0.040489,-0.163471,0.059862,0.118965,0.165639,0.006311,-0.341424,0.094703,0.019689,-0.241566,-0.194744,-0.010401,0.142085,0.128777,-0.097363,0.082935,0.007153
0.061419,0.103925,-0.060961,0.036013,0.171922,0.232904,0.179902,-0.044627,-0.072504,-0.052379,-0.272714,0.086650,0.008383,-0.052880,0.212411,-0.151931,0.096756,0.060056,0.122934,-0.013702,-0.094137,0.129996,-0.082346,-0.236011,-0.090550,-0.074977,-0.172945,-0.026933,0.068859,-0.091404,0.168250,-0.069427,-0.148348,0.036075,-0.030595,-0.025953,-0.117844,-0.040504,-0.076292,-0.010913,-0.085156,-0.049747,0.062956,-0.191039,0.080402,-0.037149,0.028106,-0.014061,0.219395,0.116190,-0.037494,-0.036175,-0.070996,0.058554,-0.058271,0.285559,-0.013492,0.257505,0.095383,-0.136745,-0.070877,0.048458,-0.103880,-0.091791,-0.032011,-0.200989,0.268901,-0.172233,0.126895,0.102936,-0.014627,0.108682,0.028351,0.041822,-0.104636,0.098078,0.110348,0.100135,0.267566,0.015241,-0.032752,0.005390,-0.065491,0.003145,-0.084832,-0.174733,-0.000079,0.055263,0.160083,-0.316849,-0.257555,0.124955,0.177676,-0.084102,-0.090485,-0.195315,-0.148471,0.007426,-0.053858,0.103007,0.182174,-0.046050,0.143632,0.176458,-0.287107,0.004919,-0.052225,-0.086283,-0.085618,-0.182146,0.136270,-0.157429,-0.184846,-0.165697,0.166742,0.259801,-0.010358,-0.163228,-0.158572,0.087494,0.114199,0.120385,0.013498,-0.031532,0.124089,-0.052526,0.051580,-0.037711
0.105710,-0.080351,-0.107587,0.154600,-0.168668,-0.017204,0.146529,0.019943,-0.073316,0.016799,-0.090015,0.165692,-0.117469,0.148869,0.092296,-0.136032,0.231884,0.215404,-0.308694,0.188582,0.228302,0.045234,0.100087,0.027542,0.108604,-0.107518,-0.097678,-0.016871,0.342322,-0.115454,0.131111,-0.029548,0.256532,0.126676,-0.079885,-0.011093,0.083191,0.120266,-0.028580,0.033748,-0.060974,0.028826,-0.105737,0.051770,-0.024329,-0.060762,-0.044928,-0.265414,-0.009431,-0.118957,0.125355,-0.048427,0.052826,0.001097,0.005236,-0.023308,-0.252494,0.010982,0.207353,0.225601,-0.096927,-0.074454,-0.013986,0.079404,0.163754,-0.118139,-0.011603,0.052063,-0.139849,0.168758,0.151226,0.073048,0.211602,-0.058574,0.027338,-0.206313,0.072206,0.191117,0.049876,0.080501,0.125379,0.141220,-0.116930,0.121733,0.003058,0.157185,-0.044780,-0.321423,0.082350,0.293859,0.024802,0.002095,-0.046886,0.073439,0.144791,0.305118,-0.021053,0.082273,-0.093852,0.167809,0.092139,-0.024542,0.042093,-0.129898,0.204364,-0.210582,0.001139,0.128511,-0.051296,0.106287,0.051496,0.223516,-0.024840,0.243398,0.026246,-0.048134,-0.038783,-0.032358,-0.017348,-0.017618,0.161754,0.036806,0.009824,-0.059559,0.307543,0.033226,0.090793,0.044965
-0.256224,-0.071123,0.035307,0.311701,-0.201460,0.013072,-0.119921,0.009651,0.057819,-0.045323,-0.008484,0.241472,0.074309,-0.046721,0.110935,0.088028,-0.097925,0.039567,-0.048750,0.056827,-0.074402,-0.178443,0.039032,-0.073961,0.005484,-0.012799,0.239281,-0.139495,0.197131,0.016188,0.017387,0.258135,-0.048749,0.316810,-0.052599,-0.052087,0.008183,-0.029155,0.187753,0.216199,-0.080635,0.263030,0.103694,0.090254,0.232463,0.079342,0.000531,-0.088178,0.043110,0.139294,0.021797,0.058006,-0.042676,-0.199993,0.022800,-0.083026,-0.115379,-0.237299,0.010774,0.051220,-0.045963,0.093318,-0.047110,0.187346,-0.204676,0.173763,0.206508,-0.268383,0.040211,-0.083759,0.049867,0.250981,0.008387,0.153466,-0.104438,0.059401,-0.127417,-0.039996,-0.163701,-0.051067,-0.384157,-0.169811,0.037779,-0.108738,0.158789,0.118823,0.148089,0.118640,0.027301,0.246350,0.089156,0.026322,0.037963,-0.194583,0.071782,0.196242,-0.027323,-0.008701,-0.333383,0.042713,0.142936,0.068122,-0.098400,0.013152,-0.030910,0.157024,-0.017433,-0.287665,-0.043283,0.001795,0.002187,-0.310365,0.026014,0.094523,0.147789,0.037727,0.221919,0.116592,0.246438,-0.117672,0.172004,0.126781,-0.006913,0.010652,0.226929,-0.082477,0.126618,-0.090047
0.043074,-0.056160,0.281074,-0.038878,-0.040440,-0.000575,-0.084252,0.024602,-0.030724,-0.156556,-0.066509,0.066385,0.150599,0.040806,0.169946,0.043079,-0.054724,-0.002036,-0.117523,0.048120,-0.059342,-0.138665,0.079610,-0.088042,-0.097202,0.023784,-0.033264,-0.143695,0.119328,-0.061802,-0.064087,0.018645,0.058633,-0.018684,-0.198012,-0.022470,-0.059968,0.043195,0.019688,0.046731,0.068423,0.025366,-0.145748,-0.016892,-0.080311,-0.016639,-0.200762,-0.142093,-0.045665,0.194785,0.017960,0.118039,-0.014644,-0.024618,-0.028363,-0.058565,0.071124,-0.005947,-0.195075,-0.137938,-0.032296,0.021122,-0.053035,-0.140685,-0.212973,0.077061,-0.094662,-0.145190,0.128663,-0.001423,-0.178545,0.098293,0.077250,-0.027255,-0.249629,-0.043425,-0.197142,-0.162578,0.236782,0.007363,0.126706,0.241020,0.004577,-0.099124,-0.073960,0.301433,-0.098228,-0.027983,0.034874,-0.083238,0.088354,0.198852,-0.058968,-0.000020,-0.104238,0.034118,0.164428,0.002952,-0.050401,0.194501,-0.027791,-0.152686,0.115004,0.356069,-0.060531,-0.082429,-0.052052,-0.219735,0.083297,0.019020,-0.009367,0.137662,-0.116226,0.013457,0.062194,-0.077228,0.085389,-0.021563,0.149552,0.246853,-0.032673,0.087679,-0.034580,0.135574,-0.027828,0.012414,0.286757,0.015144
-0.128089,-0.003677,0.027240,0.152127,-0.230902,0.015549,0.142328,-0.019626,0.024500,-0.033083,-0.211336,0.074491,0.138779,-0.046516,-0.021739,0.022649,-0.068713,-0.010871,-0.062936,-0.097024,-0.210064,0.010630,-0.124740,0.048409,0.214070,0.114144,0.021860,0.013963,0.258319,0.014749,-0.192993,0.030060,0.067384,0.071359,-0.014991,0.109483,-0.166795,-0.004896,0.056114,0.055408,0.096225,-0.017158,-0.002342,0.000335,-0.056811,-0.072824,-0.044772,0.065154,-0.048795,0.006722,-0.070256,-0.349312,-0.042596,0.201861,0.088598,0.137693,-0.044282,0.262577,-0.018486,-0.034181,-0.093727,-0.173408,-0.175788,0.050274,-0.330862,0.161889,0.075237,0.239525,0.132132,-0.030258,0.058955,0.064318,-0.171892,-0.208397,0.078729,0.011445,-0.067629,0.008364,-0.250640,-0.195389,-0.108347,0.157585,-0.007429,-0.085990,0.040323,0.098597,-0.072825,0.091129,-0.102268,-0.007597,0.136489,-0.029827,-0.110181,0.176968,0.029905,-0.024613,0.142182,-0.086908,0.131658,-0.335951,-0.081916,-0.018441,-0.051496,0.013110,-0.075623,0.294803,-0.104899,-0.221307,0.120619,-0.172323,0.008830,-0.054610,0.069193,0.108473,-0.015458,-0.048348,-0.118437,0.115987,-0.054195,-0.062101,-0.064201,0.149383,0.101235,-0.046850,-0.124206,0.008092,-0.158356,-0.087675
0.070713,-0.048540,-0.092557,0.201873,0.037433,-0.098438,0.042022,0.059983,-0.296069,0.088974,-0.149646,0.091425,0.016871,0.241709,-0.107387,0.079866,-0.099791,0.032350,0.140040,0.057870,-0.064811,0.183854,0.070064,-0.075820,0.108301,0.124343,0.192870,0.006482,-0.132281,-0.141705,-0.141855,-0.276882,0.070917,0.011805,0.020814,0.082352,0.141224,-0.021018,-0.126600,-0.113472,-0.069173,0.171001,0.181995,-0.162295,0.112131,-0.119657,0.033664,0.087775,-0.091303,-0.056138,-0.091964,0.015898,0.076842,0.186387,0.155763,-0.053477,0.073204,0.128588,-0.044970,-0.191811,-0.014675,0.021880,-0.093110,-0.045646,0.036313,-0.011733,0.084462,0.268247,-0.128347,0.021138,-0.101589,-0.059836,-0.229059,-0.152833,-0.107432,-0.031258,0.128131,-0.024531,0.021157,-0.046552,-0.292469,-0.031081,0.063863,-0.009945,-0.152507,-0.306487,-0.139090,0.107638,0.159319,-0.064614,-0.048275,-0.088212,-0.309573,0.075035,-0.022885,0.018596,-0.130807,0.166119,-0.098507,-0.170840,-0.055571,-0.034254,-0.055476,-0.045987,-0.210170,0.117700,-0.128308,0.106599,0.137018,0.170697,-0.019415,-0.102682,0.003471,0.008879,-0.076498,-0.125393,-0.007817,0.081017,-0.151722,0.044092,-0.105370,0.003468,0.049894,0.031113,-0.109297,-0.018635,0.088432,0.015977
-0.118949,-0.016006,0.080316,0.065909,-0.145494,-0.385489,-0.078046,-0.220842,0.212309,0.211943,-0.136112,0.130987,-0.174143,-0.083234,-0.150398,0.169498,-0.020286,0.005333,-0.022682,-0.292643,0.006084,-0.050012,-0.059135,-0.202671,0.055919,0.157370,-0.050778,-0.057084,-0.071390,-0.104229,0.097771,-0.218481,-0.045820,0.049384,0.080984,0.071343,0.134833,0.168206,0.006580,-0.079558,0.133976,-0.063437,0.053555,-0.173036,0.427272,-0.030266,-0.153557,-0.000078,0.031636,0.089641,-0.087771,-0.107815,0.023192,-0.369734,0.198917,0.097262,0.063018,0.068715,-0.004743,0.132886,-0.115158,0.152319,-0.072864,0.206202,-0.103543,-0.083639,0.144719,0.159851,-0.158935,0.413732,-0.040325,0.050977,-0.247414,-0.197783,0.011996,0.135140,-0.000613,0.049633,-0.056959,0.080237,-0.005874,-0.025829,0.032741,-0.162479,0.034106,-0.007866,-0.018329,0.104967,-0.125650,-0.067528,-0.034218,0.119414,0.045187,-0.024772,0.250483,0.207268,-0.024006,-0.291968,-0.150363,0.067636,-0.216280,-0.056819,-0.212999,-0.020958,-0.076670,0.015171,-0.025030,0.001607,-0.008951,0.090418,-0.023613,0.300846,0.199442,0.146881,0.073386,0.108740,0.217377,-0.276420,0.018878,0.088930,-0.135207,-0.129388,-0.032247,-0.044286,-0.151822,0.059596,-0.076570,-0.105964
-0.166838,-0.060173,-0.011487,-0.005106,0.081951,-0.104026,-0.171693,0.167286,0.080959,-0.163544,0.112898,-0.218821,0.000722,-0.021234,-0.110996,0.130239,0.169991,-0.121502,0.012289,-0.172302,0.015117,-0.128383,-0.138852,0.056047,-0.105352,-0.013804,-0.093772,0.227009,0.031442,-0.203948,-0.178393,-0.250231,0.066951,0.091992,-0.075024,0.055610,0.018063,-0.097091,-0.119511,0.089248,0.079165,-0.211985,0.131167,0.169227,0.073044,0.034007,-0.124655,0.097632,0.117278,0.082066,0.176702,-0.040426,-0.244522,-0.068642,-0.094726,-0.187257,0.255076,-0.016709,-0.166467,-0.087346,-0.165647,0.133510,-0.144253,0.021770,-0.148971,0.028029,0.042993,0.013745,-0.069766,0.090930,0.017400,-0.215456,0.093653,-0.077391,-0.297166,0.323078,-0.056408,0.247790,0.005316,0.097343,-0.174655,0.158026,0.063052,0.022845,-0.005303,0.157980,0.055840,0.011858,-0.020216,0.063651,0.120687,-0.166879,-0.024796,0.138632,0.067273,0.092494,0.121558,-0.169261,-0.124151,0.079387,-0.101725,0.039175,-0.116053,-0.032301,0.053048,-0.078909,0.131384,0.293183,0.033325,-0.124223,-0.053757,-0.098158,0.255886,-0.168421,0.034029,0.031279,0.007083,0.129201,-0.048487,0.063901,0.008538,0.144100,-0.120650,0.080878,-0.196476,-0.090938,0.214982,-0.213402
-0.031809,0.020737,0.072130,0.107821,0.018593,-0.067136,0.011970,-0.204601,-0.145861,-0.277669,0.035666,-0.070460,-0.105216,-0.018724,-0.054023,-0.113378,-0.025848,-0.053616,-0.000275,0.009048,-0.143742,-0.125719,-0.145799,-0.076945,-0.009204,-0.313490,-0.083277,-0.090005,-0.189017,0.033952,-0.184135,-0.078672,-0.088511,0.054604,-0.031667,0.099340,0.033164,0.205007,0.072717,0.094930,0.010320,-0.182372,-0.165198,-0.017383,0.017242,0.017699,-0.134461,-0.137491,0.105735,-0.023004,-0.104949,0.096020,0.119402,0.062568,-0.110532,-0.183276,-0.063593,-0.232310,-0.029978,0.064744,-0.160473,-0.087240,-0.101457,0.005675,0.034827,-0.138346,0.178431,0.020541,0.096393,-0.065989,0.180617,0.084233,0.017031,-0.018012,0.025612,-0.244435,-0.111408,-0.319648,0.153500,0.080595,-0.206705,-0.208862,-0.068432,0.057447,0.039596,0.044815,0.098753,-0.036479,0.008803,0.023728,-0.065412,-0.078481,0.045498,-0.043729,0.096963,0.043542,-0.119506,0.189751,-0.054923,-0.186151,-0.150270,0.117024,0.070706,0.032748,0.013487,-0.006667,-0.090503,-0.098257,0.140846,0.057538,0.059107,0.081497,-0.095086,-0.070093,-0.064065,0.118047,0.072709,-0.153108,0.017371,-0.078060,-0.156384,0.094972,-0.005656,0.291976,-0.064789,0.034393,-0.196943,-0.000222
